svm_type c_svc
kernel_type rbf
gamma 0.09
nr_class 28
total_sv 2672
rho 0.555262 -0.0714796 -0.00775111 -0.386855 -0.660057 -0.492226 -0.427973 -0.426877 0.0848855 -0.171624 -0.871904 -0.395134 -0.490177 -0.107659 -0.435254 -0.647411 -0.496548 0.587021 -0.718616 -0.719015 -0.574836 -0.556716 -0.287557 -0.593446 -0.542502 -0.464203 0.290766 -0.212858 -0.349683 -0.607129 -0.833697 -0.452576 -1.09134 -0.848586 -0.159243 -0.472051 -1.09775 -0.926471 -1.08077 -0.390464 -0.595759 -0.999021 -0.556407 -0.477958 -0.945845 -0.956833 -0.86493 -1.18144 -0.484774 -0.755249 -0.793209 -0.676146 -0.0679383 -0.364833 -0.315551 -0.382788 -0.184437 -0.501325 -0.56947 0.231292 -0.558434 -0.610247 -0.293728 -0.524898 -0.0981835 -0.401576 -0.461754 -0.393713 0.475188 -0.448695 -0.390041 -0.245794 -0.487494 -0.223635 -0.392104 -0.263482 -0.543164 0.192385 -0.354707 -0.493146 -0.365783 -0.324887 -0.429143 0.0956498 -0.111584 -0.496534 -0.278895 -0.478815 -0.101185 -0.256396 -0.426962 -0.374315 0.481436 -0.422663 -0.225706 -0.383132 -0.440168 -0.0914149 -0.40257 -0.196572 -0.371706 0.223962 0.14022 0.0372316 0.340583 -0.0308383 0.43647 0.219597 0.0160391 0.216272 0.065939 0.296698 0.367711 -0.00161177 0.161348 0.77878 0.207821 0.234475 0.171799 0.210159 0.310687 0.0102507 0.101228 -0.0408966 0.534279 -0.141752 -0.0547691 -0.252678 0.444856 0.171734 -0.141614 0.290568 -0.0806718 0.294782 0.437527 -0.414839 0.0207587 1.60572 0.00604017 0.206588 0.14278 0.172503 0.247143 -0.226018 -0.0101185 -0.272422 1.31849 -0.119784 -0.138335 0.456018 0.246562 -0.284155 0.111956 -0.0930421 0.274479 0.0757887 -0.21308 0.0354789 0.82852 0.0500992 0.111041 0.0473615 0.163199 0.178162 -0.240445 -0.0367477 -0.241714 0.694066 -0.437689 0.62505 0.332637 -0.251691 0.194021 -0.109133 0.319396 0.412769 -0.370556 0.141957 1.17365 -0.0549141 0.247665 0.0267912 0.1733 0.358333 -0.196894 0.226043 -0.300285 0.857235 0.467879 0.373225 -0.0752067 0.31231 0.249364 0.34201 0.461785 -0.0986818 0.361892 0.886133 0.199681 0.24792 0.21078 0.429507 0.346384 -0.015318 0.238542 -0.0511489 0.718432 -0.271333 -0.717533 -0.470842 -0.599652 -0.380549 -0.597346 -0.586629 -0.332271 0.330502 -0.627918 -0.464981 -0.396308 -0.506536 -0.419658 -0.533512 -0.396491 -0.524559 0.335563 -0.378089 -0.123108 -0.401765 -0.148611 -0.127865 -0.417588 -0.145339 0.892836 -0.237836 -0.138841 -0.280644 -0.169654 -0.105654 -0.390704 -0.293179 -0.446248 0.46781 0.251332 0.124755 0.519265 0.665258 -0.142407 0.185054 1.16937 0.2856 0.609899 0.185478 0.279096 0.549964 -0.0830796 0.248053 -0.117955 0.689472 -0.830561 0.177017 0.179998 -0.338441 0.00414157 1.06329 -0.116594 -0.0156404 -0.0226706 0.19 0.148458 -0.311628 -0.0860439 -0.316429 0.837038 0.35442 0.323425 -0.191517 0.140957 1.02126 0.0340616 0.234676 0.107322 0.384995 0.438389 -0.152759 0.225294 -0.141962 0.949518 -0.158033 -0.568758 -0.254965 0.602078 -0.300575 -0.431094 -0.286112 -0.106685 0.0285734 -0.437759 -0.257943 -0.530839 0.444331 -0.4378 -0.194727 0.91101 -0.449995 -0.463727 -0.241257 0.0283945 0.00110299 -0.301729 -0.0405743 -0.361024 0.51164 0.419791 1.01915 0.260831 0.273516 0.434255 0.344257 0.626228 -0.0330977 0.218407 -0.0833902 0.799263 0.632357 -0.092967 0.20823 0.12779 -0.0387363 0.199824 -0.176074 0.0507857 -0.331051 0.973375 -1.05705 -1.21856 -0.902042 -1.18543 -0.828494 -0.798778 -0.596685 -0.926531 1.19874 0.327636 0.193608 0.826331 0.210596 -0.169985 0.126317 -0.362859 0.756986 0.120847 -0.0469209 0.281319 -0.127927 0.203985 -0.333008 0.881693 -0.0173827 0.298119 -0.148228 0.0213601 -0.311924 0.816294 0.221542 -0.356721 0.00933292 -0.310179 1.03717 -0.43412 -0.138262 -0.534129 0.635951 0.0998552 -0.0595998 0.596304 -0.360499 0.507279 0.804383
label 10011 10012 10051 10052 10053 10141 10142 1014657 1014658 1030 1031 1032 10401 10402 141 142 151 152 2 22 25 26 29 3 34 35 39 4
probA -4.86609 -4.90179 -4.34769 -4.67716 -5.32888 -4.71515 -5.47212 -4.82553 -4.70013 -4.89957 -4.6296 -4.79773 -4.61727 -5.06531 -4.85789 -4.91768 -4.81252 -5.11376 -4.76516 -4.89848 -5.14214 -4.75184 -4.90134 -4.63642 -4.45484 -4.68436 -4.74552 -4.84647 -4.47239 -4.6193 -5.36993 -4.78722 -5.28639 -4.73367 -4.83279 -4.81172 -4.64034 -4.72683 -4.54794 -4.86295 -4.72764 -4.76879 -4.77549 -5.0123 -4.68563 -4.90992 -5.07652 -4.7732 -4.85207 -4.56635 -4.49782 -4.65218 -4.61287 -4.01034 -4.51491 -5.20634 -4.6432 -5.35303 -4.71766 -4.77747 -4.60796 -4.77548 -4.67385 -4.50207 -4.98947 -4.91696 -4.80671 -4.78409 -4.97716 -4.7642 -4.93381 -5.09449 -4.81221 -4.88399 -4.65071 -4.55498 -4.6102 -4.50714 -4.08634 -4.79177 -4.39362 -4.8912 -4.46375 -4.60699 -4.34718 -4.43002 -4.30236 -4.17989 -4.64043 -4.5864 -4.46921 -4.41398 -4.58031 -4.24706 -4.43712 -4.66097 -4.32034 -4.45672 -4.32862 -4.30985 -4.27285 -4.024 -5.03684 -4.40152 -5.03513 -4.41219 -4.70468 -4.49442 -4.52112 -4.46191 -4.21411 -4.78601 -4.75528 -4.48876 -4.47052 -4.98286 -4.45991 -4.68555 -4.82337 -4.63245 -4.59631 -4.27813 -4.25114 -4.30848 -4.25629 -5.04808 -5.70024 -5.11796 -5.3337 -5.0357 -5.2636 -5.06915 -4.85053 -5.43014 -5.4721 -5.27672 -5.06715 -5.25612 -5.18089 -5.38675 -5.57996 -5.26113 -5.31741 -5.11349 -5.05822 -5.08299 -4.78364 -5.20543 -4.57246 -4.68723 -4.53732 -4.64352 -4.47582 -4.36899 -4.93153 -4.83 -4.68461 -4.49339 -4.8598 -4.64594 -4.88118 -4.88523 -4.81094 -4.66767 -4.49252 -4.42335 -4.48628 -4.2885 -4.96754 -5.36843 -5.28054 -5.31292 -5.14292 -4.98022 -5.37037 -5.37351 -5.28309 -5.14691 -5.60491 -5.10515 -5.3773 -5.59396 -5.20338 -5.29328 -4.98243 -4.99762 -5.08106 -5.08931 -4.71556 -4.71805 -4.72886 -4.64478 -4.41067 -4.89329 -4.91175 -4.72202 -4.54908 -5.161 -4.61142 -4.75264 -4.95794 -4.59696 -4.7093 -4.50411 -4.41029 -4.5118 -4.447 -4.77074 -4.75988 -4.78496 -4.70505 -4.97939 -4.94127 -4.83921 -4.74647 -5.24797 -4.81041 -5.00852 -5.08694 -4.87226 -4.78428 -4.66972 -4.53564 -4.63172 -4.62888 -4.57097 -4.46621 -4.38307 -4.89716 -4.92956 -4.58524 -4.60718 -4.82683 -4.68778 -4.80748 -5.05781 -4.64862 -4.66298 -4.58486 -4.45736 -4.57981 -4.37593 -4.70007 -4.44517 -4.8361 -4.85166 -4.69896 -4.55677 -4.98197 -4.60682 -4.70029 -4.94689 -4.6695 -4.66961 -4.61183 -4.46365 -4.66867 -4.42892 -3.91789 -4.93692 -4.90946 -4.5053 -4.51491 -4.77337 -4.57883 -4.79505 -4.90789 -4.62461 -4.64329 -4.49437 -4.3877 -4.58291 -4.33015 -4.74866 -4.75439 -4.42731 -4.34802 -4.57806 -4.413 -4.59364 -4.77081 -4.40494 -4.44143 -4.23543 -4.12077 -4.30664 -4.15485 -4.9467 -4.89271 -4.99328 -5.2815 -4.62945 -4.89265 -5.23581 -4.62845 -5.00619 -4.79535 -4.69849 -4.78326 -4.81323 -4.93583 -4.82778 -5.25322 -4.60608 -4.82518 -5.1948 -4.7434 -4.95624 -4.7987 -4.70893 -4.87581 -4.77464 -4.49247 -5.01511 -4.61095 -4.72756 -4.75498 -4.72054 -4.60975 -4.50731 -4.46028 -4.58535 -4.44216 -4.97546 -4.51799 -4.75961 -4.32243 -4.64225 -4.58872 -4.57346 -4.41774 -4.5537 -4.31238 -5.03885 -5.21492 -5.34813 -4.94714 -5.03919 -5.00581 -4.84372 -4.96246 -4.70499 -4.30162 -4.9986 -3.90169 -4.83556 -4.5878 -4.46394 -4.62846 -4.36939 -5.25174 -4.46008 -4.86614 -4.79238 -4.69088 -4.80108 -4.5578 -5.05444 -5.05654 -4.85586 -4.79477 -4.90512 -4.65735 -4.86065 -4.66049 -4.56283 -4.69523 -4.48278 -4.62209 -4.52759 -4.64367 -4.6117 -4.1428 -4.40681 -4.39754 -4.32173 -4.32369 -4.24658
probB -0.0541357 -0.143013 -0.127462 -0.552815 0.337513 -0.356156 0.306361 -0.222514 0.004309 -0.166828 -0.130395 -0.228979 -0.455284 0.0803563 0.0538863 -0.26438 -0.205492 0.268246 -0.164518 0.145224 0.0244815 -0.2397 0.0620731 -0.382721 -0.390501 -0.390259 0.0185688 -0.114178 -0.0137246 -0.590849 0.408859 -0.117248 0.349137 -0.26316 0.108756 -0.00860155 -0.0159307 -0.122842 -0.338422 0.0413551 0.0399609 -0.197844 -0.124557 0.260467 -0.0739622 0.0639112 0.116201 0.155041 0.338599 -0.309902 -0.289792 -0.374742 -0.0480496 -0.259965 -0.341344 0.39824 -0.12681 0.429015 -0.175521 0.0283975 -0.0252678 -0.036739 -0.28338 -0.282542 0.172168 0.176804 -0.139486 -0.157131 0.301555 0.00941059 0.123965 0.171759 0.0499043 0.10032 -0.34065 -0.343537 -0.271863 -0.0557449 -0.0302303 0.447146 -0.0683354 0.367434 -0.0126275 0.107429 0.0609079 -0.0680066 -0.190749 -0.320276 0.117017 0.11317 -0.0903917 -0.0940187 0.383638 -0.0299297 0.162877 0.122882 0.0345365 0.0447186 -0.138637 -0.185852 -0.169833 -0.243882 0.935095 0.246601 0.849354 0.234878 0.533378 0.466701 0.415811 0.298662 0.049652 0.626368 0.611997 0.278279 0.301903 0.857596 0.297562 0.549749 0.624084 0.475467 0.459502 0.0637088 0.094396 0.175566 0.134153 -0.479334 -0.0757505 -0.612738 -0.283533 -0.281076 -0.482203 -0.462663 -0.585217 -0.288625 -0.0874413 -0.601584 -0.514561 0.117727 -0.505306 -0.184328 -0.246335 -0.283039 -0.256617 -0.77471 -0.660902 -0.818162 -0.334647 0.52676 -0.0172785 0.197855 0.0367686 0.17377 0.0561038 -0.254469 0.310957 0.309187 -0.0403868 0.0718659 0.51676 0.0642511 0.346838 0.30659 0.232937 0.17187 -0.187687 -0.141338 -0.149325 0.0399181 -0.607583 -0.302593 -0.515865 -0.580509 -0.552972 -0.826662 -0.282935 -0.0683564 -0.564465 -0.450911 0.0204286 -0.404988 -0.189151 -0.270597 -0.305829 -0.312957 -0.654601 -0.407517 -0.788802 -0.515402 0.257081 0.230815 0.115693 0.0612784 -0.164373 0.323518 0.428353 0.0728598 0.199428 0.66126 0.158491 0.294171 0.397688 0.223286 0.286844 -0.167232 -0.0170469 -0.10828 0.0102943 -0.123126 -0.47806 -0.179454 -0.688549 0.057667 0.0845864 -0.219259 -0.216407 0.329881 -0.117359 0.101512 0.0556304 -0.0521726 0.200049 -0.391996 -0.453748 -0.290724 -0.17251 -0.0806239 -0.0673224 -0.239863 0.131673 0.281634 -0.150561 -0.214016 0.383207 0.0244935 0.122321 0.26891 0.103473 0.195502 -0.289583 -0.357671 -0.343516 -0.106681 -0.169286 -0.363993 0.132781 0.293165 -0.151151 -0.0819321 0.32042 -0.0816337 0.127105 0.270462 0.0852456 0.169804 -0.278149 -0.359839 -0.224937 -0.00360199 0.201986 0.277507 0.389245 -0.00126059 0.0725048 0.369085 0.0377295 0.278353 0.349701 0.202816 0.102577 -0.216724 -0.206501 -0.184765 0.0816408 0.477822 0.607816 0.217432 0.258789 0.541873 0.357296 0.570532 0.537096 0.364768 0.281151 0.0323347 -0.0062727 0.0813782 0.138729 0.036261 -0.254019 -0.26369 0.261133 -0.238935 -0.00644662 0.0146 -0.0832158 -0.0399938 -0.50563 -0.481593 -0.432642 -0.232585 -0.375223 -0.423259 0.100207 -0.2569 -0.220776 -0.0656656 -0.0697176 -0.0643722 -0.50598 -0.341887 -0.506332 -0.270334 0.106614 0.490499 0.0350046 0.280328 0.334868 0.20493 0.128952 -0.174899 -0.201789 -0.206239 -0.0768011 0.42333 0.0279467 0.307439 0.0417209 0.136608 0.0520246 -0.237329 -0.267673 -0.172557 -0.0199889 -0.373216 -0.104271 -0.202814 -0.221184 -0.0976556 -0.709137 -0.763572 -0.636194 0.545266 0.157975 0.298356 0.138426 0.00390156 -0.29477 -0.280328 -0.255836 0.0465758 -0.0182454 0.163735 0.0222914 -0.46489 -0.494222 -0.496755 -0.317922 -0.154023 -0.139132 -0.558942 -0.548972 -0.521088 -0.224752 0.0987021 -0.387916 -0.377721 -0.329063 0.0676131 -0.390885 -0.182939 -0.369873 -0.103796 -0.11983 0.0548534 0.0816934 0.155445 0.187284 0.0191521
nr_sv 133 113 73 51 27 214 55 194 42 101 94 83 108 76 113 118 73 87 239 82 143 95 121 70 12 51 43 61
SV
0 0 0 0 0 0 0 0 0 0 0 0 0 0 0 0 0 0 0 0 0 0 0 0.1299732730602775 0 0 0 1:0.56085575 2:0.49728787 3:0.36793816 4:0.24699578 5:0.55139458 6:0.55706149 7:0.60696608 8:0.46813828 9:0.42617494 10:0.32541892 11:0.47635636 12:0.55131817 13:0.55701578 14:0.44164577 15:0.50180072 16:0.22555198 17:0.50842607 18:0.51829398 19:0.48261851 20:0.47327879 21:0.33892927 22:0.41699377 23:0.22202303 24:0.65598881 25:0.84847778 26:0.39415473 27:0.42862451 28:0.48417753 29:0.35634005 30:0.5696063 31:0.15272817 32:0.53527921 33:0.48026541 34:0.38703242 35:0.45857388 36:0.44030625 37:0.59089357 38:0.40382612 39:0.50179744 40:0.43258274 41:0.68513578 42:0.455275 43:0.70504713 44:0.35163751 45:0.61222512 46:0.5951854 47:0.50224221 48:0.34098706 49:0.76724058 50:0.31406945 51:0.6201511 52:0.26439387 53:0.42642194 54:0.51090461 55:0.33207235 56:0.46036273 57:0.097799942 58:0.75230587 59:0.46331027 60:0.7214101 61:0.59680098 62:0.64675379 63:0.6336627 64:0.12927754 65:0.51930445 66:0.29668003 67:0.74008667 68:0.7117877 69:0.32723024 70:0.45653036 71:0.62223274 72:0.77260762 73:0.29717097 74:0.59328204 75:0.25493124 
0 0.08930244983179293 0 0 0 0 0 0 2.800442786252388 0 0 0 0 0.5346416589056291 2.614718225812604 0 0 0 0 0 0 0 3.085260930165129 0 0.9736578932661402 0 0 1:0.66417712 2:0.57434416 3:0.53141421 4:0.19438046 5:0.40458006 6:0.42493087 7:0.51779705 8:0.3771897 9:0.47962892 10:0.35619465 11:0.59039599 12:0.36846352 13:0.66210526 14:0.36920732 15:0.46107215 16:0.46618083 17:0.53801823 18:0.51398772 19:0.69078517 20:0.55493635 21:0.56849855 22:0.3034828 23:0.56056875 24:0.20380974 25:0.61122257 26:0.50382805 27:0.33527535 28:0.35319531 29:0.54152304 30:0.57554811 31:0.73376673 32:0.27272484 33:0.68427849 34:0.41366953 35:0.41503379 36:0.77261996 37:0.61442912 38:0.49801669 39:0.55639428 40:0.57934391 41:0.46580693 42:0.62086755 43:0.63031226 44:0.21742052 45:0.6417163 46:0.15224324 47:0.33831382 48:0.47867158 49:0.45432472 50:0.31344479 51:0.56363994 52:0.329557 53:0.36919191 54:0.45386261 55:0.56586212 56:0.16902034 57:0.40739712 58:0.26596919 59:0.43862861 60:0.56719196 61:0.62065786 62:0.31899938 63:0.55672443 64:0.53248531 65:0.65907872 66:0.32763013 67:0.59798098 68:0.65397829 69:0.42639086 70:0.45348659 71:0.7211476 72:0.5703246 73:0.39800861 74:0.40203187 75:0.27338231 
0 0 0 0 0 0 0 0 0 0 0 0 0 0 0 0 0 0 1.910554297214114 0 0 0.7681073892882482 0 0 0 0 0 1:0.61881697 2:0.44740182 3:0.42377856 4:0.50442261 5:0.63978231 6:0.42537645 7:0.41359645 8:0.37756917 9:0.65403646 10:0.58560365 11:0.55927098 12:0.077245638 13:0.63591105 14:0.40144682 15:0.53075236 16:0.46122408 17:0.55311972 18:0.50030857 19:0.44169161 20:0.46853378 21:0.42427823 22:0.59796619 23:0.53650337 24:0.65350968 25:0.62039733 26:0.70027387 27:0.59306473 28:0.58609521 29:0.53443581 30:0.61137384 31:0.34239832 32:0.38094091 33:0.44682473 34:0.50288659 35:0.48635381 36:0.62991816 37:0.47686002 38:0.51113319 39:0.44982085 40:0.66598618 41:0.50545478 42:0.53253436 43:0.44300956 44:0.38742843 45:0.36836889 46:0.349024 47:0.50730598 48:0.31818554 49:0.645455 50:0.31910324 51:0.42327231 52:0.19105923 53:0.47810015 54:0.44457725 55:0.39870626 56:0.24013796 57:0.044399802 58:0.401382 59:0.62842715 60:0.74079621 61:0.47803923 62:0.41989565 63:0.73344809 64:0.28924805 65:0.38770485 66:0.5186078 67:0.65130389 68:0.68079627 69:0.43634483 70:0.45303228 71:0.71132779 72:0.70367008 73:0.34528226 74:0.50145543 75:0.2410758 
0 0 0 0 0.1739458761558399 0 0 0 0 0 0 0 0 0 0 0 0 0 0 0.2242555961023993 0 0 0 0 0 0 0 1:0.63237697 2:0.57820064 3:0.62985015 4:0.4668439 5:0.48929918 6:0.43117109 7:0.51180977 8:0.77321774 9:0.35353708 10:0.27712753 11:0.59653217 12:0.38414639 13:0.70210689 14:0.68519497 15:0.58087772 16:0.692801 17:0.57803923 18:0.52262539 19:0.39062214 20:0.65028906 21:0.40467027 22:0.7303884 23:0.53959727 24:0.60255241 25:0.66145873 26:0.62738419 27:0.53852701 28:0.55174643 29:0.56358624 30:0.7022571 31:0.48999926 32:0.34117642 33:0.58121538 34:0.34885305 35:0.43171358 36:0.6534639 37:0.46217534 38:0.34954426 39:0.47529721 40:0.59332997 41:0.29457179 42:0.52513283 43:0.44607773 44:0.33451143 45:0.44721457 46:0.31698877 47:0.31527305 48:0.42834151 49:0.52290094 50:0.35427469 51:0.42624611 52:0.21821371 53:0.50952864 54:0.39026293 55:0.63477516 56:0.15086703 57:0.29112309 58:0.31128389 59:0.51977712 60:0.57034951 61:0.73480618 62:0.38352829 63:0.81358117 64:0.4548212 65:0.47271192 66:0.38283774 67:0.64839584 68:0.68607044 69:0.52666599 70:0.46679935 71:0.82117218 72:0.55728227 73:0.49541995 74:0.42326233 75:0.36285266 
0.1955111037083312 0 0 0 1.767331383074252 0 0.7216953267982322 0 0.8699183576121798 0 0 0 0 0 1.29955343565906 0.1358611543134132 0 0 2.603123567446429 0.2820292052690014 0 0.3654949391435705 0 0 0 0 0.08422257109762366 1:0.54358524 2:0.44520298 3:0.33386734 4:0.46899459 5:0.36125526 6:0.55680418 7:0.48956981 8:0.42546073 9:0.21545275 10:0.35930049 11:0.49341759 12:0.61399084 13:0.63579512 14:0.83074576 15:0.42056164 16:0.34921825 17:0.55413115 18:0.34261575 19:0.33617792 20:0.51203442 21:0.3425149 22:0.48168933 23:0.37176913 24:0.6291731 25:0.4601317 26:0.39382151 27:0.32489637 28:0.67032421 29:0.63847917 30:0.52213699 31:0.39694628 32:0.2427911 33:0.79020435 34:0.39595729 35:0.75346851 36:0.44595176 37:0.34767103 38:0.42782921 39:0.48740616 40:0.67591709 41:0.6393863 42:0.54918069 43:0.36051285 44:0.44013584 45:0.37926012 46:0.34415135 47:0.40798357 48:0.38644922 49:0.55824989 50:0.27029085 51:0.54113644 52:0.16213459 53:0.38963044 54:0.49525389 55:0.53286707 56:0.2757231 57:0.30963382 58:0.35707158 59:0.63105577 60:0.66848475 61:0.69196254 62:0.42936844 63:0.72328132 64:0.46292007 65:0.52326453 66:0.32036862 67:0.69243866 68:0.70492452 69:0.56834996 70:0.43690917 71:0.75558019 72:0.46384275 73:0.4806684 74:0.48381475 75:0.3763766 
0 0 0 0 0 0 0 0 0 0 0 0 0 0 0 0 0 0 0 0 0 0 0.1272591684140527 0.05732410679803342 0 0 0 1:0.5213834 2:0.3893719 3:0.61290234 4:0.23378757 5:0.32334176 6:0.35377771 7:0.66763359 8:0.34528938 9:0.30293211 10:0.17972574 11:0.45422456 12:0.43191448 13:0.8376798 14:0.4777714 15:0.76366425 16:0.73276293 17:0.66562575 18:0.36476022 19:0.50962037 20:0.52000535 21:0.48977208 22:0.27114537 23:0.45011711 24:0.57346708 25:0.46892789 26:0.24607261 27:0.14757335 28:0.69643575 29:0.5033083 30:0.3445693 31:0.48861623 32:0.39915496 33:0.62570095 34:0.47382534 35:0.62577128 36:0.46170405 37:0.42522928 38:0.40121099 39:0.42147595 40:0.53996783 41:0.45659479 42:0.45432067 43:0.47304857 44:0.43699831 45:0.34205833 46:0.27073684 47:0.48700204 48:0.44147474 49:0.42919236 50:0.26560456 51:0.56776905 52:0.22571374 53:0.42054811 54:0.56978643 55:0.42286307 56:0.34038022 57:0.27853417 58:0.4675864 59:0.32091731 60:0.76893163 61:0.69581735 62:0.36964163 63:0.7432853 64:0.43432152 65:0.44846147 66:0.20603164 67:0.63991046 68:0.75585961 69:0.39479917 70:0.47159073 71:0.67261827 72:0.56817204 73:0.28562948 74:0.50266236 75:0.27746141 
0 0 0 0.1171950237926802 0 0 0 0 0 0 0 0 0 0 0 0.1342144214898469 0 0 0 0 0 0 0 0 0 0 0 1:0.57456213 2:0.33765915 3:0.39837143 4:0.38239115 5:0.56988001 6:0.59493166 7:0.47914672 8:0.50671905 9:0.36372563 10:0.40094444 11:0.37488905 12:0.38641962 13:0.6305908 14:0.53426874 15:0.49671328 16:0.272302 17:0.30205706 18:0.62908375 19:0.45159125 20:0.65914023 21:0.42197233 22:0.6628322 23:0.5078705 24:0.72503716 25:0.65436774 26:0.43965399 27:0.35657436 28:0.58796978 29:0.70544398 30:0.52668124 31:0.62442023 32:0.1314078 33:0.76827759 34:0.33493549 35:0.6539461 36:0.38830656 37:0.51193213 38:0.37885445 39:0.40689349 40:0.66614574 41:0.52528173 42:0.54024994 43:0.44491115 44:0.34942073 45:0.4309141 46:0.43776286 47:0.56224734 48:0.36879417 49:0.59167784 50:0.25174353 51:0.55683124 52:0.17714882 53:0.5002653 54:0.56528276 55:0.47713444 56:0.356985 57:0.2267817 58:0.2832796 59:0.74371028 60:0.69653779 61:0.69855595 62:0.34003845 63:0.74244952 64:0.30769968 65:0.51417029 66:0.47548562 67:0.61196727 68:0.82373762 69:0.60114568 70:0.4996376 71:0.66926736 72:0.68097967 73:0.30634528 74:0.43673101 75:0.27234802 
0 0 0 0 0 0 0 0 0 0 0 0 0 0 0 0 0 0 0 0 0 0 0 0.9474883886175242 0.1009629554943904 0 0 1:0.67803335 2:0.50397056 3:0.65243524 4:0.54068166 5:0.40938821 6:0.38113573 7:0.62374163 8:0.68589121 9:0.40158477 10:0.60593444 11:0.46553764 12:0.48908409 13:0.72740585 14:0.40118477 15:0.33517769 16:0.3869752 17:0.38368598 18:0.30255878 19:0.70260185 20:0.73282868 21:0.44026706 22:0.62149107 23:0.55042779 24:0.60306346 25:0.58477283 26:0.45211431 27:0.47676808 28:0.42498437 29:0.60740834 30:0.60966104 31:0.81200027 32:0.21081974 33:0.72957575 34:0.47502318 35:0.43941739 36:0.60300606 37:0.41247585 38:0.26959649 39:0.61987382 40:0.50839186 41:0.51617575 42:0.57627982 43:0.35275403 44:0.35624829 45:0.59668005 46:0.45832172 47:0.3958824 48:0.60137743 49:0.5069685 50:0.15540974 51:0.57902569 52:0.39062601 53:0.54603899 54:0.50979984 55:0.4733347 56:0.17396264 57:0.35628536 58:0.28835368 59:0.60067606 60:0.8259446 61:0.68408287 62:0.40663895 63:0.70597285 64:0.23915407 65:0.63815743 66:0.44951314 67:0.65449715 68:0.73929006 69:0.5171448 70:0.44901171 71:0.68234652 72:0.73085678 73:0.35726705 74:0.49668762 75:0.24640794 
0 0.06944446750525178 0 0.2630384571521956 0.5651255706687807 0.3754982093452914 0 0 0 0.7626601666119003 0 0 0 0.5724465384592649 0 0 0 0 0 0 0 0 0.04739959201603167 0 0 0 0.05601198540094592 1:0.54163921 2:0.50737959 3:0.53109753 4:0.37498987 5:0.34902713 6:0.31926495 7:0.5021708 8:0.64922005 9:0.403869 10:0.33203661 11:0.46200165 12:0.37043884 13:0.66642869 14:0.24192299 15:0.26959097 16:0.42120075 17:0.21316782 18:0.41501391 19:0.52494746 20:0.46082646 21:0.40964633 22:0.63576627 23:0.33922771 24:0.65151983 25:0.70505214 26:0.6175974 27:0.69804251 28:0.60874891 29:0.5563674 30:0.71676981 31:0.53250462 32:0.32848173 33:0.71616524 34:0.54527783 35:0.4585233 36:0.55224228 37:0.41367954 38:0.49095359 39:0.54826444 40:0.53163296 41:0.59148091 42:0.61889917 43:0.37956437 44:0.40819073 45:0.57599449 46:0.44889888 47:0.3782258 48:0.43138549 49:0.60303515 50:0.33171397 51:0.53901803 52:0.30325592 53:0.51597142 54:0.4949097 55:0.54043466 56:0.15131059 57:0.25741589 58:0.33987841 59:0.61175036 60:0.7696541 61:0.56216985 62:0.44877815 63:0.76374131 64:0.32672042 65:0.48415619 66:0.46244586 67:0.65415913 68:0.69223046 69:0.50454783 70:0.42443216 71:0.68206704 72:0.76584333 73:0.29749206 74:0.59941101 75:0.30104458 
0 0 0 0 0 0 0 0 0 1.334218197527305 0 0 0 0 0 0.07348818582644358 0 0 0 0.2270731167192366 0.5404448321575905 0.7967086984641721 0.4965117073074063 0 0 0 0 1:0.50494248 2:0.42477328 3:0.49212891 4:0.29835811 5:0.35837194 6:0.39603993 7:0.52170295 8:0.1724761 9:0.22188291 10:0.35664776 11:0.4430888 12:0.30567205 13:0.78376997 14:0.39203587 15:0.71178877 16:0.49483183 17:0.57131827 18:0.48118132 19:0.70208734 20:0.59715742 21:0.47507355 22:0.35349932 23:0.63632345 24:0.70321327 25:0.56798089 26:0.55889177 27:0.13252158 28:0.66283762 29:0.51518565 30:0.38656878 31:0.51379198 32:0.31974223 33:0.64314163 34:0.36795011 35:0.62481618 36:0.32898283 37:0.46761844 38:0.16458175 39:0.50141454 40:0.59239906 41:0.34786662 42:0.56411701 43:0.47739759 44:0.41166532 45:0.354366 46:0.46493468 47:0.47324809 48:0.30720466 49:0.48093536 50:0.2174525 51:0.57106638 52:0.20502241 53:0.41558751 54:0.46923828 55:0.35323882 56:0.34913933 57:0.22160807 58:0.44813171 59:0.41598845 60:0.85808396 61:0.69487464 62:0.29494095 63:0.70982456 64:0.41074869 65:0.38664326 66:0.3187111 67:0.6466049 68:0.76903248 69:0.3952539 70:0.46482646 71:0.62984765 72:0.66577095 73:0.24449261 74:0.52186406 75:0.244518 
0 0 0 0 0 0 0.2690091718020897 0 0 0 0 0 0 1.076845141322827 0 0 0 0 0 0 0 0.7012216412345988 0 0 0 0 0 1:0.49762774 2:0.60979789 3:0.61757433 4:0.28267634 5:0.43606272 6:0.3405309 7:0.59242058 8:0.41114989 9:0.47677875 10:0.3726283 11:0.49859226 12:0.57882637 13:0.65458512 14:0.45373178 15:0.62370175 16:0.56865066 17:0.55740106 18:0.27375856 19:0.73986685 20:0.78613514 21:0.4756721 22:0.58009261 23:0.58498216 24:0.31796268 25:0.42428124 26:0.54207206 27:0.57009184 28:0.40656957 29:0.53986335 30:0.58951682 31:0.54145432 32:0.46522781 33:0.57601142 34:0.31520709 35:0.4972344 36:0.40257663 37:0.52021646 38:0.4360728 39:0.47886592 40:0.39909288 41:0.54677135 42:0.53114504 43:0.5485571 44:0.33463043 45:0.469933 46:0.34472811 47:0.23680422 48:0.15696234 49:0.64910108 50:0.53196818 51:0.51297325 52:0.3080315 53:0.46932805 54:0.37513536 55:0.45992306 56:0.33664176 57:0.25892642 58:0.57562125 59:0.54440707 60:0.72998601 61:0.58772719 62:0.50509942 63:0.61379248 64:0.25865093 65:0.63695431 66:0.34913096 67:0.61098421 68:0.68074185 69:0.45227376 70:0.43238291 71:0.7441144 72:0.74264777 73:0.46924028 74:0.47988051 75:0.26276895 
0 0 1.202728916588364 0 0 0 0 0 0 0 0.2132297131755251 0 0 0 0 0 0 0 0 0 0 0 0 0 0 0 0 1:0.70024252 2:0.62852305 3:0.26837724 4:0.30680764 5:0.37320581 6:0.35491142 7:0.42295477 8:0.33847854 9:0.54037738 10:0.16263312 11:0.47761977 12:0.46404734 13:0.8392989 14:0.53511453 15:0.6578809 16:0.66767746 17:0.7215997 18:0.48284763 19:0.54318559 20:0.55162489 21:0.46918032 22:0.46842232 23:0.55777013 24:0.71584088 25:0.48618037 26:0.63489342 27:0.49134913 28:0.60868132 29:0.47106624 30:0.76752484 31:0.57757401 32:0.52246648 33:0.5522815 34:0.48690203 35:0.3714847 36:0.62117755 37:0.64441395 38:0.49799445 39:0.45545113 40:0.55270261 41:0.42635378 42:0.64586192 43:0.35452539 44:0.35313499 45:0.4349578 46:0.2477715 47:0.33581713 48:0.19372821 49:0.65959203 50:0.48133761 51:0.50796181 52:0.22561052 53:0.48730063 54:0.30349639 55:0.55303168 56:0.18790902 57:0.16042483 58:0.3724336 59:0.43506208 60:0.60465908 61:0.57145745 62:0.44256505 63:0.79380882 64:0.52657169 65:0.3475396 66:0.43802899 67:0.68468928 68:0.51837593 69:0.47241828 70:0.42006719 71:0.90352213 72:0.61806446 73:0.43442878 74:0.52289873 75:0.30666202 
0 0 0 0 0 0 0 0 0 0 0 0 0 0 0 0 0 0 0 0 0 0 0 0 0 0.5461691974244894 0 1:0.45790455 2:0.47519508 3:0.51195025 4:0.42702347 5:0.28906718 6:0.49598864 7:0.52263266 8:0.60747254 9:0.50144583 10:0.30099043 11:0.63628811 12:0.65190089 13:0.40544873 14:0.49181792 15:0.50971735 16:0.57951224 17:0.58593231 18:0.44261259 19:0.67243636 20:0.46932435 21:0.55384403 22:0.37325782 23:0.3917613 24:0.55861449 25:0.50088519 26:0.59822494 27:0.37908399 28:0.34763473 29:0.48133719 30:0.67120028 31:0.52594143 32:0.37715602 33:0.53342098 34:0.55984002 35:0.65482688 36:0.59994119 37:0.59129858 38:0.66890204 39:0.48037252 40:0.54116088 41:0.61196506 42:0.47663718 43:0.22202906 44:0.55080855 45:0.50041312 46:0.78823143 47:0.31948388 48:0.40553388 49:0.51483935 50:0.44780248 51:0.69279844 52:0.28397456 53:0.43770534 54:0.40318653 55:0.42427471 56:0.53383929 57:0.40030918 58:0.5374018 59:0.42486262 60:0.74166286 61:0.4485738 62:0.57431948 63:0.65500253 64:0.40231019 65:0.48481616 66:0.38144472 67:0.75112653 68:0.75619656 69:0.50779724 70:0.42513916 71:0.90333778 72:0.6905387 73:0.52705228 74:0.4008289 75:0.41258106 
0 0 0 0 0 0 0 0 0 0.786835337466952 0 0 0 0 0 0 0 0 0 0 0 0 0 0 0 0 0 1:0.69107062 2:0.51922297 3:0.44291905 4:0.51097929 5:0.60247463 6:0.35406137 7:0.65700048 8:0.49523216 9:0.53982675 10:0.33350784 11:0.49064711 12:0.52657127 13:0.41564929 14:0.54214722 15:0.27395037 16:0.45038921 17:0.71687222 18:0.30402213 19:0.62742257 20:0.3485058 21:0.49863046 22:0.22395667 23:0.44868693 24:0.14777978 25:0.49216986 26:0.4642556 27:0.51815253 28:0.35291937 29:0.35493603 30:0.55475998 31:0.66602582 32:0.37843254 33:0.5120436 34:0.41238436 35:0.79897416 36:0.68014997 37:0.67844558 38:0.45194602 39:0.4655683 40:0.77107412 41:0.38988918 42:0.38613132 43:0.38190794 44:0.42571464 45:0.54111809 46:0.41543877 47:0.40961376 48:0.54463726 49:0.33893564 50:0.3100009 51:0.45830125 52:0.28950578 53:0.48981416 54:0.5202685 55:0.58788472 56:0.35083917 57:0.3803103 58:0.41510817 59:0.44254744 60:0.58198977 61:0.60622239 62:0.58697206 63:0.53168422 64:0.55063331 65:0.71049845 66:0.59271634 67:0.68736053 68:0.80008084 69:0.58840346 70:0.51444852 71:0.90713596 72:0.58054852 73:0.52800274 74:0.34318978 75:0.38761666 
0 0 0 0.08068139770898032 0 0 0 0 0 0 0 0 0 0 0 0 0 0 0 0 0 0 0 0 0 0 0.7527293673198848 1:0.57214475 2:0.32650042 3:0.43972215 4:0.42929634 5:0.63907737 6:0.8861528 7:0.75606447 8:0.63991511 9:0.60652119 10:0.53387976 11:0.28357458 12:0.51334673 13:0.47538036 14:0.86119115 15:0.3292312 16:0.4897851 17:0.44744009 18:0.63399547 19:0.48179191 20:0.39187878 21:0.40864375 22:0.39813825 23:0.34530953 24:0.35528338 25:0.23498739 26:0.44055095 27:0.44633776 28:0.54831022 29:0.50719261 30:0.17288257 31:0.30346769 32:0.54667413 33:0.4664678 34:0.33705962 35:0.8404175 36:0.33654845 37:0.52547854 38:0.49413553 39:0.19980004 40:0.58520871 41:0.46360764 42:0.52822685 43:0.22964701 44:0.5570907 45:0.49311036 46:0.42475039 47:0.44251099 48:0.60413492 49:0.34184033 50:0.51495701 51:0.29236248 52:0.28541401 53:0.32376686 54:0.33470544 55:0.44632 56:0.42440683 57:0.34783667 58:0.42379072 59:0.43852344 60:0.65337604 61:0.57548922 62:0.37483972 63:0.81125897 64:0.41226551 65:0.56712824 66:0.5298394 67:0.62537456 68:0.65301901 69:0.53040087 70:0.46267855 71:0.85036898 72:0.52800226 73:0.51818794 74:0.40206635 75:0.38829812 
1.025866940117819 0 0 0 0 0 0 0 0 0 0 0 0 0 0 0.2865649955845171 0 0 0 0 0 0 0 0.1265184077470676 2.107168392066018 0 0 1:0.5529961 2:0.34936622 3:0.23739772 4:0.55476087 5:0.60691595 6:0.7840938 7:0.4614481 8:0.38146782 9:0.63992578 10:0.35345471 11:0.44626808 12:0.49509373 13:0.43812004 14:0.85946697 15:0.47075358 16:0.29316586 17:0.73049086 18:0.4317717 19:0.51120746 20:0.38848034 21:0.36320198 22:0.26716247 23:0.58638841 24:0.24768451 25:0.3461923 26:0.17606749 27:0.45774922 28:0.28893372 29:0.43737271 30:0.48697078 31:0.89750654 32:0.55588847 33:0.6179015 34:0.24483283 35:0.72978669 36:0.74466413 37:0.49165761 38:0.50642157 39:0.45719001 40:0.62836766 41:0.28100407 42:0.4192749 43:0.25184518 44:0.45801604 45:0.66773719 46:0.40599096 47:0.57365334 48:0.77326864 49:0.34113961 50:0.48197708 51:0.39408723 52:0.3422029 53:0.53973085 54:0.47221127 55:0.64016694 56:0.53415257 57:0.38518199 58:0.36026409 59:0.19637999 60:0.49809012 61:0.63099599 62:0.54984814 63:0.39832586 64:0.61302948 65:0.75429928 66:0.52251422 67:0.63526082 68:0.72845411 69:0.53258783 70:0.49169391 71:0.8059032 72:0.61526358 73:0.56881016 74:0.39528465 75:0.3769367 
0 0 0 0 0 0 0 0 0 0 0 0 0 0 0 0 0 0 0 0 0 0 0 0 0.006104787605463191 0 0 1:0.65986657 2:0.39438182 3:0.36758909 4:0.14929061 5:0.55807757 6:0.5480628 7:0.46917221 8:0.72483379 9:0.46169528 10:0.37839699 11:0.51235741 12:0.34789905 13:0.2241043 14:0.38907567 15:0.43340781 16:0.42866147 17:0.20796013 18:0.55938363 19:0.42606649 20:0.40919021 21:0.4131217 22:0.39818862 23:0.15263046 24:0.47167647 25:0.66179144 26:0.6971404 27:0.44603756 28:0.41488495 29:0.34505659 30:0.79088426 31:0.39604756 32:0.43744412 33:0.44859862 34:0.50394773 35:0.77659613 36:0.6437006 37:0.59306157 38:0.84836084 39:0.32852668 40:0.79962307 41:0.6953733 42:0.30371904 43:0.35419664 44:0.39271799 45:0.52041322 46:0.59374619 47:0.51725841 48:0.45072407 49:0.47335768 50:0.41525322 51:0.48290297 52:0.38951945 53:0.5241766 54:0.64499044 55:0.47393787 56:0.52319258 57:0.4242962 58:0.49834177 59:0.40591079 60:0.73754978 61:0.52245802 62:0.64393556 63:0.64961851 64:0.42774504 65:0.58242595 66:0.40478492 67:0.7479313 68:0.73725665 69:0.5816434 70:0.47826701 71:0.91675085 72:0.60824877 73:0.51974249 74:0.45761865 75:0.42539835 
0 0 0 0 0 0 0 0 0 0 0 0 0 0 0 0 0 0 0 0 0 1.008606287726033 0 0 0 0 0 1:0.58975077 2:0.48347348 3:0.56793833 4:0.45953512 5:0.43070707 6:0.49141705 7:0.80316317 8:0.42494202 9:0.3962853 10:0.42021078 11:0.5763346 12:0.59780061 13:0.38170254 14:0.5531565 15:0.47865415 16:0.96101826 17:0.73194093 18:0.46445072 19:0.52254099 20:0.4525665 21:0.45738822 22:0.35916209 23:0.505018 24:0.52773714 25:0.54562378 26:0.47881657 27:0.5025695 28:0.37336847 29:0.39194578 30:0.61861312 31:0.62226772 32:0.42504397 33:0.39432615 34:0.61425728 35:0.74232042 36:0.68462968 37:0.59867084 38:0.56604522 39:0.44304389 40:0.75597125 41:0.37413141 42:0.53240436 43:0.26731738 44:0.56576294 45:0.43220773 46:0.69880348 47:0.3783558 48:0.492773 49:0.52122116 50:0.41937035 51:0.59223473 52:0.29859269 53:0.41085517 54:0.37351391 55:0.55012918 56:0.39465266 57:0.32977426 58:0.44309077 59:0.48451769 60:0.73866045 61:0.4023115 62:0.52496868 63:0.8085165 64:0.48597807 65:0.52267617 66:0.56375313 67:0.66650277 68:0.71593028 69:0.52250564 70:0.45909181 71:0.92279381 72:0.67216396 73:0.48296371 74:0.39571825 75:0.36175588 
0 0 0 0 0 0 0 0 0 0 0 0 0 0 0 0 0 0 0 0 0 0 0 0 0 0.3258761812332344 0 1:0.39163962 2:0.53154349 3:0.34841153 4:0.34270591 5:0.36686355 6:0.50308001 7:0.50973505 8:0.32433614 9:0.37643206 10:0.36486933 11:0.54491377 12:0.46905127 13:0.36323556 14:0.55854708 15:0.66514188 16:0.083504073 17:0.55861396 18:0.69546402 19:0.72234035 20:0.37637225 21:0.27719137 22:0.38282055 23:0.45779163 24:0.509691 25:0.731888 26:0.32668057 27:0.54360211 28:0.29763505 29:0.59093201 30:0.71460068 31:0.4678123 32:0.73088431 33:0.33316535 34:0.52697599 35:0.448286 36:0.54046482 37:0.89922708 38:0.53548926 39:0.46331626 40:0.59171259 41:0.57250941 42:0.36633888 43:0.50687087 44:0.47049302 45:0.48492774 46:0.95211798 47:0.51032013 48:0.47934842 49:0.47128034 50:0.61394209 51:0.54064757 52:0.35693574 53:0.50283664 54:0.36817777 55:0.50341147 56:0.64188224 57:0.25642094 58:0.69012088 59:0.1152797 60:0.62414783 61:0.50678182 62:0.62238157 63:0.46477506 64:0.37847391 65:0.35725573 66:0.34148329 67:0.77493912 68:0.57292795 69:0.36623353 70:0.47317517 71:0.85972446 72:0.81056428 73:0.32558927 74:0.54131705 75:0.40559852 
0 0.440690759127227 0 0 0 0 0 0 0 0 0 0 0 0 0 0 0 0 0 0 0 0 0 0 0 0 0 1:0.33271688 2:0.54180443 3:0.60558963 4:0.35588118 5:0.53061199 6:0.58545417 7:0.29842666 8:0.54330665 9:0.71131951 10:0.5728333 11:0.5010134 12:0.21634649 13:0.37868005 14:0.33957011 15:0.56782705 16:0.66268921 17:0.35067043 18:0.65531826 19:0.64757198 20:0.51486075 21:0.40189844 22:0.56447202 23:0.45241085 24:0.37311515 25:0.45128739 26:0.46399033 27:0.73500389 28:0.30568177 29:0.43300331 30:0.77133179 31:0.6024788 32:0.64181525 33:0.55703872 34:0.73594195 35:0.55198288 36:0.67622775 37:0.67881387 38:0.67742288 39:0.44745523 40:0.53688556 41:0.61851847 42:0.61233342 43:0.48778945 44:0.4166646 45:0.4373647 46:0.71261501 47:0.56100851 48:0.36055747 49:0.46154192 50:0.43439063 51:0.5580579 52:0.25794989 53:0.52111882 54:0.45656064 55:0.4972997 56:0.36433908 57:0.31646615 58:0.5242309 59:0.42203826 60:0.776932 61:0.40866154 62:0.45184067 63:0.63342214 64:0.39424548 65:0.39274034 66:0.63640642 67:0.65791076 68:0.61224997 69:0.47063857 70:0.47145677 71:0.85557497 72:0.78146541 73:0.49616808 74:0.45009017 75:0.3902154 
0.4624551470976325 0 0 0 0 0 0 0 0 0 0 0 0 0.2845839294528318 0.9256778596173164 0 0 0.6206845114893803 0 0 0 0 0 0 0 0 0 1:0.61726546 2:0.48451409 3:0.62650687 4:0.20584188 5:0.37677476 6:0.84949684 7:0.5560987 8:0.5534308 9:0.43739089 10:0.71360356 11:0.63617671 12:0.67689931 13:0.16960752 14:0.38966477 15:0.60030156 16:0.61238098 17:0.17635472 18:0.72266114 19:0.57049561 20:0.45526075 21:0.60035247 22:0.31289586 23:0.31659037 24:0.57565969 25:0.44077715 26:0.41995791 27:0.69542134 28:0.38623026 29:0.54915309 30:0.57928395 31:0.74513173 32:0.41911402 33:0.52073634 34:0.51358265 35:0.67100173 36:0.72832274 37:0.58430487 38:0.83459985 39:0.35780954 40:0.77807355 41:0.52903324 42:0.54413462 43:0.40647918 44:0.35710952 45:0.47901052 46:0.65315509 47:0.5077256 48:0.46707058 49:0.38428709 50:0.44032225 51:0.63670677 52:0.35601822 53:0.46560302 54:0.50513971 55:0.54301023 56:0.4950681 57:0.43930334 58:0.41732314 59:0.41929018 60:0.68210053 61:0.41949505 62:0.35151449 63:0.75917619 64:0.37275559 65:0.46968827 66:0.58355057 67:0.59369212 68:0.58994544 69:0.56077421 70:0.50329667 71:0.85211998 72:0.60387295 73:0.48336333 74:0.31528619 75:0.36412996 
0.5296752157040021 0 0 0 0 0 0.5211197386051383 0 0 0 0 0 0 0 0 0 0 0 0 0 0 0 0 0.7953285807765639 0.8352793743698034 0.4255173003419348 0 1:0.55333096 2:0.4553161 3:0.30350089 4:0.4056499 5:0.41418642 6:0.91008449 7:0.54678953 8:0.56321448 9:0.56262189 10:0.28267497 11:0.7173875 12:0.42130691 13:0.44105431 14:0.64824247 15:0.36054674 16:0.64632297 17:0.31095445 18:0.63408285 19:0.44230306 20:0.43090993 21:0.4740271 22:0.44399023 23:0.35135335 24:0.32753804 25:0.49071509 26:0.56339854 27:0.52519011 28:0.25152239 29:0.39268857 30:0.56303185 31:0.8572433 32:0.57734704 33:0.45316577 34:0.33060798 35:0.89097255 36:0.66857761 37:0.81711632 38:0.67380339 39:0.41111895 40:0.5891853 41:0.37228239 42:0.32258239 43:0.24897075 44:0.4635368 45:0.68781066 46:0.47760308 47:0.40467596 48:0.56777805 49:0.42561534 50:0.50261933 51:0.57637411 52:0.33281052 53:0.45294696 54:0.4668096 55:0.65736341 56:0.55905771 57:0.37640291 58:0.4167749 59:0.45246401 60:0.6205005 61:0.55233359 62:0.63991696 63:0.53344387 64:0.57828474 65:0.69064164 66:0.52075779 67:0.76510358 68:0.7833662 69:0.60761327 70:0.47435093 71:0.92086059 72:0.58558011 73:0.54106838 74:0.41219401 75:0.41094255 
0 0 0 0 0 0 0 0 0 0 0.9143565201814492 0 0 0 0 0 0 0 0 0 0 0 0 0 0 0 0 1:0.64159155 2:0.60657054 3:0.31383824 4:0.39575252 5:0.36240572 6:0.52245605 7:0.67345643 8:0.2349661 9:0.50245827 10:0.41888529 11:0.56464797 12:0.32303628 13:0.45892018 14:0.40537879 15:0.61459059 16:0.53488803 17:0.58105117 18:0.52258682 19:0.33998576 20:0.37099865 21:0.43391353 22:0.23717012 23:0.47322035 24:0.74860984 25:0.62273663 26:0.61137265 27:0.60317969 28:0.56376231 29:0.47978577 30:0.4680801 31:0.49459112 32:0.54179716 33:0.26279071 34:0.46723005 35:0.62525094 36:0.53168041 37:0.70816612 38:0.56077784 39:0.46881783 40:0.6967054 41:0.45716804 42:0.51982713 43:0.33958104 44:0.53648281 45:0.40724126 46:0.51180744 47:0.46900102 48:0.37536874 49:0.6124472 50:0.59549761 51:0.57808357 52:0.20809992 53:0.50736493 54:0.3205469 55:0.47035441 56:0.42612386 57:0.14917767 58:0.48956436 59:0.39061964 60:0.67075574 61:0.42497861 62:0.66782653 63:0.74075192 64:0.50011569 65:0.37141666 66:0.55547506 67:0.7116065 68:0.58700687 69:0.47436589 70:0.42536092 71:0.95050293 72:0.651465 73:0.45423722 74:0.41951755 75:0.37325183 
0 0 1.567719781807997 0 0 0 0 0 0 0 0 0 0 0 0 0 0 0 0 0 0 0 0 0 0 0 0 1:0.58365023 2:0.63692087 3:0.6159488 4:0.27113611 5:0.43943229 6:0.38858443 7:0.50926042 8:0.30953869 9:0.54549676 10:0.44566527 11:0.33305174 12:0.53610057 13:0.42153746 14:0.37595069 15:0.41967514 16:0.48558956 17:0.55069298 18:0.60331649 19:0.50188154 20:0.39514863 21:0.30784702 22:0.3867878 23:0.48036915 24:0.49611601 25:0.68975198 26:0.47703075 27:0.52849954 28:0.27328637 29:0.54020053 30:0.66288936 31:0.56176424 32:0.44588757 33:0.30254185 34:0.45318317 35:0.63008291 36:0.49277723 37:0.98395646 38:0.48558047 39:0.41542771 40:0.64357537 41:0.46319839 42:0.44384447 43:0.54992491 44:0.35167536 45:0.5895021 46:0.80556458 47:0.3871145 48:0.42036113 49:0.40944037 50:0.50737274 51:0.54404974 52:0.3765761 53:0.29249984 54:0.36157387 55:0.4006187 56:0.47059834 57:0.33312169 58:0.58177406 59:0.18939593 60:0.65660679 61:0.5098756 62:0.59416872 63:0.64854902 64:0.60162032 65:0.39908186 66:0.45738259 67:0.6736092 68:0.63672078 69:0.40237841 70:0.48984751 71:0.90344584 72:0.7785911 73:0.33244276 74:0.51471245 75:0.36138538 
0 0 0 0 0 0.6248711570166423 0.2459639413897376 0 0 0 0 0 0 0 0 0 0 0 0 0 0 0 0 0 0 0 0.492286178259318 1:0.41127154 2:0.35930857 3:0.59200215 4:0.37629229 5:0.6606735 6:0.36631936 7:0.38927862 8:0.29889736 9:0.75440693 10:0.46243179 11:0.47679749 12:0.38944367 13:0.60934711 14:0.84803241 15:0.46578994 16:0.12167303 17:0.87701601 18:0.37850755 19:0.79473728 20:0.45863661 21:0.14154766 22:0.36129138 23:0.55355459 24:0.41122803 25:0.59123725 26:0.18722153 27:0.24532448 28:0.26873976 29:0.56282252 30:0.69003481 31:0.60994458 32:0.60170078 33:0.36834982 34:0.35365161 35:0.60775685 36:0.49470231 37:0.6988852 38:0.25819093 39:0.40095162 40:0.33419052 41:0.44787148 42:0.59547341 43:0.62272072 44:0.29924187 45:0.48742884 46:0.74052525 47:0.43952397 48:0.42190057 49:0.36465883 50:0.42576641 51:0.43786317 52:0.20741485 53:0.40599436 54:0.3240265 55:0.30259198 56:0.44130573 57:0.48046553 58:0.53629851 59:0.17767087 60:0.60585415 61:0.56426328 62:0.38360989 63:0.71659893 64:0.55022228 65:0.50270021 66:0.38402987 67:0.67970639 68:0.64130676 69:0.29371601 70:0.46536708 71:0.79899347 72:0.65982956 73:0.43780434 74:0.46583608 75:0.43247053 
0 0 0 0 0 0 0 0 0 0 0 0 0 0 0 0 0 0 0.06067968964476441 0 0 0 0 0 0 0 0 1:0.42853215 2:0.44529191 3:0.3564367 4:0.39611766 5:0.39815101 6:0.52228147 7:0.34503332 8:0.7146827 9:0.61288089 10:0.48789665 11:0.49205902 12:0.6278733 13:0.32802132 14:0.56305993 15:0.35933408 16:0.66162699 17:0.49035114 18:0.51621377 19:0.6284017 20:0.77111441 21:0.45155472 22:0.37723237 23:0.49794492 24:0.53053689 25:0.30038863 26:0.70085013 27:0.44917932 28:0.32149774 29:0.39403766 30:0.57298177 31:0.33525515 32:0.34090477 33:0.4409779 34:0.54001343 35:0.64849526 36:0.67505306 37:0.4871287 38:0.49199256 39:0.4987995 40:0.57928711 41:0.48751962 42:0.45015079 43:0.37271574 44:0.37891543 45:0.5894565 46:0.51390958 47:0.50091428 48:0.41101149 49:0.37655613 50:0.3573634 51:0.44054979 52:0.24979863 53:0.44389775 54:0.46498993 55:0.43925956 56:0.38564074 57:0.35215405 58:0.53164917 59:0.51921254 60:0.684268 61:0.41384757 62:0.53843498 63:0.67524427 64:0.57312346 65:0.3637158 66:0.56071883 67:0.59675914 68:0.74470538 69:0.62219071 70:0.47028649 71:0.88450015 72:0.67404413 73:0.51166224 74:0.4328059 75:0.37019336 
0 0 0 0 0 0 0.9411155957635746 0 0 0.5189573455466961 1.0229289125684 1.260845100675356 0.9515516373679339 0 0 0 0 0 0 0 0 0.4581042501997896 1.088900052533276 0 0 0 0 1:0.44541341 2:0.51309043 3:0.18487599 4:0.47329795 5:0.82385737 6:0.58246118 7:0.64441729 8:0.51960307 9:0.60009032 10:0.11033712 11:0.58142018 12:0.70812184 13:0.38813913 14:0.56103516 15:0.51857054 16:0.65619457 17:0.59076542 18:0.40066922 19:0.69525802 20:0.32534131 21:0.48782215 22:0.38838705 23:0.27776134 24:0.37469494 25:0.38045502 26:0.52037185 27:0.64775777 28:0.27907854 29:0.30633798 30:0.49924248 31:0.65091372 32:0.62052989 33:0.58308613 34:0.3679795 35:0.6494084 36:0.6625309 37:0.49581569 38:0.69155055 39:0.50452137 40:0.60157824 41:0.36721575 42:0.34357649 43:0.36245155 44:0.44613555 45:0.67257035 46:0.3267155 47:0.59362429 48:0.6059432 49:0.45382372 50:0.41866004 51:0.38035133 52:0.36913106 53:0.5520497 54:0.3793484 55:0.59223932 56:0.44676775 57:0.35503373 58:0.42010945 59:0.39401424 60:0.61452061 61:0.53332239 62:0.54782939 63:0.57979846 64:0.43310305 65:0.67903107 66:0.60986006 67:0.64460027 68:0.69114256 69:0.56223953 70:0.52217555 71:0.74736381 72:0.63773966 73:0.52649939 74:0.41928959 75:0.30738971 
0 0 0 0 0 0 0 0 0 0 0 0 0 0 0 0 0 0 0.3400636900698654 0 0 0 0 0 0 0 0 1:0.54459554 2:0.58265519 3:0.38081315 4:0.20682321 5:0.46896806 6:0.31909579 7:0.55583405 8:0.53047901 9:0.36457658 10:0.57057446 11:0.28063497 12:0.7413615 13:0.1057004 14:0.30041897 15:0.32291272 16:0.33298856 17:0.24103336 18:0.5882169 19:0.58971399 20:0.28039014 21:0.26793244 22:0.57101393 23:0.44550842 24:0.58961511 25:0.83359975 26:0.63339394 27:0.76775008 28:0.49577439 29:0.3789562 30:0.62271327 31:0.24915092 32:0.40323123 33:0.45672306 34:0.33089846 35:0.40631977 36:0.33204144 37:0.69278336 38:0.57003587 39:0.40329447 40:0.57259405 41:0.66293162 42:0.48126122 43:0.58046544 44:0.48345536 45:0.61830431 46:0.58679289 47:0.49409699 48:0.39257306 49:0.64095968 50:0.60188329 51:0.63798851 52:0.38814452 53:0.50368959 54:0.50143772 55:0.42352858 56:0.49831146 57:0.20525752 58:0.65735209 59:0.35927767 60:0.73771948 61:0.41928828 62:0.68992466 63:0.62416065 64:0.54804301 65:0.36404958 66:0.46475053 67:0.63723755 68:0.69856167 69:0.59513938 70:0.45234585 71:0.91625631 72:0.70330399 73:0.44868416 74:0.50537974 75:0.36053824 
0 0 0.3403119700849074 0 0 0 0 0 0 0 0 0 0 0 0 0 0 0 0 0 0 0 0 0 0 0 0 1:0.60884672 2:0.52173501 3:0.53538573 4:0.33972234 5:0.54023039 6:0.59896642 7:0.61661851 8:0.38368747 9:0.41033354 10:0.5815559 11:0.49955857 12:0.67221087 13:0.26605308 14:0.53619248 15:0.37105671 16:0.42228881 17:0.60459846 18:0.44948822 19:0.37518242 20:0.38085487 21:0.26056394 22:0.43246865 23:0.52265054 24:0.39027247 25:0.52602249 26:0.31151691 27:0.55918872 28:0.23582695 29:0.46290359 30:0.65356779 31:0.48651919 32:0.40078577 33:0.35319 34:0.37876207 35:0.71846503 36:0.57131231 37:0.77737272 38:0.50144494 39:0.36646447 40:0.70341223 41:0.28118873 42:0.37031388 43:0.51588398 44:0.41979903 45:0.49657118 46:0.74076301 47:0.31416857 48:0.60409206 49:0.39782944 50:0.5042367 51:0.49411148 52:0.40659299 53:0.35906643 54:0.41834298 55:0.44806999 56:0.55545133 57:0.35788733 58:0.53312939 59:0.20683268 60:0.62230992 61:0.55231494 62:0.59437251 63:0.61185074 64:0.51081711 65:0.57739711 66:0.39451304 67:0.71754247 68:0.71562636 69:0.42394751 70:0.53439426 71:0.87473387 72:0.7153331 73:0.37124696 74:0.4211987 75:0.33060217 
0 0 0 0 0 0 0 0 0 0 0 0 0 0 0.2540023469395556 0 0 0 0 0 0 0 0 0 0 0 0 1:0.54260778 2:0.53700811 3:0.52745616 4:0.37243742 5:0.53591186 6:0.86748135 7:0.62945932 8:0.54425383 9:0.3834832 10:0.67190719 11:0.61759627 12:0.46101314 13:0.46959105 14:0.4583447 15:0.45906165 16:0.10664926 17:0.074312367 18:0.35537383 19:0.32735363 20:0.37433228 21:0.42703006 22:0.56712407 23:0.3291764 24:0.49709719 25:0.56073946 26:0.65967947 27:0.69617492 28:0.44604117 29:0.46957108 30:0.54207164 31:0.40816078 32:0.38598403 33:0.44797051 34:0.4409208 35:0.56990767 36:0.61456436 37:0.66554755 38:0.48766798 39:0.31509349 40:0.63257563 41:0.5533098 42:0.34895363 43:0.35649407 44:0.42460698 45:0.61093336 46:0.53713149 47:0.46307725 48:0.48328105 49:0.53107136 50:0.60531998 51:0.43100107 52:0.33284718 53:0.55244434 54:0.61024678 55:0.38587993 56:0.47447374 57:0.33554587 58:0.59106421 59:0.52487606 60:0.71706009 61:0.59294289 62:0.68436259 63:0.53941572 64:0.5090971 65:0.54501611 66:0.50847411 67:0.69583941 68:0.72966278 69:0.55540466 70:0.50117439 71:0.92406327 72:0.56014752 73:0.52892864 74:0.33793506 75:0.39156479 
0 1.414060657240153 0.4535670277518817 0 0 0 0 0.300101652382694 4.267315789911407 0 0 0 0 1.064971062513508 0 0 0 0 0 1.866566822655056 0 0 1.024846557640512 0 0 0 0 1:0.72595507 2:0.53155971 3:0.13238475 4:0.54445493 5:0.42594612 6:0.33278552 7:0.5526529 8:0.31739777 9:0.47912532 10:0.40272814 11:0.43789044 12:0.44157717 13:0.48889869 14:0.56253201 15:0.33752638 16:0.62559903 17:0.75253224 18:0.30165246 19:0.67842507 20:0.29706591 21:0.53355271 22:0.44882667 23:0.6246984 24:0.24786262 25:0.50946075 26:0.51424634 27:0.45843416 28:0.25355285 29:0.26566949 30:0.35260037 31:0.79717755 32:0.30525774 33:0.56111294 34:0.28631502 35:0.81849927 36:0.73230678 37:0.5440805 38:0.5197916 39:0.56305188 40:0.7644341 41:0.37540945 42:0.45232269 43:0.29380196 44:0.34305394 45:0.55511367 46:0.29972059 47:0.38245544 48:0.66973978 49:0.34997106 50:0.4659507 51:0.41244796 52:0.38419437 53:0.44962105 54:0.35696751 55:0.63699722 56:0.38715836 57:0.34831026 58:0.34525347 59:0.40729922 60:0.53232396 61:0.56499952 62:0.55924457 63:0.44262773 64:0.64032269 65:0.70143205 66:0.67964607 67:0.72168988 68:0.67643422 69:0.61040211 70:0.50972503 71:0.89177239 72:0.55163664 73:0.52300459 74:0.34260568 75:0.28340873 
0 0.08384221191247485 0 0 0 0 0 0 0 0 0 0 0 0 0 0 0 0 0 0 0 0 0 0 0 0 0 1:0.5143339 2:0.51860034 3:0.501975 4:0.58971894 5:0.64824003 6:0.49310699 7:0.63494396 8:0.50406039 9:0.6619556 10:0.41354847 11:0.54433715 12:0.6567874 13:0.46226138 14:0.54162544 15:0.44867057 16:0.49181792 17:0.72117448 18:0.35897881 19:0.58720803 20:0.32535318 21:0.49497053 22:0.68857753 23:0.53052574 24:0.36645249 25:0.52173936 26:0.59105474 27:0.47317731 28:0.37621313 29:0.48941666 30:0.54439044 31:0.78335458 32:0.18436986 33:0.48436078 34:0.42315808 35:0.56884879 36:0.75390786 37:0.80067044 38:0.36354658 39:0.50153267 40:0.7065286 41:0.53585923 42:0.40238029 43:0.33387789 44:0.38074127 45:0.52313215 46:0.53209931 47:0.40614837 48:0.44090235 49:0.39584571 50:0.47272119 51:0.48743129 52:0.22543223 53:0.51087856 54:0.43528554 55:0.47772059 56:0.31168452 57:0.25318038 58:0.45584208 59:0.54930705 60:0.70347583 61:0.50747031 62:0.43274432 63:0.55010664 64:0.56818312 65:0.49443689 66:0.67794347 67:0.68989342 68:0.68673289 69:0.57364273 70:0.43345559 71:0.90819573 72:0.64740491 73:0.53192168 74:0.33721647 75:0.34109607 
0 0.0287979959048844 0.6645409744445293 0 0 0 0 0 0 0 0 0 0 0 0 0 0 0 0.1663916834581784 0 0 0 0 0 0 0 0 1:0.6571973 2:0.50201052 3:0.2612468 4:0.10948871 5:0.12640415 6:0.50827235 7:0.55873871 8:0.29681072 9:0.68165845 10:0.42425111 11:0.49278954 12:0.35483047 13:0.46180189 14:0.34754258 15:0.50552005 16:0.55811357 17:0.18921953 18:0.6201666 19:0.36116824 20:0.55663002 21:0.44667616 22:0.46663371 23:0.45155174 24:0.63548267 25:0.61214375 26:0.96185672 27:0.494185 28:0.60054368 29:0.45664686 30:0.55563438 31:0.44811451 32:0.57370639 33:0.46034354 34:0.72991866 35:0.74263489 36:0.52129763 37:0.79597783 38:0.64926589 39:0.48024151 40:0.6864599 41:0.49443501 42:0.55795217 43:0.37740606 44:0.47087607 45:0.43268284 46:0.49069983 47:0.46915463 48:0.31268296 49:0.6380282 50:0.46439049 51:0.6012429 52:0.25559071 53:0.38972116 54:0.27524334 55:0.47946101 56:0.39333951 57:0.25293133 58:0.48001602 59:0.29969168 60:0.70514625 61:0.44471768 62:0.59163034 63:0.78215265 64:0.53727424 65:0.44439349 66:0.5319975 67:0.60796058 68:0.62317258 69:0.45646098 70:0.47520575 71:0.95028847 72:0.70318055 73:0.43662441 74:0.43579474 75:0.33287612 
0 0 0 0 0 0 0 0 0 0 0 0 0 0 0 0 0 0 0 0 0 0 0 0 0 0.9864048478803789 0 1:0.43951634 2:0.58866459 3:0.60677463 4:0.32563818 5:0.60159802 6:0.33042637 7:0.49452329 8:0.49364772 9:0.60685813 10:0.47980639 11:0.71403742 12:0.50753099 13:0.37924829 14:0.44536424 15:0.47226512 16:0.43331829 17:0.49447393 18:0.50541323 19:0.65980369 20:0.37181321 21:0.48621485 22:0.29605895 23:0.45529065 24:0.59000117 25:0.61672264 26:0.72817433 27:0.38312656 28:0.35387921 29:0.43206728 30:0.67385554 31:0.48116243 32:0.42262474 33:0.43977591 34:0.42913586 35:0.74126065 36:0.60449082 37:0.63019449 38:0.64238471 39:0.36973304 40:0.6567238 41:0.57552773 42:0.3981424 43:0.34646493 44:0.35478431 45:0.59792942 46:0.80937427 47:0.38228643 48:0.57899487 49:0.50196058 50:0.42160383 51:0.68475378 52:0.34151003 53:0.39331073 54:0.51529956 55:0.39107937 56:0.57822001 57:0.45730007 58:0.54857582 59:0.23450907 60:0.68321127 61:0.46628648 62:0.64411318 63:0.63809168 64:0.48178515 65:0.45648351 66:0.38358766 67:0.74768382 68:0.64030659 69:0.46519023 70:0.44369096 71:0.93424469 72:0.66179121 73:0.45644879 74:0.50021946 75:0.40836525 
0 0 0.2445655924693423 0 0 0 0 0 0 0.7046965770908139 0 0 0 0 0 0 0.2223720143143074 0 0 1.969346797781039 0 0 0 0 0 0 0 1:0.52530396 2:0.40734634 3:0.50484461 4:0.3605732 5:0.60320705 6:0.35082549 7:0.68620545 8:0.33842036 9:0.61939538 10:0.71316463 11:0.70964158 12:0.30464464 13:0.31671363 14:0.2559672 15:0.42793024 16:0.4472492 17:0.4801093 18:0.45273831 19:0.7079556 20:0.22360824 21:0.50690979 22:0.79679906 23:0.6666376 24:0.24685967 25:0.39835745 26:0.7479586 27:0.36105308 28:0.67250007 29:0.71865606 30:0.61416346 31:0.60504699 32:0.64885437 33:0.60857624 34:0.27018127 35:0.53074986 36:0.43874666 37:0.4493461 38:0.61101693 39:0.49401993 40:0.72571337 41:0.68223727 42:0.64808708 43:0.38766113 44:0.36817285 45:0.45445254 46:0.57092786 47:0.47732693 48:0.37951052 49:0.42175004 50:0.43694374 51:0.42631301 52:0.57619911 53:0.50700301 54:0.35159194 55:0.50194192 56:0.43906209 57:0.44109413 58:0.3270773 59:0.48751813 60:0.67276722 61:0.51257563 62:0.45604807 63:0.53737766 64:0.42145944 65:0.54404974 66:0.55083454 67:0.53409278 68:0.71225202 69:0.42313948 70:0.46575746 71:0.82669121 72:0.60645741 73:0.55130965 74:0.39811343 75:0.40350819 
0 0 0 0 0 0 0 0 0 0 0 0 0 0 0 0 0.1775909211741101 0 0 0 0 0 0 0 0 0 0.4392739367880069 1:0.65041959 2:0.58924854 3:0.3442716 4:0.35376284 5:0.63632548 6:0.50143778 7:0.44286272 8:0.57373571 9:0.746795 10:0.21319821 11:0.54484546 12:0.45650399 13:0.40212816 14:0.55455869 15:0.50280476 16:0.42566112 17:0.62679338 18:0.71194595 19:0.36639187 20:0.37945735 21:0.25531608 22:0.19489108 23:0.28610575 24:0.5811466 25:0.60877812 26:0.48511168 27:0.37187868 28:0.41302925 29:0.44999853 30:0.71367753 31:0.42030248 32:0.71728998 33:0.28750402 34:0.40639529 35:0.44531429 36:0.71789449 37:0.58964175 38:0.73573589 39:0.29608482 40:0.38065779 41:0.39745072 42:0.49272197 43:0.44472632 44:0.50086784 45:0.46735567 46:0.51778591 47:0.52155203 48:0.51555973 49:0.55045813 50:0.35550806 51:0.44749081 52:0.25276583 53:0.45268255 54:0.36845276 55:0.50367868 56:0.30389711 57:0.16436161 58:0.44131139 59:0.34052104 60:0.58186513 61:0.57140338 62:0.51150137 63:0.70497757 64:0.36980423 65:0.41758806 66:0.34346107 67:0.75969714 68:0.50775236 69:0.30067202 70:0.41285959 71:0.77071738 72:0.67429787 73:0.33731243 74:0.5053156 75:0.3792831 
0 0.8418210711733226 1.166067042412444 0 2.572235014674789 0 1.757228963607138 1.592106709069209 0 0 0.6201345658126028 0.5167761146653376 0 0 1.282922438600042 0.8102303371114477 0 2.56469619024066 0.9835388007986595 3.035220173720467 0.9480408792623062 1.499361539968546 0.6154681895503049 0 1.455698745736626 0 1.921180842749924 1:0.39383644 2:0.53402066 3:0.33830854 4:0.51705575 5:0.74910164 6:0.44883478 7:0.57207417 8:0.58175981 9:0.53598338 10:0.70900398 11:0.90227669 12:0.096224554 13:0.40892196 14:0.63269544 15:0.60654432 16:0.4171592 17:0.58569968 18:0.55259055 19:0.50952995 20:0.37550667 21:0.36115369 22:0.66740072 23:0.87529749 24:0.28205213 25:0.41219872 26:0.74980617 27:0.54297173 28:0.50936776 29:0.62461609 30:0.64660323 31:0.6263572 32:0.56694591 33:0.65122646 34:0.20791671 35:0.77818447 36:0.61406136 37:0.56751335 38:0.3920536 39:0.71550244 40:0.94021857 41:0.55416232 42:0.49247065 43:0.51486385 44:0.23056565 45:0.66978526 46:0.53472435 47:0.39627507 48:0.34210253 49:0.3833999 50:0.43265072 51:0.39078197 52:0.50485528 53:0.768637 54:0.34588486 55:0.42726979 56:0.47742811 57:0.42767191 58:0.42438251 59:0.50836718 60:0.59936357 61:0.58608121 62:0.4517673 63:0.40185216 64:0.3863714 65:0.71118152 66:0.53926283 67:0.58756292 68:0.77596611 69:0.37539649 70:0.50987971 71:0.77802169 72:0.6338408 73:0.68323457 74:0.34654328 75:0.42066488 
3.990267082687347 1.394671003687615 4.646812470753983 0.379349963055075 1.840175876539626 1.141146956944176 1.928395681768355 1.685523638682007 0 0 1.228819438613787 0 0.0310378903463294 0.6338984800060437 0 1.291789634565639 0 2.407430079609238 1.442465908557145 2.067424443834457 0.0612439785043745 1.327190899229326 0.4421164344775547 2.335683473238255 2.469801871177205 0 1.46698532794314 1:0.4517729 2:0.58846456 3:0.43821919 4:0.29852846 5:0.51388735 6:0.40391794 7:0.51010406 8:0.5487234 9:0.30744097 10:0.54591978 11:0.36624426 12:0.62027198 13:0.064321928 14:0.24398023 15:0.5725168 16:0.23657337 17:0.31117696 18:0.3536514 19:0.68120885 20:0.24015369 21:0.48549786 22:0.59846538 23:0.57371271 24:0.45215037 25:0.45546338 26:0.59798527 27:0.48405123 28:0.78438711 29:0.50402319 30:0.58509105 31:0.36804122 32:0.1435698 33:0.37085921 34:0.53872532 35:0.51172274 36:0.37249109 37:0.44857916 38:0.46349296 39:0.45392841 40:0.60865629 41:0.65684122 42:0.65994829 43:0.42215532 44:0.40613872 45:0.56349385 46:0.74026889 47:0.42656645 48:0.54474247 49:0.44720304 50:0.49345353 51:0.42070532 52:0.62545919 53:0.47271779 54:0.52684951 55:0.38380596 56:0.47097293 57:0.41629595 58:0.46967894 59:0.21675323 60:0.56534582 61:0.56331748 62:0.61537308 63:0.59562957 64:0.54078436 65:0.3375982 66:0.24598119 67:0.47254005 68:0.57676399 69:0.54159778 70:0.4195303 71:0.70234984 72:0.62718785 73:0.4352012 74:0.56080991 75:0.40720481 
1.312301029532569 0 0 0 0 0 0 0 0 0 0 2.107708693713376 1.661413133781207 0 0 0 0 0 1.771550269566322 0 0 0 0 0 0 0 0.2653573592457988 1:0.31719649 2:0.52807802 3:0.41641828 4:0.33765146 5:0.32360455 6:0.41133884 7:0.4908196 8:0.71617383 9:0.60515559 10:0.68647438 11:0.61153018 12:0.34101874 13:0.425468 14:0.56042117 15:0.60596967 16:0.360845 17:0.15579215 18:0.45379198 19:0.68303514 20:0.29497001 21:0.24696907 22:0.39504966 23:0.84989882 24:0.38306299 25:0.46414515 26:0.52634484 27:0.40250656 28:0.65446681 29:0.58702701 30:0.52017778 31:0.093794554 32:0.52765882 33:0.52673334 34:0.33464622 35:0.52592558 36:0.28275618 37:0.70333469 38:0.36809593 39:0.40393037 40:0.45875993 41:0.78271174 42:0.48886529 43:0.32110441 44:0.39197934 45:0.54919809 46:0.5930841 47:0.47298706 48:0.34284952 49:0.47302589 50:0.54749405 51:0.60790431 52:0.26920605 53:0.57008451 54:0.49739704 55:0.31681663 56:0.60071915 57:0.30946368 58:0.65453929 59:0.39632624 60:0.6859991 61:0.51314932 62:0.80371392 63:0.50400299 64:0.53477132 65:0.59291333 66:0.50219333 67:0.68657237 68:0.81229383 69:0.38721502 70:0.46678802 71:0.7634871 72:0.63191187 73:0.64597929 74:0.32974443 75:0.4839626 
0 0 0 0 0 0 0 0 0 0 0 0.5071425094342124 0 0 0 0 0 0 0 0 0 0 0.3943158505967807 0 0 0 0 1:0.47413644 2:0.5948059 3:0.40881479 4:0.59656984 5:0.73291361 6:0.64298213 7:0.6177454 8:0.51013726 9:0.45354798 10:0.53395432 11:0.57059741 12:0.36803731 13:0.39591831 14:0.43438831 15:0.47215164 16:0.39887765 17:0.64053148 18:0.64708567 19:0.44320884 20:0.7354241 21:0.31128633 22:0.38176087 23:0.68341345 24:0.10229026 25:0.34153289 26:0.51111263 27:0.42451277 28:0.22906555 29:0.67707443 30:0.48531038 31:0.50650829 32:0.47621921 33:0.44532979 34:0.41349706 35:0.71380019 36:0.45636246 37:0.53542268 38:0.37600353 39:0.30756125 40:0.7628153 41:0.52851212 42:0.40785122 43:0.44751376 44:0.38456696 45:0.40179455 46:0.45020694 47:0.25906137 48:0.57544863 49:0.35308826 50:0.47848356 51:0.34550667 52:0.45867923 53:0.7076714 54:0.27367032 55:0.54693425 56:0.43121496 57:0.48456037 58:0.42602921 59:0.3068381 60:0.76242805 61:0.58352005 62:0.52911216 63:0.71411425 64:0.43158197 65:0.72905356 66:0.58175516 67:0.5504778 68:0.74850529 69:0.46852356 70:0.56873322 71:0.84011978 72:0.57609081 73:0.62040198 74:0.19878435 75:0.37341517 
0.4356986538815074 0 0 0.7181057723167873 0 0.04064199727586337 0.6745055666800033 0 0 0 0 0 0 0 0 1.134797462838491 0 0 0 0 0 0.3399047280436502 0 0 0 0 0 1:0.54569626 2:0.64468116 3:0.44857734 4:0.54146218 5:0.64759111 6:0.50768119 7:0.55958581 8:0.62285405 9:0.74163693 10:0.66205889 11:0.27522528 12:0.28808066 13:0.42847836 14:0.67280626 15:0.63478982 16:0.5369454 17:0.72310865 18:0.69591153 19:0.44848603 20:0.30930635 21:0.12207411 22:0.63311321 23:0.6243946 24:0.74024129 25:0.44409683 26:0.56786275 27:0.58525658 28:0.26019648 29:0.55168939 30:0.65653437 31:0.46083534 32:0.62580335 33:0.29498664 34:0.62121207 35:0.54366207 36:0.54770124 37:0.68686408 38:0.70183665 39:0.31031418 40:0.48574957 41:0.53510731 42:0.53578657 43:0.18585415 44:0.39343229 45:0.47987801 46:0.57792562 47:0.50009781 48:0.28547013 49:0.55802029 50:0.68714261 51:0.53887463 52:0.13246709 53:0.62835318 54:0.30171835 55:0.56251401 56:0.41838753 57:0.10753258 58:0.5225516 59:0.45362541 60:0.58025664 61:0.46920922 62:0.63048965 63:0.56191617 64:0.47732359 65:0.51317716 66:0.58530605 67:0.6427893 68:0.70470601 69:0.42171112 70:0.45565924 71:0.85088849 72:0.7711848 73:0.6267854 74:0.33684057 75:0.41778374 
0 0 0 0 1.346393211936252 0 0 0 0 0 0 0.04415892584804017 0 0 0 0 0 0.5159917182683872 0 0 0 0 0 0 0 0.9347835968286247 0.1668159961153479 1:0.59669203 2:0.54307854 3:0.27815402 4:0.34831581 5:0.53928393 6:0.48810223 7:0.64753938 8:0.72000635 9:0.64792603 10:0.25165212 11:0.51154131 12:0.49834332 13:0.49650276 14:0.70905054 15:0.30592465 16:0.5925678 17:0.60248011 18:1 19:0.53026426 20:0.71846443 21:0.42758805 22:0.5114305 23:0.46793959 24:0.50407076 25:0.4699339 26:0.43773082 27:0.37421086 28:0.16761297 29:0.69676608 30:0.832012 31:0.46536836 32:0.84041739 33:0.41265157 34:0.6009478 35:0.5781762 36:0.63812637 37:0.64422208 38:0.5489167 39:0.46082965 40:0.4095546 41:0.55640393 42:0.49660847 43:0.34829107 44:0.3626945 45:0.45096684 46:0.53838956 47:0.39579639 48:0.24010177 49:0.56661171 50:0.46305147 51:0.51666921 52:0.33158827 53:0.59377837 54:0.2999461 55:0.5775584 56:0.55239773 57:0.28674617 58:0.65683895 59:0.57421225 60:0.66879344 61:0.30627042 62:0.49821451 63:0.59251362 64:0.33892611 65:0.5039742 66:0.49213275 67:0.61167741 68:0.66164362 69:0.59721673 70:0.33785626 71:0.83625567 72:0.63856858 73:0.61215425 74:0.36021912 75:0.48043913 
0 0 0 0 0 0 0 0 0 0 0 0 0 0 0.520304695071181 0.04223097453133019 0 0 0.7445623540612714 0 0 0 0 0 0 0 0 1:0.560929 2:0.49967909 3:0.35894069 4:0.25141129 5:0.54856533 6:0.56319439 7:0.61618811 8:0.457894 9:0.4257369 10:0.3153125 11:0.47793952 12:0.54905951 13:0.54916096 14:0.44000164 15:0.50875723 16:0.21867669 17:0.50754052 18:0.52446204 19:0.47914395 20:0.47358248 21:0.33676165 22:0.42825782 23:0.21558823 24:0.64291418 25:0.84563392 26:0.38932344 27:0.43012464 28:0.48187885 29:0.3497645 30:0.57607424 31:0.15794276 32:0.53405648 33:0.4841246 34:0.38632977 35:0.46577755 36:0.44574043 37:0.59328032 38:0.39939034 39:0.50726503 40:0.43011472 41:0.68188906 42:0.45296952 43:0.70602673 44:0.36408156 45:0.61611545 46:0.59358531 47:0.50542289 48:0.34491006 49:0.76549178 50:0.31025553 51:0.61803019 52:0.26324451 53:0.42825016 54:0.50762069 55:0.33703542 56:0.46250299 57:0.095720798 58:0.75177658 59:0.46561083 60:0.71777308 61:0.59932727 62:0.64199185 63:0.63206458 64:0.12725708 65:0.51704532 66:0.29763547 67:0.74419188 68:0.71415657 69:0.32830909 70:0.45719424 71:0.62177688 72:0.77216601 73:0.296296 74:0.59375209 75:0.25565523 
0.01250208600826124 0 0 0 0 0 0 0 0 0 0 0 0 3.259203730088791 0 0 0 0 0 0.2568273118493675 0 0 0 0 0 0 0.1530379465130338 1:0.49991927 2:0.66218209 3:0.31698671 4:0.48308364 5:0.45314011 6:0.56426907 7:0.5852707 8:0.49141383 9:0.76869082 10:0.39533043 11:0.39303139 12:0.67378318 13:0.51218796 14:0.34739089 15:0.68785459 16:0.32641622 17:0.20055306 18:0.55757165 19:0.68037218 20:0.43787864 21:0.26380968 22:0.29085255 23:0.47192189 24:0.68687952 25:0.56691509 26:0.81520551 27:0.15939899 28:0.53241158 29:0.50790513 30:0.45292437 31:0.49037296 32:0.32701331 33:0.26937285 34:0.42767212 35:0.62959152 36:0.33711341 37:0.67236269 38:0.40268192 39:0.54838407 40:0.68274236 41:0.47357664 42:0.58820939 43:0.4304055 44:0.47103763 45:0.49474725 46:0.52321351 47:0.45460367 48:0.35778594 49:0.36171111 50:0.54081148 51:0.59376365 52:0.25294095 53:0.6274333 54:0.29721108 55:0.37276572 56:0.46026561 57:0.34824857 58:0.57123584 59:0.16010103 60:0.56349921 61:0.61635703 62:0.56414586 63:0.65850687 64:0.55455649 65:0.40709206 66:0.42746055 67:0.59740549 68:0.67444825 69:0.41741291 70:0.49275506 71:0.81511724 72:0.60957575 73:0.52047652 74:0.36410439 75:0.3784855 
0 0 0 0 0 0 0 0 0 0 0 0 0 0 0 0 0 0 0 0 0 0 0 0 0 0.2056668926831315 0 1:0.61943918 2:0.44092482 3:0.52392536 4:0.50353169 5:0.69408995 6:0.55027717 7:0.50300926 8:0.62494355 9:0.56215489 10:0.57543588 11:0.63583952 12:0.68043631 13:0.36358508 14:0.65391749 15:0.37763506 16:0.41483432 17:0.70201439 18:0.41479456 19:0.72576195 20:0.59528691 21:0.5051012 22:0.21596445 23:0.38734159 24:0.5260818 25:0.36231229 26:0.58255011 27:0.42818415 28:0.32430968 29:0.4752166 30:0.49919453 31:0.37124377 32:0.56531912 33:0.38249725 34:0.64234734 35:0.41229099 36:0.64836878 37:0.34881604 38:0.7035771 39:0.37329391 40:0.34155458 41:0.55072302 42:0.61304629 43:0.40761912 44:0.36224306 45:0.59525269 46:0.34422252 47:0.46767274 48:0.50969815 49:0.66226381 50:0.33168772 51:0.42533952 52:0.30285174 53:0.62161189 54:0.44537038 55:0.45470402 56:0.33436117 57:0.10274006 58:0.47602361 59:0.68950981 60:0.89059877 61:0.52977568 62:0.45825449 63:0.6336785 64:0.15855689 65:0.57632989 66:0.47820938 67:0.68297392 68:0.79773235 69:0.41108936 70:0.41078115 71:0.63606101 72:0.84112853 73:0.36411798 74:0.4842903 75:0.29974282 
0 0 0 0 0.5812765790139011 0.8491265124627758 0 0 0 0 0 0 0 0 1.341923320966902 0 1.459480929394214 0.894331166193192 0 0 0.8399310037697232 0 0 0 0 0 1.594073441853265 1:0.67115158 2:0.55131882 3:0.297874 4:0.78071171 5:0.45111594 6:0.52768123 7:0.47192976 8:0.42671758 9:0.79738343 10:0.60292429 11:0.64478618 12:0.4525122 13:0.49954584 14:0.73919117 15:0.2230064 16:0.30962649 17:0.61430216 18:0.50936931 19:0.36331967 20:0.27753949 21:0.48923245 22:0.2504479 23:0.31844324 24:0.38768196 25:0.6082868 26:0.49558124 27:0.29996133 28:0.3491129 29:0.4724344 30:0.49152711 31:0.70732719 32:0.34508723 33:0.4200449 34:0.46524408 35:0.67415106 36:0.77565706 37:0.53040123 38:0.48210201 39:0.37653762 40:0.6615451 41:0.56309092 42:0.36483145 43:0.19763099 44:0.41242975 45:0.48218596 46:0.54262495 47:0.69845432 48:0.61922997 49:0.34921426 50:0.27903616 51:0.43948001 52:0.24283831 53:0.5382778 54:0.5781101 55:0.46082968 56:0.42026553 57:0.49005786 58:0.29143277 59:0.50083208 60:0.61183083 61:0.45391563 62:0.48736367 63:0.64988101 64:0.43431994 65:0.43762404 66:0.5482111 67:0.72710848 68:0.70323002 69:0.48766002 70:0.48156762 71:0.84659439 72:0.5050441 73:0.51149637 74:0.39476189 75:0.51348269 
1.847965991191438 0 0 0 1.12870312423803 0 0 0 0.3493167721676966 0 1.309989031468205 0.6007440652774864 0.8972687980319368 0 0.2395129734397613 0 0 1.22217213988347 0.06352115361560795 1.289179038169472 0.8934839099482774 2.294545562156901 0 0.6801165278764901 0 0 0 1:0.66306961 2:0.5906415 3:0.61853641 4:0.24697132 5:0.28816718 6:0.53679377 7:0.44115871 8:0.64961129 9:0.45680952 10:0.18029535 11:0.34847069 12:0.42299226 13:0.43872046 14:0.56251371 15:0.5969969 16:0.57231504 17:0.40320444 18:0.72951889 19:0.63697952 20:0.59903091 21:0.46787569 22:0.43086544 23:0.47315425 24:0.40047669 25:0.60891682 26:0.54054177 27:0.23592588 28:0.41160917 29:0.53110886 30:0.74763304 31:0.26969659 32:0.54533911 33:0.52100831 34:0.55861121 35:0.45264831 36:0.47497621 37:0.46351412 38:0.13760479 39:0.38240522 40:0.20892242 41:0.31174499 42:0.55649894 43:0.65068716 44:0.50655663 45:0.32167083 46:0.42996061 47:0.1715534 48:0.27910528 49:0.6614002 50:0.48824337 51:0.60882086 52:0.21281178 53:0.43302777 54:0.4268721 55:0.4065944 56:0.39090621 57:0.3387191 58:0.51982051 59:0.33525419 60:0.63637787 61:0.56465811 62:0.66637933 63:0.76367456 64:0.49198708 65:0.36768439 66:0.3104583 67:0.55683255 68:0.63296258 69:0.61608297 70:0.41467455 71:0.71951514 72:0.58288419 73:0.49526826 74:0.44777009 75:0.44482285 
0 0 0 0 0.2632978101949825 0 0 0 0 0.4159471834343583 0 0 0 0.720995912532516 0 1.780324633570784 0 0 0 0 1.191849210132199 0 0 0 0 0 0 1:0.51389891 2:0.94285905 3:0.80938214 4:0.64577633 5:0.68767309 6:0.40779734 7:0.66799581 8:0.69486153 9:0.39541143 10:0.45966735 11:0.48202428 12:0.55298257 13:0.60703403 14:0.31808075 15:0.45483193 16:0.33307397 17:0.61971843 18:0.66775477 19:0.56139266 20:0.59094942 21:0.44413412 22:0.44986302 23:0.58547509 24:0.29449046 25:0.54792917 26:0.58353567 27:0.31046805 28:0.4215748 29:0.57763201 30:0.73359072 31:0.40737373 32:0.43765128 33:0.34523305 34:0.5372479 35:0.40284747 36:0.71464252 37:0.33151439 38:0.3915081 39:0.45050278 40:0.4810881 41:0.40873432 42:0.47419965 43:0.38211679 44:0.30767974 45:0.38952309 46:0.58924359 47:0.45066762 48:0.47773844 49:0.51120579 50:0.26344866 51:0.4496716 52:0.14224775 53:0.48811376 54:0.60482305 55:0.53534365 56:0.34006703 57:0.33775043 58:0.41364336 59:0.3942447 60:0.58585924 61:0.57198852 62:0.50605035 63:0.43557489 64:0.3762016 65:0.3616662 66:0.45679855 67:0.63846695 68:0.61700535 69:0.52105683 70:0.41979364 71:0.74860209 72:0.64923435 73:0.46417439 74:0.42182437 75:0.40797403 
0.443600597210576 0.05158658406193901 0 0 0 0 0 0 0 0.2401018830699271 0 0.07664393131359977 0 0.6857438726807611 0 0.01300213624724656 0 1.877943209167411 0.1133599052742343 0 0 0.6846303098242591 0 0 0 0 0 1:0.43841019 2:0.70509195 3:0.46351194 4:0.3215625 5:0.5683499 6:0.48617929 7:0.60463053 8:0.56450653 9:0.46621841 10:0.61847353 11:0.39430293 12:0.48563233 13:0.36782891 14:0.57755631 15:0.45135915 16:0.37965679 17:0.44221646 18:0.37057835 19:0.62058908 20:0.60120022 21:0.043715857 22:0.29472053 23:0.41081578 24:0.26681721 25:0.63697684 26:0.52368563 27:0.4898921 28:0.57737374 29:0.48784903 30:0.98099601 31:0.40300629 32:0.35398191 33:0.38762614 34:0.58243364 35:0.29890805 36:0.6364314 37:0.41248491 38:0.38867524 39:0.41344428 40:0.41875023 41:0.381367 42:0.61647534 43:0.51963514 44:0.68491167 45:0.39503741 46:0.6272676 47:0.59739834 48:0.32012746 49:0.43780425 50:0.40416241 51:0.46986461 52:0.1986832 53:0.46279326 54:0.64191884 55:0.48155355 56:0.3640089 57:0.22047904 58:0.55238044 59:0.57501721 60:0.70413721 61:0.48380801 62:0.619941 63:0.58111435 64:0.57278007 65:0.23884977 66:0.50449622 67:0.61812383 68:0.71162236 69:0.63360918 70:0.48960772 71:0.79771757 72:0.62707943 73:0.44405085 74:0.47915688 75:0.46528217 
2.227694996195027 0 0 0 0.07074229620379352 1.984818360783784 0 0.1887125369337959 0 0 0 0 0 1.070404686285889 0 0 0 0 0 0 0 1.120244631320865 0 0 0 0 0.787301101923216 1:0.63993037 2:0.46776241 3:0.35938606 4:0.47423407 5:0.6276437 6:0.40798143 7:0.86091113 8:0.46326071 9:0.43815544 10:0.12670252 11:0.65383548 12:0.4616113 13:0.46164837 14:0.65032715 15:0.4268828 16:0.58548224 17:0.69766104 18:0.5312646 19:0.4670442 20:0.39503372 21:0.25170028 22:0.089254491 23:0.40237486 24:0.53588897 25:0.77208656 26:0.32445443 27:0.305996 28:0.48888758 29:0.38234353 30:0.66866297 31:0.52624768 32:0.57856035 33:0.35969046 34:0.56786615 35:0.44374833 36:0.45490798 37:0.64803338 38:0.43522924 39:0.32465735 40:0.5009132 41:0.48977196 42:0.42338875 43:0.43771207 44:0.44451472 45:0.33529437 46:0.26055074 47:0.58253974 48:0.24222921 49:0.53133178 50:0.34707457 51:0.38146234 52:0.11799262 53:0.41537672 54:0.39508334 55:0.42306244 56:0.23117216 57:0.23544905 58:0.46133566 59:0.57525158 60:0.55298012 61:0.48300567 62:0.55763716 63:0.82304507 64:0.56394821 65:0.30912957 66:0.41454065 67:0.6457389 68:0.65267342 69:0.66222245 70:0.34347165 71:0.76330465 72:0.44653693 73:0.47823802 74:0.4868395 75:0.43378121 
0 0 0 0 0 0 0 0 0 0 0 0.05289317909214681 0 0 0 0 0 0 0 0 0 0 0 0 0 0 0 1:0.63957715 2:0.73658127 3:0.72958118 4:0.47903934 5:0.4155471 6:0.3714799 7:0.89886373 8:0.58410329 9:0.63820332 10:0.29291749 11:0.40924126 12:0.70843452 13:0.19211163 14:0.48929691 15:0.5329448 16:0.63790369 17:0.50654286 18:0.4657456 19:0.61193514 20:0.56366265 21:0.56158394 22:0.26059136 23:0.42039704 24:0.46301997 25:0.44668642 26:0.41857871 27:0.29234341 28:0.53387731 29:0.4255242 30:0.6785233 31:0.39595628 32:0.49691927 33:0.44822478 34:0.43302077 35:0.65260696 36:0.56484824 37:0.48360321 38:0.34030727 39:0.5248937 40:0.27311882 41:0.45813054 42:0.43789861 43:0.51019794 44:0.52297002 45:0.51359862 46:0.60185283 47:0.26916736 48:0.54920304 49:0.47896269 50:0.31769088 51:0.45443973 52:0.29072446 53:0.40997514 54:0.51012677 55:0.50703341 56:0.36414388 57:0.32837489 58:0.53311217 59:0.42129251 60:0.70421767 61:0.55185562 62:0.57609993 63:0.66671222 64:0.60943633 65:0.47047856 66:0.40462655 67:0.69656819 68:0.59140712 69:0.58094335 70:0.42297441 71:0.8860594 72:0.55001706 73:0.53691214 74:0.45433611 75:0.42829463 
0 0 0 0 0 0 0 0 0 0 0 0 0 0 0 0 0 0 0 0 0 0 0 0 0 0 0.230525097099195 1:0.36634257 2:0.62258369 3:0.3729212 4:0.3421773 5:0.47450206 6:0.39691788 7:0.60821313 8:0.40404147 9:0.54905564 10:0.34391132 11:0.39205405 12:0.51703846 13:0.28946757 14:0.54279745 15:0.28766784 16:0.74927461 17:0.45154908 18:0.43419337 19:0.45335343 20:0.61193973 21:0.36891487 22:0.2124943 23:0.56679356 24:0.525491 25:0.60037649 26:0.54254591 27:0.43355879 28:0.31799376 29:0.38076213 30:0.60583681 31:0.58016211 32:0.47406125 33:0.37971169 34:0.73851502 35:0.41903567 36:0.40867442 37:0.48193234 38:0.48355067 39:0.41726109 40:0.37331459 41:0.37859091 42:0.52469844 43:0.37753862 44:0.57204872 45:0.21153265 46:0.60514015 47:0.29983783 48:0.44502911 49:0.48569515 50:0.44603989 51:0.52645051 52:0.20765486 53:0.35221392 54:0.46547842 55:0.49434301 56:0.47624758 57:0.23589751 58:0.5403083 59:0.4542751 60:0.69792736 61:0.43005449 62:0.51632345 63:0.66448808 64:0.49126756 65:0.44783884 66:0.44346163 67:0.61351639 68:0.72853297 69:0.62199736 70:0.45432508 71:0.82553369 72:0.66347533 73:0.44366801 74:0.40500456 75:0.39707842 
0 0 0 0 0 0 0 0 0 0 0 0 0 0 0 0 0 0 0 0 0.8954544122288345 0 0 0 0 0 0 1:0.53726083 2:0.6422047 3:0.69373882 4:0.33408716 5:0.42213485 6:0.43122992 7:0.64049417 8:0.43985835 9:0.33829424 10:0.62103456 11:0.54779696 12:0.68774611 13:0.19630159 14:0.31405917 15:0.54438543 16:0.17528106 17:0.41026089 18:0.62345362 19:0.65222448 20:0.65602791 21:0.35934773 22:0.36888295 23:0.35841542 24:0.19695361 25:0.55402601 26:0.53340429 27:0.27321988 28:0.53846264 29:0.49885896 30:0.60136974 31:0.34877416 32:0.59298795 33:0.52697217 34:0.48290986 35:0.67240644 36:0.37055865 37:0.48187006 38:0.39290863 39:0.57519603 40:0.57111675 41:0.5548889 42:0.50231862 43:0.47885504 44:0.55230331 45:0.57833183 46:0.46855369 47:0.32468134 48:0.49334058 49:0.64219069 50:0.40075406 51:0.35417208 52:0.30800992 53:0.43453878 54:0.50822949 55:0.38128281 56:0.64472598 57:0.26269254 58:0.73963392 59:0.4113526 60:0.91532344 61:0.54221797 62:0.53528196 63:0.52898258 64:0.30150604 65:0.4015055 66:0.35860392 67:0.67780346 68:0.62145662 69:0.47437328 70:0.35682207 71:0.7043615 72:0.74323839 73:0.27261275 74:0.53567255 75:0.29623333 
0 0 0.1312369261908304 0 0 0 0 0 0 0 0 0 0 0 0 0 0 0 0 0 0 0 0 0 0 0 0.1027955043740728 1:0.35079896 2:0.55677885 3:0.43830287 4:0.58363807 5:0.65640497 6:0.30470422 7:0.28400126 8:0.42690307 9:0.41528949 10:0.43665832 11:0.64952964 12:0.67592067 13:0.32725763 14:0.58527339 15:0.40417466 16:0.54317158 17:0.55378085 18:0.66577572 19:0.49634746 20:0.56190318 21:0.42976835 22:0.20914987 23:0.3599647 24:0.51659894 25:0.77036136 26:0.46502158 27:0.34946921 28:0.43536651 29:0.13675006 30:0.72253162 31:0.59165138 32:0.48319814 33:0.49915084 34:0.44375774 35:0.5892694 36:0.62116158 37:0.58653796 38:0.37858069 39:0.44788817 40:0.43724382 41:0.41725713 42:0.46703115 43:0.48096782 44:0.35958803 45:0.50343299 46:0.53490055 47:0.57582289 48:0.41926152 49:0.54829389 50:0.3503924 51:0.38234451 52:0.14066479 53:0.52248353 54:0.5622431 55:0.61998886 56:0.37112719 57:0.37336662 58:0.49423942 59:0.41741601 60:0.58543408 61:0.42601374 62:0.65681374 63:0.62218225 64:0.5415144 65:0.40298888 66:0.51104438 67:0.65602082 68:0.61333001 69:0.63146287 70:0.37102094 71:0.91466808 72:0.56028682 73:0.43858451 74:0.47715741 75:0.50099593 
0 0 0 0 0 0 0 0 0 0 0 0 0 0 0 0 0 0 0 0 0 0 0 0 0 0 0.1759626624896223 1:0.58869696 2:0.66982901 3:0.75678968 4:0.50451064 5:0.69468164 6:0.43977234 7:0.60527319 8:0.55559385 9:0.46402594 10:0.25859851 11:0.44446388 12:0.43964776 13:0.43307123 14:0.49982154 15:0.40981227 16:0.34601751 17:0.58857554 18:0.71615547 19:0.46124753 20:0.6152302 21:0.42779726 22:0.4160707 23:0.52951699 24:0.4048 25:0.47587478 26:0.71377629 27:0.45657352 28:0.2147817 29:0.56187284 30:0.70280403 31:0.58914393 32:0.59638727 33:0.47154182 34:0.65582991 35:0.46246657 36:0.67317909 37:0.47896713 38:0.49107668 39:0.37638757 40:0.36796758 41:0.49289295 42:0.42379209 43:0.40025544 44:0.53228849 45:0.33675849 46:0.37731859 47:0.61255282 48:0.42495576 49:0.4579044 50:0.44158703 51:0.37786061 52:0.20557442 53:0.45151648 54:0.35081264 55:0.49938974 56:0.57354242 57:0.33907202 58:0.62777996 59:0.35337463 60:0.77327538 61:0.4467853 62:0.51471198 63:0.57444012 64:0.47783178 65:0.33836421 66:0.42860106 67:0.67237455 68:0.43208796 69:0.59468764 70:0.28282946 71:0.85504729 72:0.53355145 73:0.41526985 74:0.40854642 75:0.40943405 
0 0 0 0 0 0 0 0 0 0 0 0 0 0 0 0 0 0 0 0 0 0 0 0 0 0 0.1104096958636028 1:0.33974382 2:0.72068983 3:0.60090101 4:0.57134706 5:0.55202788 6:0.40015951 7:0.5427525 8:0.7416842 9:0.3305355 10:0.4771246 11:0.088704236 12:0.78687036 13:0.41758126 14:0.72647941 15:0.51442927 16:0.44916472 17:0.793782 18:0.55184942 19:0.4876174 20:0.46654218 21:0.26557836 22:0.39063242 23:0.59025103 24:0.35367677 25:0.30095863 26:0.39988923 27:0.25097013 28:0.40193188 29:0.47684991 30:0.57185799 31:0.2785137 32:0.3510704 33:0.30882913 34:0.55684084 35:0.5079847 36:0.73222303 37:0.19552323 38:0.28306445 39:0.37327963 40:0.34955508 41:0.53705412 42:0.46444562 43:0.33830816 44:0.41080615 45:0.41948709 46:0.52542907 47:0.4129509 48:0.53088444 49:0.42724371 50:0.45610225 51:0.35331973 52:0.13276193 53:0.48886555 54:0.55096292 55:0.52915502 56:0.33869582 57:0.30794382 58:0.50185066 59:0.38203552 60:0.58989501 61:0.57795721 62:0.50497288 63:0.56672293 64:0.58654904 65:0.39083233 66:0.46759599 67:0.53345507 68:0.69600147 69:0.56036496 70:0.52145302 71:0.81731504 72:0.6595487 73:0.56083184 74:0.3267853 75:0.47438782 
0 1.437029640183686 0.2901828367065092 1.213492005723146 0 0 0.01559439952778195 0 0 0.06786874406510615 1.222928509873036 0 0.6624055988590558 0.607086934187464 1.982220749339713 0.6750170967983197 1.862722174949522 0.1535081434429809 1.152423413924422 2.251361414908258 1.89866104821431 0 0 0.4713060498939032 1.463194644215255 0 1.917418573382055 1:0.76095361 2:0.56036657 3:0.88492739 4:0.22139874 5:0.56509858 6:0.36401224 7:0.43814304 8:0.38336495 9:0.77786458 10:0.38061386 11:0.83864492 12:0.7129721 13:0.35608763 14:0.63487035 15:0.47236499 16:0.40934721 17:0.38714883 18:0.46772081 19:0.39812717 20:0.68546933 21:0.4805035 22:0.28092426 23:0.2276631 24:0.58206224 25:0.6688959 26:0.69726664 27:0.48347124 28:0.42364421 29:0.46014372 30:0.53556019 31:0.27764592 32:0.49823582 33:0.3992894 34:0.50155985 35:0.50698572 36:0.64576602 37:0.44835237 38:0.46988788 39:0.42534301 40:0.34894493 41:0.43260419 42:0.50085312 43:0.53120112 44:0.45219633 45:0.43675056 46:0.32239076 47:0.56435353 48:0.53223705 49:0.61765647 50:0.45475626 51:0.47147134 52:0.21402863 53:0.36228222 54:0.53946149 55:0.36183801 56:0.47348708 57:0.2287377 58:0.58994442 59:0.33078182 60:0.75961751 61:0.53472483 62:0.56554955 63:0.68104351 64:0.34215322 65:0.44923338 66:0.39283502 67:0.68175411 68:0.49637061 69:0.43553191 70:0.34921318 71:0.57547772 72:0.6146878 73:0.17014214 74:0.63417989 75:0.22901942 
2.693792393540385 1.848007022571595 0 0 0 0 0.1070261321540484 0 0 0 0 0.2730350107741782 1.263711377757607 0 1.32405582574882 0 0.502956796065315 0.205930206964762 0.07156176629829213 0.505298290414848 1.376579638955092 0 1.060774565977681 0 2.198567304038157 0.1751506627324282 0 1:0.4359225 2:0.40007871 3:0.57597655 4:0.37408838 5:0.4263908 6:0.34778905 7:0.61767572 8:0.31989941 9:0.41472596 10:0.78273112 11:0.58483219 12:0.61517811 13:0.25554696 14:0.50754982 15:0.49509841 16:0.75884145 17:0.25611207 18:0.27810431 19:0.74164301 20:0.21961321 21:0.2490792 22:0.76380515 23:0.73734432 24:0.43355745 25:0.35826877 26:0.78139967 27:0.57624853 28:0.64806193 29:0.47388527 30:0.52396238 31:0.66169435 32:0.2614741 33:0.53139836 34:0.54402286 35:0.47989061 36:0.39432412 37:0.50638902 38:0.80815709 39:0.56483465 40:0.74665231 41:0.44663522 42:0.6048227 43:0.30407304 44:0.4534156 45:0.5811578 46:0.66267234 47:0.3634558 48:0.67025107 49:0.42352432 50:0.50798875 51:0.55524206 52:0.6587168 53:0.53258127 54:0.44670436 55:0.39929292 56:0.44493502 57:0.48843047 58:0.35827085 59:0.47347403 60:0.86368853 61:0.38017076 62:0.49173066 63:0.61635542 64:0.52293634 65:0.47014636 66:0.54561293 67:0.53481305 68:0.60449678 69:0.60295445 70:0.42077079 71:0.78490537 72:0.62665421 73:0.53876108 74:0.44721818 75:0.31428024 
0 0 0 0.1829266141956374 0 0 0 0 0 0 0 0 0 0 0 0 0 0 0 0 0 0 0 0 0 0 0 1:0.26333851 2:0.51951069 3:0.40916836 4:0.44153219 5:0.70998824 6:0.42917401 7:0.48513657 8:0.3442128 9:0.49301279 10:0.63854772 11:0.72658378 12:0.51904637 13:0.26789746 14:0.71929055 15:0.58288366 16:0.29598913 17:0.6159761 18:0.43864304 19:0.14707577 20:0.48565492 21:0.15421495 22:0.6165005 23:0.36736777 24:0.42076188 25:0.54081041 26:0.50389767 27:0.43247187 28:0.47937891 29:0.35633126 30:0.69820583 31:0.44022924 32:0.65229917 33:0.39598659 34:0.41168848 35:0.606134 36:0.71058559 37:0.56357574 38:0.75320977 39:0.35095307 40:0.54623723 41:0.4660669 42:0.36343613 43:0.30771774 44:0.38091251 45:0.5608229 46:0.47412673 47:0.63495541 48:0.43747365 49:0.50779492 50:0.41444716 51:0.41920999 52:0.18281001 53:0.59325665 54:0.54330695 55:0.62325108 56:0.45806408 57:0.18349229 58:0.33988506 59:0.55352437 60:0.6939261 61:0.48935392 62:0.51064664 63:0.57935691 64:0.53701597 65:0.43396375 66:0.42342287 67:0.65218973 68:0.55691147 69:0.56030309 70:0.35121474 71:0.91612422 72:0.60617775 73:0.47582066 74:0.47413325 75:0.46416378 
0 0.09662399340064616 0 0 0 0 0 0 0.7910926552614712 0.9321512967166153 0 0 0.4078129695295478 2.008221560761192 2.486695245211527 0 0 0 0 2.436309650940499 0 1.972091270757034 0 1.021026224828468 2.003273623299412 0.6399281995570841 0 1:0.68137115 2:0.42124483 3:0.79521412 4:0.30714005 5:0.69102699 6:0.58871591 7:0.54113764 8:0.57448888 9:0.24998973 10:0.48234868 11:0.55658513 12:0.52300382 13:0.23896626 14:0.3695572 15:0.60082638 16:0.22944956 17:0.32432348 18:0.44514412 19:0.40104541 20:0.52004248 21:0.46700466 22:0.45139241 23:0.62347722 24:0.63132936 25:0.51859486 26:0.45227697 27:0.70460975 28:0.47626722 29:0.49031544 30:0.67482001 31:0.53036487 32:0.40196159 33:0.52725756 34:0.2656388 35:0.43434575 36:0.50809425 37:0.63769317 38:0.54870313 39:0.39476264 40:0.75248927 41:0.63863373 42:0.30579633 43:0.41994539 44:0.39816836 45:0.49401465 46:0.51246262 47:0.4494383 48:0.53472888 49:0.52268595 50:0.31516382 51:0.39100963 52:0.39442751 53:0.48076159 54:0.61246699 55:0.50829208 56:0.40996981 57:0.31347412 58:0.51012623 59:0.46605247 60:0.70796275 61:0.6441412 62:0.56500363 63:0.47274503 64:0.28710273 65:0.64980173 66:0.34033903 67:0.64423424 68:0.66999209 69:0.49343073 70:0.48262489 71:0.72903651 72:0.73693496 73:0.34941134 74:0.55139786 75:0.24142125 
0 0 0 1.198715323043783 0 0 0 0 0 1.545456939056454 0 0 0.0730653642237933 0 0 0 0 0 0 0 0.2728107453759975 0.4488674714014434 1.163485483233683 0 0 0 0.6319089471219198 1:0.26213139 2:0.66840756 3:0.51379204 4:0.63228482 5:0.32050747 6:0.43594664 7:0.5899449 8:0.34450629 9:0.43753999 10:0.59101456 11:0.49669731 12:0.79750508 13:0.24535063 14:0.35205635 15:0.34515712 16:0.51250708 17:0.48134553 18:0.46137807 19:0.81413764 20:0.59303921 21:0.51096904 22:0.51688331 23:0.67172253 24:0.51001006 25:0.36615217 26:0.36488473 27:0.61789548 28:0.41522613 29:0.49402109 30:0.5063988 31:0.4510901 32:0.39274997 33:0.52903092 34:0.56418961 35:0.44157767 36:0.67746824 37:0.38400689 38:0.40426135 39:0.42965394 40:0.42965442 41:0.57848996 42:0.64292759 43:0.45159218 44:0.2732155 45:0.47825095 46:0.61638933 47:0.39597449 48:0.53463852 49:0.44332358 50:0.32204974 51:0.3330484 52:0.39456567 53:0.4387632 54:0.5646866 55:0.50963545 56:0.28131652 57:0.34912068 58:0.46517599 59:0.49527448 60:0.64871651 61:0.52775574 62:0.38096958 63:0.58432394 64:0.49252155 65:0.35763177 66:0.60055792 67:0.51509953 68:0.37052789 69:0.69655699 70:0.32512513 71:0.77456474 72:0.48835662 73:0.48616198 74:0.37275964 75:0.29817563 
0 0 0 0 0 0 0 0 0 0 0 0 0 0 0 0 0 0 0 0 0 0 0 0 0 0.4357285437323293 0 1:0.58625102 2:0.8220486 3:0.61861092 4:0.53751874 5:0.88846344 6:0.26607871 7:0.58410156 8:0.57800889 9:0.6888805 10:0.30365238 11:0.26673362 12:0.63394189 13:0.28620985 14:0.53359812 15:0.60369766 16:0.6204769 17:0.65398347 18:0.59129477 19:0.62568367 20:0.46244913 21:0.52330303 22:0.26946533 23:0.42913288 24:0.24671088 25:0.58127731 26:0.3604466 27:0.22857754 28:0.64298201 29:0.45631748 30:0.74082738 31:0.48947191 32:0.37192348 33:0.44892141 34:0.51599437 35:0.47388178 36:0.48000267 37:0.2917574 38:0.37860548 39:0.35623556 40:0.39106357 41:0.59056091 42:0.63210356 43:0.45656949 44:0.41648677 45:0.33947802 46:0.42059684 47:0.3118923 48:0.39628887 49:0.45819056 50:0.30402598 51:0.43772963 52:0.223552 53:0.43939629 54:0.55616164 55:0.55501962 56:0.3871752 57:0.35520414 58:0.52765167 59:0.50928152 60:0.75764269 61:0.61198485 62:0.40645453 63:0.61232799 64:0.41756469 65:0.32017723 66:0.36268657 67:0.64684176 68:0.68130106 69:0.54628885 70:0.41997397 71:0.77214384 72:0.58291548 73:0.48063424 74:0.39748523 75:0.38887545 
0 0 0.9165567235120075 0.5548628150299277 0 0.005238329004024571 0 0 0 0 0 0 0 0 0 0 0 0 0 0 0 0 0 0 0 0 0 1:0.41803625 2:0.38789129 3:0.49169877 4:0.48742437 5:0.59625006 6:0.66814762 7:0.58774662 8:0.69617349 9:0.54315597 10:0.41172898 11:0.49333313 12:0.37327862 13:0.43869287 14:0.65712041 15:0.52557379 16:0.55841261 17:0.6235168 18:0.62306398 19:0.53475815 20:0.39064103 21:0.19539016 22:0.3937552 23:0.46957678 24:0.2132822 25:0.46296844 26:0.61670429 27:0.31369269 28:0.52881914 29:0.523054 30:0.77301425 31:0.62876409 32:0.59917545 33:0.34459946 34:0.52334827 35:0.5572688 36:0.75070584 37:0.53293538 38:0.38295445 39:0.30897906 40:0.31430507 41:0.12352861 42:0.58222371 43:0.44717678 44:0.43620515 45:0.33016571 46:0.41069463 47:0.54572272 48:0.50251132 49:0.38524461 50:0.40800923 51:0.44692996 52:0.16830175 53:0.38360113 54:0.57808709 55:0.56804144 56:0.4661459 57:0.41053891 58:0.27973858 59:0.48913693 60:0.55873173 61:0.47981229 62:0.51697344 63:0.65229434 64:0.55404919 65:0.37055323 66:0.45739937 67:0.66064155 68:0.63374251 69:0.58495349 70:0.34563181 71:0.82431918 72:0.62877947 73:0.3998507 74:0.44723973 75:0.5209657 
0 0 0 0 2.46541466069177 0.7380663882304868 1.172141632877369 0 0.2115873572098497 0 0.1989367268350948 1.34322506828064 1.760227754726185 0.09433767279436682 1.027305594265805 0 0 2.079576999461117 0 0 0 0 0 0 0 1.133540175146386 0 1:0.6065504 2:0.34110069 3:0.57077527 4:0.46922857 5:0.37497467 6:0.45545903 7:0.65703499 8:0.3382045 9:0.40974027 10:0.41066885 11:0.61696136 12:0.30022955 13:0.39825904 14:0.3115451 15:0.31549463 16:0.66103029 17:0.45356137 18:0.44119063 19:0.68237501 20:0.16105293 21:0.42291266 22:0.5902921 23:0.58628321 24:0.58528602 25:0.48896343 26:0.75641763 27:0.38393742 28:0.62854511 29:0.57375455 30:0.63112682 31:0.40557876 32:0.34098494 33:0.48850054 34:0.63352776 35:0.53575754 36:0.71588069 37:0.48536807 38:0.48574239 39:0.32742894 40:0.35601377 41:0.59553534 42:0.52028865 43:0.38597211 44:0.23947585 45:0.4716945 46:0.71499097 47:0.3845256 48:0.45247611 49:0.50727296 50:0.34890315 51:0.55096275 52:0.27515128 53:0.46595144 54:0.53144032 55:0.42841238 56:0.42379388 57:0.52440906 58:0.21893893 59:0.46754527 60:0.59225589 61:0.47900936 62:0.4873172 63:0.60197574 64:0.2652227 65:0.41194147 66:0.52661288 67:0.61935318 68:0.61929542 69:0.71234441 70:0.39959478 71:0.72729462 72:0.64437449 73:0.50959098 74:0.44336167 75:0.43347263 
0 0 0 0 0 0 0 0 0 0 0 0 0 0 0 0 0.927656274423595 0 0 0 0.4366544781009426 0 0 0 0 0 0 1:0.63558143 2:0.59630108 3:0.73919117 4:0.41897619 5:0.47742459 6:0.47459412 7:0.53357488 8:0.41789699 9:0.52030057 10:0.6785019 11:0.56280297 12:0.46751601 13:0.56477594 14:0.52272475 15:0.63833869 16:0.48453453 17:0.29709813 18:0.48285151 19:0.49784154 20:0.64751577 21:0.27958634 22:0.63492894 23:0.57110262 24:0.51793718 25:0.6312651 26:0.7268573 27:0.35228375 28:0.37108421 29:0.32219943 30:0.68112683 31:0.46680453 32:0.56093705 33:0.47204947 34:0.42506555 35:0.53994668 36:0.59370178 37:0.54509848 38:0.51581526 39:0.55064601 40:0.52060586 41:0.34767246 42:0.57187235 43:0.51000839 44:0.35093504 45:0.44841975 46:0.37333709 47:0.46723944 48:0.50303805 49:0.3903068 50:0.4297286 51:0.35924971 52:0.29361796 53:0.55293834 54:0.56814754 55:0.41473585 56:0.43249682 57:0.40090245 58:0.40283468 59:0.28941938 60:0.71726137 61:0.56353432 62:0.49830869 63:0.68117356 64:0.55625713 65:0.29097351 66:0.36403415 67:0.44197807 68:0.52791244 69:0.55161232 70:0.37423167 71:0.80889076 72:0.53537536 73:0.4889378 74:0.41082478 75:0.41808167 
0 0 0 0 0.05279684525178638 0 0 0 0 0 0.152406685741867 0 0 0 0 0 0 0 0 0 0 0.07197999199313058 0 0 0 0.06025224807644768 0 1:0.72348881 2:0.64293456 3:0.77082586 4:0.49954474 5:0.61840093 6:0.39989147 7:0.74902451 8:0.53174746 9:0.5049569 10:0.42791918 11:0.7448287 12:0.59223872 13:0.33256727 14:0.52705926 15:0.54321742 16:0.46762556 17:0.61752504 18:0.324361 19:0.42413697 20:0.46305656 21:0.45179999 22:0.40184984 23:0.74738675 24:0.6333679 25:0.394045 26:0.45456243 27:0.43837488 28:0.40086493 29:0.66099817 30:0.56391031 31:0.52278626 32:0.13844666 33:0.52428758 34:0.34869209 35:0.63308978 36:0.63129252 37:0.50182182 38:0.39680886 39:0.53468591 40:0.58733827 41:0.42156228 42:0.4599359 43:0.30959836 44:0.42679709 45:0.45834845 46:0.46200252 47:0.53501052 48:0.55140913 49:0.5163635 50:0.25795197 51:0.5869326 52:0.34285313 53:0.47461513 54:0.43278077 55:0.51271719 56:0.17314497 57:0.26431292 58:0.28852502 59:0.65071696 60:0.78994417 61:0.56683433 62:0.41390494 63:0.63543791 64:0.29913521 65:0.54696149 66:0.5215621 67:0.63141698 68:0.78597957 69:0.58896607 70:0.52031803 71:0.72705418 72:0.74952859 73:0.45628467 74:0.43597993 75:0.29292157 
0 0.6975195052817605 0.545091251160989 0 0 0.9724496495679733 0 0.2233133025895043 0 1.863812648395279 0 0 0 0.2078897237476387 0 0 0 0 0.5797281100207469 0 0 0 0 0 0 0 3.101495906961695 1:0.57526213 2:0.71584892 3:0.46416575 4:0.32550716 5:0.3968353 6:0.41287807 7:0.57273906 8:0.80929631 9:0.32275686 10:0.50677627 11:0.5556953 12:0.50507861 13:0.42833635 14:0.40899876 15:0.27609622 16:0.44974744 17:0.37119579 18:0.83677572 19:0.47764099 20:0.5470013 21:0.35088825 22:0.43682125 23:0.48456573 24:0.27345261 25:0.50898212 26:0.63329136 27:0.34950086 28:0.54829216 29:0.53215766 30:0.78524506 31:0.33103636 32:0.73505408 33:0.36823943 34:0.46604228 35:0.38983497 36:0.56929415 37:0.50712758 38:0.41747475 39:0.24322605 40:0.5341841 41:0.46206707 42:0.59002835 43:0.52446097 44:0.31525818 45:0.50070918 46:0.49557644 47:0.30971426 48:0.45840317 49:0.35680383 50:0.40200114 51:0.40630668 52:0.44340226 53:0.40387404 54:0.3504346 55:0.44380379 56:0.30847567 57:0.51494998 58:0.59438485 59:0.13954453 60:0.54142356 61:0.70294321 62:0.56884098 63:0.61536497 64:0.57602072 65:0.3461529 66:0.21809211 67:0.62323868 68:0.48909891 69:0.45323378 70:0.39071617 71:0.80327266 72:0.49518362 73:0.36953202 74:0.56380779 75:0.39504531 
0 0 0 0 0 0 0 0 0 0 0 0 0 0 0 0.1874661615608523 0 0 0 0 0 0 0 0 0 0.8574395435276277 0 1:0.68962985 2:0.6484105 3:0.63731998 4:0.49769932 5:0.79090285 6:0.64766115 7:0.58804113 8:0.63824421 9:0.2133991 10:0.22920781 11:0.38863382 12:0.48537377 13:0.60562265 14:0.51300734 15:0.70623583 16:0.55712008 17:0.46981829 18:0.47117767 19:0.40797222 20:0.47242978 21:0.35846174 22:0.47557011 23:0.53764343 24:0.607454 25:0.59537089 26:0.44659114 27:0.40615869 28:0.58322626 29:0.65934956 30:0.53123063 31:0.46679071 32:0.2574527 33:0.34830564 34:0.26611853 35:0.47687569 36:0.44279775 37:0.30703038 38:0.54822159 39:0.32980281 40:0.39373541 41:0.49923086 42:0.58963424 43:0.38007161 44:0.43868673 45:0.43367714 46:0.50615424 47:0.61675364 48:0.57110369 49:0.46737558 50:0.3358677 51:0.40764493 52:0.19914956 53:0.45887056 54:0.40050861 55:0.37470183 56:0.42488319 57:0.21599324 58:0.49730203 59:0.33981386 60:0.79947919 61:0.58772099 62:0.44561893 63:0.50365144 64:0.27449593 65:0.41007739 66:0.36713782 67:0.66289628 68:0.600205 69:0.49644479 70:0.30653512 71:0.55852002 72:0.70535022 73:0.15738343 74:0.61372 75:0.2425258 
0 0.5744051674853065 0.8702729011385529 0 0 0 0 0 0.9552656368860453 0.1875766391847432 0 0 0 0.7817782047004155 0 0 0 0 1.995044213506529 0 0.1500089260807655 0.2182870263887948 0 0 0 0.2831916204009313 0 1:0.39823925 2:0.63121033 3:0.25396335 4:0.52017283 5:0.45861813 6:0.51737535 7:0.59629858 8:0.44193685 9:0.31938657 10:0.2865639 11:0.43641061 12:0.49060291 13:0.35725725 14:0.41316053 15:0.51564026 16:0.70573646 17:0.48373336 18:0.60619563 19:0.40920871 20:0.65990341 21:0.49981335 22:0.07843253 23:0.2740922 24:0.45448571 25:0.63569427 26:0.53411496 27:0.39244613 28:0.58481318 29:0.48222312 30:0.64020443 31:0.54694426 32:0.58969575 33:0.17349362 34:0.54515398 35:0.40703455 36:0.52220613 37:0.37536448 38:0.51008254 39:0.36231598 40:0.46085796 41:0.55743033 42:0.50075543 43:0.56364679 44:0.45087767 45:0.48434845 46:0.4318448 47:0.44698754 48:0.55526501 49:0.53727579 50:0.33991006 51:0.37404677 52:0.25855893 53:0.40126339 54:0.50979656 55:0.38661274 56:0.55511349 57:0.16046286 58:0.63790619 59:0.46486643 60:0.79042459 61:0.56690347 62:0.52144647 63:0.63628817 64:0.28619897 65:0.32307243 66:0.37485445 67:0.76190889 68:0.54458535 69:0.48240513 70:0.41902751 71:0.57011819 72:0.6880852 73:0.11748017 74:0.6320982 75:0.20146258 
0.2439916213120489 0 0 0 0.3252315735356925 0 0 0 0 0 0 0 0 0.02536743621591788 0 0 0 0.6086003766292662 0 0 1.283681691888615 0 0 0 0 0 0 1:0.41274902 2:0.33960411 3:0.78068811 4:0.3828488 5:0.53646886 6:0.46793115 7:0.7901212 8:0.90347099 9:0.395677 10:0.35417011 11:0.29804334 12:0.49196056 13:0.26840553 14:0.3776179 15:0.37572297 16:0.43090814 17:0.33826452 18:0.78474432 19:0.66490299 20:0.6819399 21:0.50704145 22:0.48539123 23:0.52386767 24:0.53286088 25:0.78462827 26:0.29021236 27:0.54899001 28:0.47974458 29:0.47367561 30:0.8498283 31:0.53696924 32:0.51363379 33:0.50589007 34:0.52471173 35:0.32159275 36:0.33031261 37:0.85402638 38:0.51817685 39:0.49595782 40:0.53493232 41:0.69473898 42:0.55337399 43:0.34040409 44:0.43995228 45:0.34501299 46:0.82395774 47:0.24956398 48:0.39291573 49:0.60839492 50:0.46262819 51:0.53023988 52:0.326915 53:0.54257804 54:0.58150375 55:0.35381901 56:0.49060589 57:0.30255425 58:0.49651688 59:0.47094816 60:0.7518 61:0.47057584 62:0.54370475 63:0.63723034 64:0.4138141 65:0.38797134 66:0.49442551 67:0.60097128 68:0.81517625 69:0.53279024 70:0.50391841 71:0.76697373 72:0.71042329 73:0.45848367 74:0.38032743 75:0.40698504 
0 0 0 0 0.1372007024972811 0 0 0 0 0 0 0 0 0 0 0 0 1.530046930685023 0.03362198108124293 1.131725632043054 0 0 0 0 0 0 1.530419789756545 1:0.64076877 2:0.38543275 3:0.65321684 4:0.42289531 5:0.43024683 6:0.63874793 7:0.4879317 8:0.60595131 9:0.4659934 10:0.42748675 11:0.73160648 12:0.69359881 13:0.3764652 14:0.85038435 15:0.55264342 16:0.39855495 17:0.49330613 18:0.61054933 19:0.54766577 20:0.72559309 21:0.28838882 22:0.25646642 23:0.36358696 24:0.29642361 25:0.63678694 26:0.40685773 27:0.25650698 28:0.28132293 29:0.37235698 30:0.73868221 31:0.37608612 32:0.55469906 33:0.37976888 34:0.5841288 35:0.47993478 36:0.59362864 37:0.40425399 38:0.45614505 39:0.42079121 40:0.37585464 41:0.32082397 42:0.50385106 43:0.39820093 44:0.56754225 45:0.32981956 46:0.54617578 47:0.46120656 48:0.42084533 49:0.41590288 50:0.45458031 51:0.4115122 52:0.21877773 53:0.40289423 54:0.52277589 55:0.5356577 56:0.46793324 57:0.51426136 58:0.39014336 59:0.44025725 60:0.67071158 61:0.49312535 62:0.59226513 63:0.82111084 64:0.49175042 65:0.37811258 66:0.38942707 67:0.69543183 68:0.62935317 69:0.65449339 70:0.43787041 71:0.82937855 72:0.48997846 73:0.46805507 74:0.43301052 75:0.49560383 
0 0 0 0 0 0 0 0 0 0.281361215894218 1.001474043953594 0 0 0 0 0.1251687372046791 0 0 0 0 0 0 0 0 0 0.1734238597130589 0 1:0.33485228 2:0.51815933 3:0.71047449 4:0.36834574 5:0.46656027 6:0.46164405 7:0.54462081 8:0.46542141 9:0.25673437 10:0.42654547 11:0.60595226 12:0.71402788 13:0.32269335 14:0.73478973 15:0.6245091 16:0.4994944 17:0.28447688 18:0.51269829 19:0.50613272 20:0.62932557 21:0.35189617 22:0.47919226 23:0.60404587 24:0.50564188 25:0.52362156 26:0.50505692 27:0.56228924 28:0.41610464 29:0.4062604 30:0.6044383 31:0.40857419 32:0.69009376 33:0.2858597 34:0.44670406 35:0.33251086 36:0.5202986 37:0.51359254 38:0.37660801 39:0.54549569 40:0.44139877 41:0.35128734 42:0.40193444 43:0.49513757 44:0.45217764 45:0.50379121 46:0.44343495 47:0.31229287 48:0.4479425 49:0.6206947 50:0.33336404 51:0.53689528 52:0.17686795 53:0.52658123 54:0.46349156 55:0.54527652 56:0.40156692 57:0.34914947 58:0.48019066 59:0.37718344 60:0.71590787 61:0.66184217 62:0.61384833 63:0.48726571 64:0.50102478 65:0.46458039 66:0.35965079 67:0.64277232 68:0.59803206 69:0.56068659 70:0.36148161 71:0.71420151 72:0.62973773 73:0.48995656 74:0.43979689 75:0.34296048 
0 0 0 0 0 0 1.812608259890574 0.3989564546178334 0 0 0 2.003646115495017 0.9040134310422689 0 0 0.16661185196337 2.150242523403728 0 1.429059043126806 5.03261816670569 0 3.5608810657876 0 0 0 0 0 1:0.4270874 2:0.60590786 3:0.60800004 4:0.49199507 5:0.43711942 6:0.51806772 7:0.48358905 8:0.67032409 9:0.45002744 10:0.31940997 11:0.43474591 12:0.458556 13:0.37479016 14:0.75473875 15:0.5113281 16:0.55087954 17:0.48023069 18:0.43929482 19:0.65903485 20:0.41599673 21:0.2239209 22:0.32945034 23:0.53644001 24:0.52300477 25:0.51416969 26:0.26030403 27:0.4544813 28:0.41156593 29:0.57440633 30:0.48725149 31:0.43857116 32:0.5847404 33:0.36224303 34:0.46622655 35:0.34620374 36:0.4376556 37:0.4068507 38:0.35481641 39:0.36489093 40:0.25154835 41:0.56460911 42:0.50171131 43:0.43013802 44:0.36609086 45:0.40385783 46:0.50876397 47:0.45293626 48:0.52090347 49:0.4846448 50:0.40739954 51:0.29463339 52:0.26487324 53:0.37349576 54:0.52221161 55:0.34473166 56:0.32619557 57:0.37362617 58:0.51472777 59:0.3381331 60:0.59011728 61:0.6029529 62:0.60005778 63:0.65372694 64:0.49427569 65:0.35673511 66:0.34345311 67:0.64355528 68:0.57094795 69:0.52434713 70:0.38698974 71:0.64752841 72:0.41332456 73:0.45445627 74:0.52665627 75:0.41320339 
2.033678716936101 0 0 0.1109022773377682 0.5262104313116687 0 1.702277834618122 1.200141353598502 1.687355768434176 0 0 0.01192680574912895 0 0 1.914101031544675 0 0.5236595178565567 0.8014057343202122 0 1.498076140817626 1.126343850574967 0 1.699501125442335 0.8449066233602842 0 0 0 1:0.49186084 2:0.66682309 3:0.59564817 4:0.59253347 5:0.57663035 6:0.39394313 7:0.63344258 8:0.60947752 9:0.40276444 10:0.56002492 11:0.24489588 12:0.63135272 13:0.38289374 14:0.48050898 15:0.49866223 16:0.59011757 17:0.58225912 18:0.58424473 19:0.54450506 20:0.8398962 21:0.35429019 22:0.39233345 23:0.46281675 24:0.47548792 25:0.62128401 26:0.57740366 27:0.20067181 28:0.56611425 29:0.52696896 30:0.65018415 31:0.42703 32:0.28421634 33:0.30069327 34:0.52065736 35:0.55792838 36:0.5424915 37:0.39265275 38:0.35003138 39:0.49067315 40:0.41957617 41:0.30321896 42:0.47962099 43:0.48330379 44:0.42069554 45:0.33042118 46:0.3726778 47:0.3707892 48:0.58126259 49:0.48497269 50:0.3935822 51:0.34372255 52:0.22366007 53:0.45634201 54:0.6486702 55:0.39743543 56:0.41943756 57:0.29119927 58:0.38078877 59:0.49147052 60:0.82765657 61:0.47423685 62:0.57241821 63:0.61817139 64:0.50171614 65:0.27418587 66:0.32670346 67:0.66560513 68:0.6806041 69:0.67357194 70:0.45134452 71:0.64573759 72:0.59597594 73:0.32494736 74:0.53438449 75:0.35556999 
0.821739044042716 0 0.2780697051830765 0 0.7723300482238605 0.9203100916774031 0.1997741820989624 0 2.16339075091899 0.8261633231348383 0.7287343283830922 1.820881267241796 2.027862789432589 0.166424334315506 1.661123041922796 0 0 3.11478272092139 0 0 0.5641659361990768 0 0.9224996517611928 0.4051638217662018 0 0.3613140664272189 0 1:0.56052893 2:0.58179998 3:0.76725894 4:0.19715653 5:0.499129 6:0.37281686 7:0.44101951 8:0.29336071 9:0.38634327 10:0.15928726 11:0.17283221 12:0.70076996 13:0.3450695 14:0.53074396 15:0.62738764 16:0.21359444 17:0.436221 18:0.3832489 19:0.68540531 20:0.34722629 21:0.50693548 22:0.34425753 23:0.33078352 24:0.45074576 25:0.71813774 26:0.73874092 27:0.53208655 28:0.41842368 29:0.39909878 30:0.62000841 31:0.44966877 32:0.45160961 33:0.48358124 34:0.3615616 35:0.41746476 36:0.27909642 37:0.76428002 38:0.38848856 39:0.44328919 40:0.40553096 41:0.58198267 42:0.46390623 43:0.68847114 44:0.39966753 45:0.5158422 46:0.58282512 47:0.34039173 48:0.41851631 49:0.63133043 50:0.57057822 51:0.68934041 52:0.30862537 53:0.38923609 54:0.41004464 55:0.30168 56:0.48140424 57:0.5177415 58:0.48985523 59:0.18120605 60:0.66041732 61:0.55474573 62:0.63820553 63:0.5531956 64:0.41542855 65:0.4313145 66:0.25987619 67:0.59714001 68:0.52493334 69:0.54880953 70:0.38723341 71:0.75379425 72:0.67642266 73:0.32415992 74:0.51923448 75:0.39474499 
0 0.3043458109839592 0 0 0.1237446521840024 0 1.647633284160142 0 0.4458028754985561 0 0 0 0 0 0 0 0 0 0 0 0 0 0 0 0.03318935930132574 0.2106443857276431 0 1:0.94342995 2:0.51921415 3:0.71727431 4:0.35357061 5:0.5070194 6:0.56730098 7:0.53425741 8:0.62802356 9:0.84734553 10:0.41631767 11:0.74828345 12:0.37693006 13:0.44913113 14:0.71314937 15:0.45776173 16:0.29458088 17:0.65820843 18:0.44353926 19:0.62490928 20:0.41621763 21:0.33226016 22:0.21992657 23:0.34657392 24:0.25822511 25:0.69673413 26:0.73035032 27:0.69885415 28:0.32835445 29:0.52978879 30:0.7576167 31:0.64061916 32:0.74723697 33:0.43385777 34:0.58512306 35:0.23441322 36:0.61755288 37:0.55921745 38:0.76686907 39:0.37268555 40:0.55125016 41:0.38606712 42:0.6478318 43:0.35741073 44:0.47150165 45:0.40683678 46:0.34323856 47:0.39488351 48:0.39771393 49:0.73022646 50:0.308189 51:0.56130296 52:0.38309729 53:0.5686627 54:0.29585034 55:0.56750387 56:0.20935073 57:0.19414367 58:0.3878772 59:0.65657723 60:0.66953826 61:0.46112502 62:0.44595066 63:0.72580773 64:0.36223832 65:0.54733801 66:0.45215189 67:0.64650905 68:0.70278203 69:0.36686826 70:0.36941648 71:0.82391971 72:0.7468645 73:0.46866301 74:0.53751618 75:0.38519731 
