svm_type c_svc
kernel_type rbf
gamma 0.09
nr_class 3
total_sv 16
rho 0.166146 -0.218318 -0.521683
label 130280101 130280102 130280103
probA -2.18428 -2.03236 -2.22979
probB 0.0874681 0.139059 -0.0733399
nr_sv 3 6 7
SV
10 9.451094787149449 1:0.54493707 2:0.81045014 3:0.23864378 4:0.14939682 5:0.86159503 
3.51325272548469 0 1:0.45785469 2:0.93487632 3:4.2233259e-16 4:0.06065819 5:0.95812005 
7.141585516231229 5.096903577895265 1:0.50689745 2:0.082454927 3:0.69802219 4:0.034074105 5:0.90749049 
-5.427718405363417 0 1:0.62738574 2:0.87526709 3:0.94913727 4:0.58691406 5:0.70872939 
-0.9217726385930094 8.416842053418813 1:0.496658 2:0.9690873 3:1 4:0.53884387 5:0.614963 
-0.2130026131657013 0 1:0.43230617 2:0.21249561 3:0.54353774 4:0.93119669 5:0.61188954 
-0 8.698808242836753 1:0.76135921 2:0.27414644 3:0.26706669 4:0.92133945 5:0.47714531 
-4.092344584593787 0 1:0 2:0.62320089 3:0.49011406 4:0.96912956 5:0.6615169 
-10 3.225048204161306 1:1 2:0.72021371 3:0.30887285 4:0.60901964 5:0.56724972 
-0 -0.001173210867970568 1:0.49663755 2:0.52897906 3:0.47067359 4:0.26093948 5:9.6872347e-05 
-0 -0.3687897126627858 1:0.49663755 2:0.52897906 3:0.47067359 4:0.26093948 5:9.6872347e-05 
-0 -10 1:0.49663755 2:0.52897906 3:0.47067359 4:0.26093948 5:9.6872347e-05 
-0 -9.970735576886117 1:0.49663755 2:0.52897906 3:0.47067359 4:0.26093948 5:9.6872347e-05 
-10 -0 1:0.49436045 2:0.53649646 3:0.47690532 4:0.25678191 5:5.4338e-16 
-2.273291471731003 -0 1:0.49436045 2:0.53649646 3:0.47690532 4:0.25678191 5:5.4338e-16 
-2.274706893313712 -0 1:0.49436045 2:0.53649646 3:0.47690532 4:0.25678191 5:5.4338e-16 
