svm_type c_svc
kernel_type rbf
gamma 0.09
nr_class 2
total_sv 23
rho 0.0350419
label 130090101 130090102
probA -3.15586
probB 0.342668
nr_sv 13 10
SV
3.765934834635932 1:0.27727944 2:0.38297871 3:0.38536507 4:0.55854249 5:0.28487715 6:0.34435391 7:0.40321752 8:0.31412318 9:0.49491194 10:0.58863223 11:0 12:0.34457666 13:0.74697089 14:0 15:0.47478402 16:0.34419316 17:0.37568977 
7.228108468112576 1:0.3085914 2:0.40986663 3:0.78232199 4:0.25344369 5:0.20379041 6:0.92670768 7:0.41467357 8:0.0730832 9:0.40545273 10:0.69888598 11:0.58959019 12:0.61564201 13:0.24347711 14:0.44335088 15:0.82895231 16:0.54709548 17:0.11831264 
10 1:0.7084024 2:0.14409043 3:0.39787075 4:0.32487112 5:0.57909995 6:0.23313755 7:0.59154922 8:0.18265209 9:0.64471769 10:0.28318581 11:0.53808111 12:0.60914391 13:0.29858115 14:0.4655163 15:0.64473414 16:0.52606201 17:0.16074765 
1.437406623070923 1:0.53957123 2:0.9129833 3:0.58447665 4:0.51380736 5:0.083699442 6:0.66891903 7:0.6150009 8:0.45679229 9:0.97708446 10:0.51894397 11:0.79389489 12:0.6289984 13:0.51029909 14:0.47007939 15:0.3810713 16:0.88862193 17:0.47887421 
0.3069477947213032 1:0.64419895 2:0.2819899 3:0.133977 4:0 5:0.68414944 6:0.49319482 7:0.45634592 8:0.56591082 9:0.79391766 10:0.41369286 11:0.53394157 12:0.4314864 13:0.46922597 14:0.52829635 15:0.48785758 16:0.87984556 17:0.38653442 
10 1:0.37945822 2:0.48472896 3:0.70924705 4:0.082414202 5:0.3738049 6:0.35012478 7:0.2617847 8:0.55071682 9:0.61063248 10:1 11:0.61049139 12:0.56520551 13:0.54721254 14:0.4936007 15:0.56238246 16:1 17:0.40264276 
1.006501017803554 1:0.58150172 2:0.49575794 3:0.5210861 4:0.17399143 5:0.35372734 6:0.54249197 7:0.64868224 8:0.20914684 9:0.58606136 10:0.72215056 11:0.42446256 12:0.86175859 13:0.67231834 14:0.87889814 15:0.17593135 16:0.28220448 17:0.18988007 
7.269533655397098 1:0.5605647 2:0.35875919 3:0.52304322 4:0.32578123 5:0.33377668 6:0.37918353 7:0.33681825 8:0.1427846 9:0.62823999 10:0.56262863 11:0.87639314 12:0.72769094 13:0.96806324 14:0.049049992 15:0.49385843 16:0.18919411 17:0.43538642 
3.555407801910951 1:0.50200218 2:0.29199293 3:0.7491101 4:1 5:0.33450279 6:0.30895379 7:0.46738833 8:0.47649392 9:0.51614368 10:0.65706462 11:0.63024086 12:1 13:0.46345764 14:0.80437529 15:0.36058939 16:0.32523113 17:0.1341999 
8.499358639116524 1:0.53415281 2:0.63877153 3:0.51185459 4:0.47732058 5:0.36126843 6:0.3533971 7:0.42012277 8:0.40369821 9:0.53335601 10:0.59268337 11:0.7121591 12:0.13466741 13:0.30557469 14:0.87854373 15:0.47821492 16:0.11015084 17:0.3084071 
7.121402801757739 1:0.6967507 2:0.62360096 3:0.31207561 4:0.60174567 5:0.35372451 6:0.41127825 7:0.47072783 8:0.19265035 9:0 10:0.41686353 11:0.7141763 12:0.74543834 13:0.41939476 14:0.48913082 15:0.0050771851 16:0.91235065 17:0.82946438 
3.004785388220171 1:0.2675567 2:0.85025424 3:0.035307989 4:0.27319834 5:0.27026486 6:0.40896812 7:0.62141234 8:0.90326005 9:0.48465458 10:0.51476246 11:0.5620265 12:0.86143124 13:0.65130186 14:0.096867055 15:0.58672971 16:0.15875426 17:0 
10 1:0.46606427 2:0.45504662 3:0.26122501 4:0.30953035 5:0.16414063 6:0.50468183 7:0.70702761 8:0.74809849 9:0.39948586 10:0.62312347 11:0.71150225 12:0.85983384 13:0.42775825 14:0.32823804 15:0.62186646 16:0.21818736 17:0.012944019 
-10 1:0.77277124 2:0 3:0.32775387 4:0.27540645 5:0 6:0.74008793 7:0.72899443 8:0.52886641 9:0.38084444 10:0.6174165 11:0.49730888 12:0.56597733 13:0.7036975 14:0.3541196 15:0.64696175 16:0.20995077 17:0.42524844 
-8.701308149727101 1:0.65803158 2:1 3:0.95923358 4:0.33273435 5:0.66441786 6:0.64744836 7:1 8:0.52602941 9:0.27170721 10:0.68916059 11:0.65964741 12:0.44677007 13:0.53548902 14:0.14394705 15:0.76434046 16:0.17790644 17:0.32243642 
-10 1:0.42457116 2:0.65388149 3:0.29723379 4:0.56377649 5:0.2243154 6:0.18013163 7:0.63526756 8:0.047939532 9:0.40214333 10:0.75637352 11:0.65109038 12:0.75922769 13:0.4238773 14:0.50304079 15:0.950674 16:0.64618176 17:0.25549287 
-10 1:0.47218576 2:0.52016717 3:0.41154388 4:0.38947913 5:0.30856436 6:0.036865108 7:0.65389341 8:0.10566174 9:0.52004611 10:0.80461919 11:0.68059945 12:0.82659119 13:0.37314987 14:0.55531412 15:0.86888564 16:0.56412512 17:0.2712613 
-10 1:0.29931951 2:0.16506809 3:0.13595209 4:0.47296017 5:0.60510141 6:0.45139068 7:0.65174282 8:0.6857121 9:0.4909071 10:0.73778319 11:0.67767304 12:0.69804013 13:0.70178324 14:0.72108096 15:0.5422231 16:0.81656796 17:0.57244182 
-7.044397652157389 1:0.49783492 2:0.413452 3:0.76067674 4:0.080829866 5:0.42900866 6:6.0356079e-16 7:0.53373033 8:0.50385827 9:0.4611032 10:0.97222221 11:0.66715157 12:0.57260507 13:0.49605942 14:0.57028407 15:0.75717866 16:0.87178445 17:0.53763747 
-0.01464002626209619 1:0.55895007 2:0.5489648 3:0.49744597 4:0.36124474 5:0.3704448 6:0.59934396 7:0.39508307 8:0.42258772 9:0.5087564 10:0.32599929 11:0.54409659 12:0.75994605 13:0.73697519 14:0.9540019 15:1 16:0.30162263 17:0.66357028 
-6.697169344085719 1:0.54576921 2:0.51003844 3:0.39661875 4:0.36919072 5:0.44593772 6:0.54538578 7:0.46827722 8:0.20266405 9:0.63953257 10:0.83430475 11:0.54908198 12:0.80990529 13:0 14:0.42911658 15:0.54450202 16:0.082065612 17:0.82025003 
-6.608148357729121 1:0.2804538 2:0.16819292 3:0.78648013 4:0.35818708 5:0.14676681 6:0.37070465 7:0.74766856 8:0.7417835 9:0.71990049 10:0.21671771 11:0.46952164 12:0.65002424 13:0.24148667 14:0.17584111 15:0.276218 16:8.6763623e-16 17:1 
-4.129723494785349 1:0.55895007 2:0.5489648 3:0.49744597 4:0.36124474 5:0.3704448 6:0.59934396 7:0.39508307 8:0.42258772 9:0.5087564 10:0.32599929 11:0.54409659 12:0.75994605 13:0.73697519 14:0.9540019 15:1 16:0.30162263 17:0.66357028 
