svm_type c_svc
kernel_type rbf
gamma 0.09
nr_class 2
total_sv 8
rho -0.846518
label 130200101 130200102
probA -3.4527
probB 0.021649
nr_sv 6 2
SV
3.941615257615083 1:0.78320104 2:0.19355066 3:0.28085485 4:1 5:1 6:0.50958228 7:0.42702323 8:0.7276268 9:0.77720869 10:0.77571571 
2.363055005557224 1:0.53421646 2:0.65298748 3:0.79538578 4:0.82210833 5:0.051277604 6:0.17857757 7:0.62265861 8:0.76831383 9:0.97688234 10:0.7683633 
4.634570579995242 1:0.43757337 2:0.68923938 3:0.078733303 4:0.20309217 5:0.25590903 6:0.28891042 7:0.23543109 8:0.14882395 9:0.87280685 10:0.74525493 
4.67910765320031 1:0.39563686 2:0.41990694 3:0.53901303 4:0.58285868 5:0.042111617 6:0.30903059 7:0.16498567 8:0.14393526 9:0.77663475 10:0.75973034 
0.2861392242616753 1:0.2745387 2:1.4569157e-16 3:0.56076002 4:0.49075139 5:0.53360808 6:0.14113927 7:0.30161017 8:0.24609788 9:1 10:0.81162298 
3.370652997745553 1:0.5492003 2:0.71457207 3:0.29059562 4:0.72851568 5:0.02474774 6:0.44950432 7:1 8:0.12731305 9:0.67907578 10:0.75668889 
-9.720215290773755 1:0.43617636 2:0.51488173 3:0.42393765 4:0.59736824 5:0.35504356 6:0.38937607 7:0.4657729 8:0.35191658 9:0.76968485 10:1.452606e-15 
-9.554925427601329 1:0.43617636 2:0.51488173 3:0.42393765 4:0.59736824 5:0.35504356 6:0.38937607 7:0.4657729 8:0.35191658 9:0.76968485 10:1.452606e-15 
