svm_type c_svc
kernel_type rbf
gamma 0.09
nr_class 2
total_sv 5
rho 0.00324551
label 130300101 130300103
probA -2.9148
probB 0.0590031
nr_sv 3 2
SV
1.328256503937894 1:2.8702214e-16 2:0.62930763 3:0.92163765 
9.939590617694018 1:2.8702214e-16 2:0.62930763 3:0.92163765 
8.064937706391479 1:1 2:1 3:0.94934785 
-9.833155218892113 1:0.38200149 2:0.84115928 3:1.5975227e-16 
-9.499629609131278 1:0.74953151 2:0 3:0.52086365 
