svm_type c_svc
kernel_type rbf
gamma 0.09
nr_class 27
total_sv 757
rho -0.121049 0.0344283 -0.304491 -0.147962 -0.282789 -0.164816 -0.298277 0.23996 0.525347 0.51365 0.50677 0.390066 0.40763 0.034869 -0.269856 0.0454657 -0.144747 -0.152506 -0.0356642 -0.117931 0.184652 0.47609 -0.145181 0.15334 -0.379091 -0.187098 0.157015 -0.0162062 -0.139922 -0.144488 -0.0821661 -0.138584 0.325082 0.55866 0.488406 0.39654 0.444189 0.439172 0.222238 -0.351727 0.149468 0.039245 0.0144149 0.112887 0.0486899 0.215815 0.520441 0.146512 0.258466 -0.189499 -0.0589162 0.0751954 -0.163403 -0.196368 -0.18051 -0.211409 0.397947 0.647355 0.5237 0.441495 0.513673 0.498495 0.240182 -0.158976 -0.0184587 0.0018438 -0.133466 0.128036 -0.0469245 0.395979 0.462452 -0.0631247 0.16503 -0.233197 -0.0437493 -0.137007 -0.0686553 -0.0240834 -0.163497 0.333377 0.518415 0.543337 0.414362 0.430219 0.387907 0.269216 -0.0787519 0.0693089 0.0989319 -0.0756661 0.026487 0.124986 0.297324 0.57357 -0.0178066 0.181682 -0.12159 -0.0424607 -0.105966 0.229018 -0.140022 0.332842 0.616731 0.614991 0.677834 0.676107 0.578552 0.190468 -0.162942 0.12672 0.0153513 0.0114618 0.239089 0.13174 0.258516 0.90193 0.0901055 0.361637 -0.18461 -0.0956814 0.139639 -0.133254 0.229886 0.447826 0.658528 0.516443 0.491967 0.376596 0.19367 -0.202162 0.217693 0.116823 -0.0321439 0.38288 0.118953 0.417505 0.996639 0.0891678 0.540999 -0.121904 -0.0597603 -0.0853874 0.345539 0.537088 0.560662 0.495796 0.417573 0.280358 0.193575 -0.17657 0.175456 0.0311174 0.0285533 0.0994619 0.102251 0.410592 0.533613 0.0930437 0.313014 -0.165558 -0.041582 0.302795 0.666884 0.592528 0.617919 0.552168 0.591485 0.266236 -0.126773 0.181579 0.224282 0.0602753 0.263714 0.226302 0.505628 0.556661 0.146546 0.420233 0.145685 0.0397363 0.0123292 0.127364 -0.00926437 0.225941 0.0841183 -0.145507 -0.417677 -0.183083 -0.370814 -0.402046 -0.371965 -0.372814 -0.0549069 0.0589438 -0.429895 -0.231588 -0.325321 -0.359065 -0.0818034 -0.0748143 -0.0384482 0.0343222 -0.501679 -0.6177 -0.62405 -0.517382 -0.595937 -0.54018 -0.455077 -0.235538 -0.235792 -0.647467 -0.431508 -0.605276 -0.673423 0.438737 0.0169116 -0.0533927 -0.28291 -0.642697 -0.442887 -0.426282 -0.462465 -0.4615 -0.464291 -0.132465 -0.154577 -0.42971 -0.259502 -0.80465 -0.542294 0.135535 0.0365341 -0.28779 -0.588092 -0.347322 -0.335807 -0.44293 -0.367948 -0.270162 -0.137945 -0.0947925 -0.406948 -0.181942 -0.667764 -0.497955 0.198318 -0.169014 -0.493411 -0.314803 -0.341909 -0.424813 -0.506171 -0.344864 -0.194079 -0.30959 -0.354574 -0.244188 -0.811876 -0.479332 -0.211297 -0.470206 -0.333829 -0.309661 -0.381104 -0.292148 -0.263145 -0.0712641 -0.0696444 -0.394028 -0.243409 -0.645968 -0.5557 -0.318517 -0.0814837 -0.189591 -0.29781 -0.0437831 -0.129612 0.206598 0.204158 -0.229269 0.0344404 -0.349922 -0.29417 0.279849 0.153593 0.158101 0.0792062 0.175782 0.454631 0.824274 0.117713 0.475586 0.0695089 0.127044 -0.0638801 -0.151633 -0.0234964 -0.0575592 0.250477 0.370065 -0.117595 0.224554 -0.244848 -0.186734 -0.102481 0.000340482 -0.096815 0.25492 0.435998 0.0293824 0.235627 -0.183862 -0.0842191 0.0741468 0.102185 0.395996 0.378085 -0.0404387 0.332481 -0.124342 -0.0346738 0.0235708 0.229481 0.427406 -0.00205682 0.0913286 -0.353518 -0.100209 0.308544 0.39186 0.0049021 0.27546 -0.263257 -0.161486 0.13257 -0.299872 -0.12672 -0.64918 -0.378965 -0.457565 -0.416813 -0.90791 -0.81883 0.336801 -0.159712 -0.0891757 -0.567091 -0.478767 0.0536254
label 20631 20632 2063657 2063658 2081 2081657 2082 2082657 2083 2083657 2084 2084657 2085 2085657 20911 20912 2091657 2092 2092657 21101 21102 21103 2110657 2110658 2110659 38 38657
probA -4.17414 -4.0427 -4.24885 -4.27528 -4.18732 -4.25597 -4.25892 -4.32468 -4.1828 -4.24201 -4.27525 -4.31781 -4.30171 -4.09771 -3.65457 -4.19299 -4.05849 -4.28126 -4.05224 -4.2367 -4.18652 -3.95165 -4.19984 -4.17151 -4.33137 -4.26574 -4.27055 -4.24111 -4.16241 -4.29074 -4.29381 -4.27303 -4.20329 -4.29613 -4.28503 -4.31336 -4.28903 -4.20785 -4.12912 -3.58844 -4.14116 -4.19748 -4.20104 -4.02963 -4.31974 -4.19461 -4.03417 -4.30933 -4.24636 -4.28002 -4.40788 -4.25532 -4.16257 -4.29457 -4.17635 -4.21341 -4.16115 -4.24742 -4.25763 -4.26816 -4.28812 -4.28793 -4.06556 -3.58767 -4.2028 -4.23047 -4.22963 -4.02556 -4.17109 -4.1622 -3.9656 -4.25509 -4.33018 -4.35079 -4.38985 -4.38068 -4.255 -4.28189 -4.27476 -4.23479 -4.23825 -4.29432 -4.2569 -4.20798 -4.26963 -4.09813 -3.62716 -4.15972 -4.16845 -4.22875 -4.03245 -4.29941 -4.22337 -4.01447 -4.34402 -4.29841 -4.3622 -4.26218 -4.22524 -4.23343 -4.2505 -4.28827 -4.27651 -4.30327 -4.21069 -4.32182 -4.22399 -4.13537 -3.65448 -4.17514 -4.22555 -4.30834 -3.9295 -4.27744 -4.33581 -4.02002 -4.35811 -4.35914 -4.25245 -4.40706 -4.21373 -4.21049 -4.31303 -4.34914 -4.37092 -4.28154 -4.28873 -4.33557 -4.08076 -3.66515 -4.18993 -4.20925 -4.25092 -4.00292 -4.32269 -4.38027 -3.8897 -4.3442 -4.35597 -4.3511 -4.34 -4.32108 -4.26665 -4.32887 -4.20568 -4.28764 -4.25147 -4.29705 -4.14151 -3.68378 -4.18006 -4.26945 -4.21094 -4.09034 -4.25571 -4.33832 -3.97897 -4.32665 -4.35587 -4.24241 -4.22111 -4.29653 -4.20017 -4.33673 -4.22867 -4.32474 -4.23944 -4.15211 -3.60741 -4.20543 -4.21656 -4.25908 -4.03567 -4.2841 -4.33254 -4.07521 -4.33263 -4.34962 -4.27106 -4.28329 -3.90954 -4.29959 -4.31959 -4.32562 -4.31132 -4.09753 -3.6402 -4.14393 -4.23231 -4.21336 -3.97662 -4.32709 -4.1592 -3.8354 -4.23952 -4.24746 -4.31227 -4.29105 -4.35202 -4.18936 -4.32631 -4.21383 -4.0471 -3.64212 -4.14133 -4.19067 -4.19972 -3.97367 -4.19689 -4.11681 -3.87311 -4.32674 -4.12613 -4.22545 -4.35564 -4.19762 -4.29657 -4.32264 -4.12538 -3.69136 -4.20808 -4.24831 -4.30254 -4.09345 -4.31435 -4.22886 -4.07994 -4.20554 -4.33005 -4.36786 -4.4206 -4.26567 -4.3392 -4.1235 -3.65665 -4.19909 -4.27713 -4.29974 -4.04237 -4.25847 -4.30193 -4.04259 -4.32525 -4.30365 -4.42992 -4.40039 -2.37528 -4.12864 -3.73418 -4.2373 -4.25023 -4.23964 -4.02358 -4.33374 -4.32895 -4.05416 -4.34035 -4.30435 -4.34578 -4.35198 -4.19077 -3.7275 -4.24055 -4.26759 -4.26467 -4.05101 -4.2912 -4.38056 -3.98569 -4.38725 -4.30667 -4.29471 -4.39453 -3.25705 -4.07503 -3.99777 -4.07909 -3.90746 -4.14939 -4.18956 -3.72689 -4.12766 -4.09806 -4.20781 -4.20198 -3.53527 -3.61855 -3.60836 -3.44851 -3.70686 -3.63895 -3.35505 -3.65553 -3.70067 -3.77466 -3.71798 -4.11868 -4.13341 -3.82048 -4.21406 -4.1603 -3.76772 -4.24551 -4.24451 -4.27116 -4.28004 -4.18007 -3.95807 -4.2065 -4.21066 -3.94243 -4.22656 -4.26781 -4.36214 -4.34969 -4.01511 -4.25781 -4.23392 -4.024 -4.18018 -4.24447 -4.24105 -4.35765 -3.9117 -3.73986 -3.69154 -4.06298 -4.02346 -4.03261 -4.12634 -4.28709 -3.99358 -4.31482 -4.3342 -4.38581 -4.36608 -3.99029 -4.30541 -4.34561 -4.39463 -4.37519 -3.88529 -3.95205 -4.0647 -4.05474 -4.32796 -4.39051 -4.43445 -4.39069 -4.41703 -4.42457
probB 0.0821667 -0.0281669 -0.0147581 0.0367156 -0.0256393 0.0435198 0.041933 -0.0105744 -0.0249305 0.0150013 -0.0143403 0.0351812 0.0413278 -0.17337 -0.647158 -0.0391212 -0.0529054 -0.0618148 -0.280757 0.0278602 0.143086 -0.163561 0.0100311 0.14932 0.166741 0.207482 -0.0519614 -0.0106006 0.145699 0.0725118 0.0533027 0.0563166 -0.026541 0.165374 0.0225461 0.0730792 0.0800463 0.110074 -0.0993961 -0.538135 -0.114311 -0.0768366 -0.0708749 -0.174871 0.0027965 0.0834287 -0.166536 0.00909784 0.0721584 0.0871878 0.133394 0.0634229 -0.0132042 0.0154667 0.0126872 0.070598 0.0643199 0.0705294 0.0096869 0.0257252 0.0225308 0.0436399 -0.166531 -0.626453 -0.120166 -0.0947176 -0.128444 -0.237119 0.0720634 0.0465213 -0.143223 -0.0236511 -0.0257191 0.132675 0.134779 0.0754545 0.0247783 0.0708309 0.0375726 0.0649153 0.0844794 0.0684201 0.0270174 0.108565 0.118503 -0.176628 -0.576761 -0.0716603 -0.0469402 -0.0297052 -0.141478 0.0351111 0.0991555 -0.203974 0.0152664 0.0818521 0.0815796 0.104779 -0.0274817 -0.106726 -0.145188 -0.0192871 0.062952 -0.0461307 0.0609506 0.0264393 0.0839452 -0.222762 -0.670542 -0.207774 -0.165487 -0.181698 -0.181565 -0.0740428 0.0487555 -0.24174 -0.0698636 -0.0597674 0.0478766 0.0165719 -0.0256161 -0.148713 0.00057519 0.0561101 -0.0177119 -0.0405349 0.0855375 0.0179787 -0.206793 -0.644571 -0.208481 -0.202941 -0.102457 -0.332077 -0.0628904 -0.0372669 -0.196797 -0.0118785 0.026907 0.0249341 0.04018 -0.0447979 0.00742074 0.0394624 0.0389816 0.0962891 0.0750141 0.0891307 -0.119635 -0.533105 -0.0556683 -0.11699 -0.0355926 -0.235947 0.00249697 0.041644 -0.200132 0.0302734 -0.031723 0.0955787 -0.123692 0.0178955 0.0721843 0.00757127 0.0237971 0.0618265 0.0198881 -0.0695555 -0.57379 -0.0272901 -0.049899 -0.131509 -0.269477 0.00394423 -0.00244285 -0.223592 -0.00951359 0.0118843 0.0278655 0.107914 0.35576 0.022444 0.0509914 0.00550633 0.0305753 -0.136603 -0.642298 -0.178481 -0.0962054 -0.0576823 -0.223143 0.00209318 -0.0712581 -0.2704 -0.00018304 0.0229667 0.132271 0.0364213 -0.123657 -0.0166583 -0.0429711 -0.0688197 -0.182321 -0.616444 -0.143775 -0.108873 -0.166809 -0.277684 -0.0609169 -0.217441 -0.239505 -0.0597391 0.0257229 -0.0828529 -0.0468432 -0.0177163 -0.025312 0.00594719 -0.198915 -0.672839 -0.132141 -0.0678671 -0.0745977 -0.21828 -0.0704197 -0.0500946 -0.138398 -0.0484817 -0.00300132 0.0488437 0.107395 -0.0359929 -0.0105987 -0.183939 -0.616528 -0.148535 -0.110497 -0.0623411 -0.213665 -0.0233091 -0.0114042 -0.213313 -0.0632482 -0.0481288 0.0606374 0.0693671 0.0920193 -0.179705 -0.617698 -0.119794 -0.0925717 -0.109836 -0.254202 -0.0256359 0.0117087 -0.301674 -0.0461407 -0.0629916 -0.00054651 0.0569643 -0.130045 -0.625172 -0.100654 -0.118457 -0.123156 -0.319299 -0.0818044 -0.00332196 -0.341811 -0.00661746 -0.0146357 -0.010113 0.0289045 -0.659047 0.0295257 0.0766494 -0.00839087 -0.12464 0.0964899 0.131052 0.059703 0.111233 0.18902 0.274467 0.211981 0.434536 0.583095 0.549707 0.40375 0.55855 0.680265 0.386785 0.578783 0.605293 0.741845 0.726847 0.0141969 0.0508477 -0.0745308 0.107749 0.10897 -0.0731052 0.074267 0.151806 0.158164 0.158917 -0.0299371 -0.0991254 0.130356 0.0223366 -0.0243647 0.104373 0.0475103 0.200176 0.177173 -0.19342 0.101631 0.0559372 -0.0602136 0.108834 0.0631382 0.175248 0.192114 0.251998 -0.0591354 -0.0590942 0.225639 0.223637 0.279308 0.341629 0.048315 -0.212585 0.0121663 0.0199376 0.126486 0.021713 -0.181138 -0.0266172 -0.0564651 0.0406174 0.109805 0.141166 0.156802 0.178707 0.279775 0.0258682 0.0742557 0.132028 0.0742901 0.0863392 -0.00222119
nr_sv 37 11 40 15 35 27 35 30 36 30 15 11 19 20 33 17 43 26 26 34 13 30 49 19 41 31 34
SV
0 0 0 0 0 0 0 0 0 0 0 0 0 0 1.672750445401915e-06 0 0 0 0 0 0 0 0 0 0 0 1:0.55226946 2:0.70336848 3:0.46982688 4:0.56476283 5:0.51533747 6:0.57675999 7:0.60529768 8:0.57920939 9:0.73813134 10:0.54724884 11:0.64670289 12:0.5059104 13:0.50574768 14:0.6564514 15:0.47600853 16:0.44192952 17:0.59858686 18:0.3897647 19:0.47039995 20:0.55805969 21:0.41811982 22:0.73642927 23:0.58306295 24:0.44853702 25:0.65269214 26:0.46947026 27:0.30640531 28:0.61588484 29:0.48938504 30:0.48348409 31:0.50937861 32:0.44447824 33:0.43365285 34:0.81570244 35:0.64442182 36:0.59244156 37:0.89679718 38:0.38351896 39:0.64654416 40:0.55617994 41:0.32457262 42:0.54514956 43:0.33731407 44:0.59487301 45:0.44092438 46:0.53724462 47:0.70933712 48:0.27904475 
0 0 0 0 0 0 0 0 0 0 0 0 0 0 0 0 0 0 0 0 0 0.0002155580148331973 0 0 0 0 1:0.4914231 2:0.50511098 3:0.39296398 4:0.728154 5:0.29651329 6:0.60592353 7:0.50232923 8:0.51172006 9:0.62423247 10:0.50237036 11:0.25159055 12:0.47441277 13:0.34264743 14:0.24094883 15:0.23861797 16:0.26781601 17:0.4504728 18:0.47678515 19:0.59250987 20:0.48822427 21:0.60413498 22:0.36391097 23:0.67038363 24:0.42637917 25:0.8683871 26:0.61860043 27:0.38720036 28:0.68557614 29:0.62086052 30:0.2887688 31:0.37221709 32:0.41211012 33:0.49280313 34:0.68188834 35:0.43535769 36:0.50511557 37:0.86631709 38:0.30214369 39:0.52801281 40:0.62813276 41:0.45362845 42:0.78467363 43:0.43310997 44:0.45493892 45:0.31708843 46:0.50158781 47:0.53623229 48:0.18282945 
0 0 0 0 0 0 0 0 0 0 0 0 0 0 5.309343956518815e-07 0 0 0 0 0 0 0 0 0 0 0 1:0.61618459 2:0.53277344 3:0.57582438 4:0.66138214 5:0.33034089 6:0.52152038 7:0.7800864 8:0.5391736 9:0.58851469 10:0.56057853 11:0.56476068 12:0.38329419 13:0.28627533 14:0.38644046 15:0.21280168 16:0.39464054 17:0.39849839 18:0.46256405 19:0.58764279 20:0.4967024 21:0.22469155 22:0.44048601 23:0.64229751 24:0.44430491 25:0.72297013 26:0.3772029 27:0.30659318 28:0.62579167 29:0.4137263 30:0.44337574 31:0.57840008 32:0.42405561 33:0.45648366 34:0.7026937 35:0.22096784 36:0.45038158 37:0.70983595 38:0.52581042 39:0.55574286 40:0.74467117 41:0.45823297 42:0.83250457 43:0.36835063 44:0.54366833 45:0.42485347 46:0.46365252 47:0.57266521 48:0.21771643 
0 6.89527306589932e-06 0 0 0 0 0 0 0 0 0 0 0 0 0 0 0 0 0 0 0 8.356292004182823e-05 0 0 0 0 1:0.63498384 2:0.47301897 3:0.64495748 4:0.77466005 5:0.61586374 6:0.40055096 7:0.5040136 8:0.41695133 9:0.67857265 10:0.46075261 11:0.70899248 12:0.64289278 13:0.65732896 14:0.3280713 15:0.54636014 16:0.42143697 17:0.4547056 18:0.3923434 19:0.3658064 20:0.18093064 21:0.54482108 22:0.90684116 23:0.55830163 24:0.87466878 25:0.53149855 26:0.34940252 27:6.2547465e-16 28:0.88854939 29:0.6823864 30:0.65814096 31:0.29671103 32:0.24534622 33:0.45936024 34:0.73067927 35:0.63210791 36:0.65442789 37:0.63850534 38:0.60823941 39:0.52126962 40:0.49826008 41:0.45065871 42:0.45872781 43:0.29851115 44:0.41395855 45:0.2156589 46:0.49404573 47:0.82166111 48:0.38154444 
0 0 0 0 0 0 0 0 0 0 0 0 0 0 0 2.457570485040576e-07 0 0 0 0 0 7.087476132171217e-05 0 0 0 0 1:0.69600916 2:0.49889871 3:0.7282899 4:0.48254406 5:0.053736296 6:0.37831673 7:0.28404534 8:0.46587831 9:0.60362852 10:0.32090273 11:0.52001137 12:0.19491847 13:0.5869447 14:0.21082851 15:0.23430261 16:0.77988565 17:0.44135156 18:0.55208993 19:0.43169221 20:0.19380887 21:0.62534893 22:0 23:0.52866226 24:0.63605875 25:0.43913218 26:0.68908006 27:0.29417849 28:0.72323918 29:0.730084 30:0.44546914 31:0.24123701 32:0.19319296 33:0.38590816 34:0.7638911 35:0.76191664 36:0.48924616 37:0.68411958 38:0.55445039 39:0.6535449 40:0.77808332 41:0.44995528 42:0.53106934 43:0.35368639 44:0.41170996 45:0.1882197 46:0.44101158 47:0.63958538 48:0.32016718 
0 0 0 0 0 0 0 0 0 0 0 0 0 0 1.018430334867366e-06 0 0 0 0 0 0 0 0 0 0 0 1:0.48945174 2:0.69804543 3:0.54816175 4:0.62597007 5:0.63014901 6:0.50468153 7:0.50471377 8:0.56178379 9:0.68908703 10:0.40066403 11:0.29262149 12:0.48634222 13:0.57882977 14:0.33093384 15:0.60948551 16:0.43045434 17:0.48781601 18:0.46555513 19:0.33305433 20:0.49012995 21:0.77285576 22:0.47132728 23:0.71921515 24:0.32143435 25:0.63833284 26:0.29952955 27:0.26569492 28:0.66703606 29:0.53612715 30:0.38063058 31:0.37663922 32:0.4002918 33:0.44852409 34:0.77273536 35:0.5185492 36:0.57066524 37:0.9056983 38:0.44631922 39:0.51323992 40:0.55433738 41:0.4283236 42:0.53567141 43:0.28873909 44:0.43428171 45:0.2382078 46:0.57632542 47:0.67719388 48:0.27927789 
0 0 0 0 0 0.0002190168310048119 0 0 0 0 0 0 0 0 0 0 0 0 0 0 0 0 0 0 0 0 1:0.46674517 2:0.71419239 3:0.43379804 4:0.79091197 5:0.37706658 6:0.77455151 7:0.49482542 8:0.67778575 9:0.61784822 10:0.74072468 11:0.46197873 12:0.45607868 13:0.43026721 14:0.34263039 15:0.39716038 16:0.48453814 17:0.35675544 18:0.63497448 19:0.58231395 20:0.54744405 21:0.65427691 22:0.27132687 23:0.60462612 24:0.32401904 25:0.80013931 26:0.51046652 27:0.38769355 28:0.62300807 29:0.54027259 30:0.34157741 31:0.35031188 32:0.403622 33:0.40961605 34:0.70659 35:0.48856825 36:0.4666678 37:0.88235086 38:0.34282786 39:0.60551643 40:0.55300474 41:0.43730673 42:0.73232853 43:0.33094308 44:0.50149423 45:0.2676273 46:0.4971571 47:0.57908702 48:0.198447 
0 2.478554433064945e-05 0 0 0 6.550338907029539e-05 0 0 0 0 0 0 0 0 0 0.0004877541268196474 0 0 0 0 0 1.634165403592812e-05 0 0 0 0 1:0.58908528 2:0.42350373 3:0.42837268 4:0.59067786 5:0.62201107 6:0.29795897 7:0.52546 8:0.36117285 9:0.82608289 10:0.48920709 11:0.50130481 12:0.50618005 13:0.51098186 14:0.4882198 15:0.58527076 16:0.26664588 17:0.57143176 18:0.33057663 19:0.19340782 20:0.42044988 21:0.37397751 22:0.64877027 23:0.63157421 24:0.45665109 25:0.48803574 26:0.24007693 27:0.12876984 28:0.37897566 29:0.46254033 30:0.41902599 31:0.5991832 32:0.2693702 33:0.37286341 34:0.77252162 35:0.57489729 36:0.72393155 37:0.77065349 38:0.54680085 39:0.55844271 40:0.56223273 41:0.39650536 42:0.51818621 43:0.27627373 44:0.49121249 45:0.43297184 46:0.447063 47:0.65682554 48:0.30967855 
0 6.144661761496679e-06 0 0 0 7.082310868589642e-05 0 0 0 0 0 0 0 0 0 0.0003985269104090272 0 0 0 0 0 0 0 0 0 0 1:0.44439819 2:0.53234845 3:0.74880463 4:0.64906889 5:0.37064061 6:0.18257102 7:0.23805141 8:0.25997475 9:0.68765891 10:0.42349386 11:0.40875289 12:0.20635687 13:0.34093362 14:0.38754907 15:0.29378378 16:0.51447028 17:0.73508161 18:0.21793522 19:0.33775538 20:0.2998071 21:0.53726882 22:0.883488 23:0.52246618 24:0.78174961 25:0.47149882 26:0.32253549 27:0.11013184 28:0.79152107 29:0.77478635 30:0.49638706 31:0.37238097 32:0.33370447 33:0.60315281 34:0.92361277 35:0.5916006 36:0.65218288 37:0.62848741 38:0.55441093 39:0.45350266 40:0.53909689 41:0.50967568 42:0.51367378 43:0.26694536 44:0.46554348 45:0.3518582 46:0.5656563 47:0.84206003 48:0.29949585 
0 0 0 0 0 0 0 0 0 0 0 0 0 0 0 0.001026060247216128 0 0 0 0 0 0 0 0 0 0 1:0.43318945 2:0.31444657 3:0.41645712 4:0.64397722 5:0.38533244 6:0.52678138 7:0.48571345 8:0.51805389 9:0.66767687 10:0.58987182 11:0.67773134 12:0.39266914 13:0.62515169 14:0.33419466 15:0.38633153 16:0.77431822 17:0.47268042 18:0.46574235 19:0.41402987 20:0.30316302 21:0.71981561 22:0.43722484 23:0.69542831 24:0.45161846 25:0.68935817 26:0.47922453 27:0.30144334 28:0.81756103 29:0.61864674 30:0.50942415 31:0.34152249 32:0.27373049 33:0.39497387 34:0.79241389 35:0.62662643 36:0.63407695 37:0.89595741 38:0.37521365 39:0.53430545 40:0.47715387 41:0.32319382 42:0.52270675 43:0.39802602 44:0.3951776 45:0.12680911 46:0.56834227 47:0.62191778 48:0.34540132 
0 0 0 0 7.864825295840248e-07 0 0 0 0 0 0 0 0 0 0 0.0004582786261488072 0 0 0 0 0 0.0005666232769276141 0 0 4.27487364477564e-06 0 1:0.55226946 2:0.70336848 3:0.46982688 4:0.56476283 5:0.51533747 6:0.57675999 7:0.60529768 8:0.57920939 9:0.73813134 10:0.54724884 11:0.64670289 12:0.5059104 13:0.50574768 14:0.6564514 15:0.47600853 16:0.44192952 17:0.59858686 18:0.3897647 19:0.47039995 20:0.55805969 21:0.41811982 22:0.73642927 23:0.58306295 24:0.44853702 25:0.65269214 26:0.46947026 27:0.30640531 28:0.61588484 29:0.48938504 30:0.48348409 31:0.50937861 32:0.44447824 33:0.43365285 34:0.81570244 35:0.64442182 36:0.59244156 37:0.89679718 38:0.38351896 39:0.64654416 40:0.55617994 41:0.32457262 42:0.54514956 43:0.33731407 44:0.59487301 45:0.44092438 46:0.53724462 47:0.70933712 48:0.27904475 
0 0 0 0 0 5.319987975691767e-06 0 0 0 0 0 0 0 0 0 0 0 0 0 0 0 0 0 0 0 0 1:0.56002808 2:0.63492346 3:0.34866899 4:0.76378459 5:0.33272737 6:0.61164641 7:0.72981763 8:0.85462385 9:0.66882229 10:0.51873296 11:0.6687386 12:0.42901984 13:0.44254902 14:0.60003173 15:0.76272231 16:0.1341504 17:0.44300166 18:0.63944101 19:0.59847385 20:0.53956658 21:0.71651798 22:0.55185628 23:0.83418578 24:0.65354776 25:0.64594597 26:0.49371454 27:0.23023784 28:0.73662728 29:0.53702497 30:0.38256228 31:0.3683742 32:0.46212724 33:0.32189259 34:0.89298201 35:0.44642374 36:0.53859043 37:0.95695305 38:0.41180816 39:0.70532811 40:0.49132538 41:0.42448896 42:0.51272833 43:0.17414255 44:0.49333814 45:0.31580573 46:0.45630401 47:0.66512024 48:0.23350912 
0 0 0 0 7.149688064923929e-07 1.745313911362537e-05 2.116482461633834e-05 0 0 0 0 0 0 0 0 0.0002856550377051326 0 0 0 0 0 0 0 0 0 0 1:0.60956091 2:0.612046 3:0.2990686 4:0.36817139 5:0.64128453 6:0.30072963 7:0.65441167 8:0.62698865 9:0.70093441 10:0.60882682 11:0.53387082 12:0.21042536 13:0.49571919 14:0.74700749 15:0.60038954 16:0 17:0.4491652 18:0.45550647 19:0.58164507 20:0.44795951 21:0.46962878 22:0.58501691 23:0.76068699 24:0.43767336 25:0.59302163 26:0.37774557 27:0.12193052 28:0.58005059 29:0.41633597 30:0.52745408 31:0.54193425 32:0.41349599 33:0.46466199 34:0.83969396 35:0.36788222 36:0.58146387 37:0.82445157 38:0.4220407 39:0.51965964 40:0.61649084 41:0.44071773 42:0.58901846 43:0.26941839 44:0.5426963 45:0.40618891 46:0.42440906 47:0.64828563 48:0.30844498 
0 1.762347566026865 0 0 1.416463697112392 0 0 0 0 0.7497829413622753 1.614082349247897 2.831464935801772 0 1.088352458435446 0 0 0 0 2.533152932340462 0 0 3.010783390159451 0 0 0 0 1:0.4914231 2:0.50511098 3:0.39296398 4:0.728154 5:0.29651329 6:0.60592353 7:0.50232923 8:0.51172006 9:0.62423247 10:0.50237036 11:0.25159055 12:0.47441277 13:0.34264743 14:0.24094883 15:0.23861797 16:0.26781601 17:0.4504728 18:0.47678515 19:0.59250987 20:0.48822427 21:0.60413498 22:0.36391097 23:0.67038363 24:0.42637917 25:0.8683871 26:0.61860043 27:0.38720036 28:0.68557614 29:0.62086052 30:0.2887688 31:0.37221709 32:0.41211012 33:0.49280313 34:0.68188834 35:0.43535769 36:0.50511557 37:0.86631709 38:0.30214369 39:0.52801281 40:0.62813276 41:0.45362845 42:0.78467363 43:0.43310997 44:0.45493892 45:0.31708843 46:0.50158781 47:0.53623229 48:0.18282945 
2.303946898918121 6.815240019441598 1.092129344892898 0.5364819047117142 1.154539733921374 3.670165485572918 4.463349537209225 0.1814316584853345 2.203007800786027 2.248165216586605 6.141949743146472 0 1.820221795960796 0.09576578961412362 0.8897588896477761 2.355471628635688 1.443801894600996 2.778276448428784 3.640428575745044 3.218583242352013 4.96808845782899 0.006058413430808029 2.576227195352562 4.502487871826943 4.063642150121381 3.656660259575427 1:0.61618459 2:0.53277344 3:0.57582438 4:0.66138214 5:0.33034089 6:0.52152038 7:0.7800864 8:0.5391736 9:0.58851469 10:0.56057853 11:0.56476068 12:0.38329419 13:0.28627533 14:0.38644046 15:0.21280168 16:0.39464054 17:0.39849839 18:0.46256405 19:0.58764279 20:0.4967024 21:0.22469155 22:0.44048601 23:0.64229751 24:0.44430491 25:0.72297013 26:0.3772029 27:0.30659318 28:0.62579167 29:0.4137263 30:0.44337574 31:0.57840008 32:0.42405561 33:0.45648366 34:0.7026937 35:0.22096784 36:0.45038158 37:0.70983595 38:0.52581042 39:0.55574286 40:0.74467117 41:0.45823297 42:0.83250457 43:0.36835063 44:0.54366833 45:0.42485347 46:0.46365252 47:0.57266521 48:0.21771643 
0 0 0.9015242461854143 0 2.593054696105644 0 0 0 0 0 0 0 0 0 0 0 0 0 0 0.0001506274635702918 0 0 0 0 0 0 1:0.62188417 2:0.45441636 3:0.59174168 4:0.51843995 5:0.6818127 6:0.63330847 7:0.60404325 8:0.49787232 9:0.7175262 10:0.60818237 11:0.63757026 12:0.63235867 13:0.48331237 14:0.3589949 15:0.40692937 16:0.33149022 17:0.67169434 18:0.19443367 19:0.32766721 20:0.57491034 21:0.49138129 22:0.60453969 23:0.6191557 24:0.40263408 25:0.4699358 26:0.36825001 27:0.19563103 28:0.47495878 29:0.60142195 30:0.38766128 31:0.53267354 32:0.4299596 33:0.47928315 34:0.88473046 35:0.63650388 36:0.55417442 37:0.8677814 38:0.47429004 39:0.58403355 40:0.62168509 41:0.44874552 42:0.52944243 43:0.24852292 44:0.49623379 45:0.37396795 46:0.49275389 47:0.69458026 48:0.32145843 
0 0 0 0 0 0 0 0 0.7254648133678848 0 0 0 0 0 0 0 0 0 0 1.15077183150669 0 0 0 0 0 0 1:0.75155711 2:0.32341549 3:0.34773028 4:0.60887814 5:0.58611912 6:0.43381971 7:0.58217847 8:0.43098143 9:0.67370778 10:0.56276244 11:0.63855034 12:0.52548641 13:0.53730464 14:0.36786842 15:0.29467055 16:0.14091173 17:0.69492912 18:0.11191316 19:0.45873886 20:0.59221947 21:0.41249847 22:0.68061781 23:0.72132391 24:0.44932511 25:0.63822621 26:0.3657954 27:0.052587926 28:0.66040701 29:0.55982983 30:0.40372694 31:0.56211042 32:0.45748729 33:0.5381465 34:0.75745553 35:0.60193115 36:0.48424423 37:0.90871286 38:0.55602401 39:0.57198006 40:0.57551163 41:0.38407785 42:0.52546906 43:0.37079689 44:0.53200591 45:0.32547313 46:0.48058933 47:0.61610746 48:0.35036686 
1.606849136961229 2.117877523940132 0 0 0 0.7543088136447614 3.268124327661601 0 1.253572751724985 0.2612525941508292 0 2.828874900877426 1.047073608202578 1.796762126072365 0 2.950516089774956 0 0 0 0.382999667505927 0.84736534486111 0 3.542588647559313 1.311745889965437 1.323964468290402 1.118518107361028 1:0.52685326 2:0.56000859 3:0.64748824 4:0.59348822 5:0.6653282 6:0.63719368 7:0.71519452 8:0.64540732 9:0.74648774 10:0.53179699 11:0.58315033 12:0.75991696 13:0.52557945 14:0.4393799 15:0.57420534 16:0.3024264 17:0.56601965 18:0.1755178 19:0.27760249 20:0.52809829 21:0.60761428 22:0.43955159 23:0.78584528 24:0.3431271 25:0.44949421 26:0.44914082 27:0.31785718 28:0.62674731 29:0.60031521 30:0.38480321 31:0.5475499 32:0.40292311 33:0.57733035 34:0.82245988 35:0.19483353 36:0.32655749 37:0.90662766 38:0.49000397 39:0.63031542 40:0.61557961 41:0.27429202 42:0.54190296 43:0.28340209 44:0.43421 45:0.47393444 46:0.52355093 47:0.62981433 48:0.37618393 
0 0 0 0 0 0 0 0 0 0 0 0 0 1.685803088365953 0 0 0 0 1.312550674808003 0 0 0 0 0 0 0 1:0.3537775 2:0.80225062 3:0.69574416 4:0.33848968 5:0.54276818 6:0.68640637 7:0.50428843 8:0.46203163 9:0.64769703 10:0.50569475 11:0.38776636 12:0.55846083 13:0.66780889 14:0.34648275 15:0.4375779 16:0.5526793 17:0.71966344 18:0.27756661 19:0.32081935 20:0.6090551 21:0.6357559 22:0.5610835 23:0.64497697 24:0.3912189 25:0.65778041 26:0.58044893 27:0.31627604 28:0.78794158 29:0.71930051 30:0.41797864 31:0.37606749 32:0.47419977 33:0.53682286 34:0.86334532 35:0.47473729 36:0.46896708 37:0.95950645 38:0.32642189 39:0.59143275 40:0.51975626 41:0.30314392 42:0.54525769 43:0.3618412 44:0.42080674 45:0.32687318 46:0.57337517 47:0.64771199 48:0.32992515 
0 1.484292067418418 0 0 0 0 0 0 0 0 0 0 0 0 0 0 0 2.229759792631593 0 0 0 0 0 0 0 0 1:0.51314545 2:0.7705605 3:0.475274 4:0.60596877 5:0.6794607 6:0.51447821 7:0.70010573 8:0.66771644 9:0.77838534 10:0.49825099 11:0.59142697 12:0.53463441 13:0.53293192 14:0.39609355 15:0.47496241 16:0.2373448 17:0.68928522 18:0.22345139 19:0.26252797 20:0.43841594 21:0.43159631 22:0.59825385 23:0.63209683 24:0.49339214 25:0.31983882 26:0.46605551 27:0.13803844 28:0.57260388 29:0.55188113 30:0.42962134 31:0.59309661 32:0.30444941 33:0.54348803 34:0.8434158 35:0.42267594 36:0.41489357 37:0.93413746 38:0.56351697 39:0.64650077 40:0.70246595 41:0.39210203 42:0.51701671 43:0.27119723 44:0.51449353 45:0.4175685 46:0.52598649 47:0.61494714 48:0.42712104 
0 1.260637943770377 1.449029976072732 0 1.471317854522854 0 1.20480890850641 1.6501248817518 2.414070156157612 1.628049808480994 1.124674338620781 0.8183839853838986 0.5137702774700516 1.81093423604677 0 0.4775723760050851 1.825598703208429 2.218600814264075 1.968126060365149 0.1066302973134774 2.710233555721392 0.03861367039997076 1.728761460994595 0 1.733689735389345 1.681594613466486 1:0.63498384 2:0.47301897 3:0.64495748 4:0.77466005 5:0.61586374 6:0.40055096 7:0.5040136 8:0.41695133 9:0.67857265 10:0.46075261 11:0.70899248 12:0.64289278 13:0.65732896 14:0.3280713 15:0.54636014 16:0.42143697 17:0.4547056 18:0.3923434 19:0.3658064 20:0.18093064 21:0.54482108 22:0.90684116 23:0.55830163 24:0.87466878 25:0.53149855 26:0.34940252 27:6.2547465e-16 28:0.88854939 29:0.6823864 30:0.65814096 31:0.29671103 32:0.24534622 33:0.45936024 34:0.73067927 35:0.63210791 36:0.65442789 37:0.63850534 38:0.60823941 39:0.52126962 40:0.49826008 41:0.45065871 42:0.45872781 43:0.29851115 44:0.41395855 45:0.2156589 46:0.49404573 47:0.82166111 48:0.38154444 
0.6675770737563671 0.06265231431779281 2.769273952140023 1.584990795769332 0.7686337635496673 1.039327818422074 0.9584736955084778 1.974050273051753 1.617714618913433 0.6066375174255881 0 0.968822073566 2.30270034919134 0.6488544806396047 0.8655970452268967 0.4549634019327426 1.777684734906255 0.8190556759140737 0.03831950257327338 0.7491819318275466 1.301479510251093 1.952789636650477 1.277123120855976 1.894262350568846 1.810507023383186 1.760255505929205 1:0.69600916 2:0.49889871 3:0.7282899 4:0.48254406 5:0.053736296 6:0.37831673 7:0.28404534 8:0.46587831 9:0.60362852 10:0.32090273 11:0.52001137 12:0.19491847 13:0.5869447 14:0.21082851 15:0.23430261 16:0.77988565 17:0.44135156 18:0.55208993 19:0.43169221 20:0.19380887 21:0.62534893 22:0 23:0.52866226 24:0.63605875 25:0.43913218 26:0.68908006 27:0.29417849 28:0.72323918 29:0.730084 30:0.44546914 31:0.24123701 32:0.19319296 33:0.38590816 34:0.7638911 35:0.76191664 36:0.48924616 37:0.68411958 38:0.55445039 39:0.6535449 40:0.77808332 41:0.44995528 42:0.53106934 43:0.35368639 44:0.41170996 45:0.1882197 46:0.44101158 47:0.63958538 48:0.32016718 
0 0 0 0 0 0 0 0.70281385667862 0 0 0 0 0 0 0 0 0 0 0 0 0 0 0.7104276596396486 0 0 0 1:0.74560106 2:0.61378831 3:0.59318358 4:0.69396281 5:0.56969804 6:0.51088578 7:0.57790262 8:0.56099302 9:0.71241814 10:0.55044925 11:0.68563867 12:0.615511 13:0.5664441 14:0.30337638 15:0.3839584 16:0.56395906 17:0.58609515 18:0.21412623 19:0.24995936 20:0.42612511 21:0.3830328 22:0.52979028 23:0.53887188 24:0.36612365 25:0.50728029 26:0.33085147 27:0.1386485 28:0.56406331 29:0.57837087 30:0.35498303 31:0.61062813 32:0.3347061 33:0.48154718 34:0.6687665 35:0.65212357 36:0.5593614 37:0.86408365 38:0.49058494 39:0.63564235 40:0.62574172 41:0.35734826 42:0.51704741 43:0.28114772 44:0.45255032 45:0.36932006 46:0.52381575 47:0.67505085 48:0.38935032 
0 1.605413871086857 0 0 0 0.3760853745282138 0 0.02744067908058727 0 1.835865324610325 1.041013759609857 0 0.102540832821257 0.8641986466870147 1.129372922464512 0 1.089550067715292 0.6944573460657272 0.3518995591331133 0 0 0 0 0 0 2.737825337782161 1:0.48945174 2:0.69804543 3:0.54816175 4:0.62597007 5:0.63014901 6:0.50468153 7:0.50471377 8:0.56178379 9:0.68908703 10:0.40066403 11:0.29262149 12:0.48634222 13:0.57882977 14:0.33093384 15:0.60948551 16:0.43045434 17:0.48781601 18:0.46555513 19:0.33305433 20:0.49012995 21:0.77285576 22:0.47132728 23:0.71921515 24:0.32143435 25:0.63833284 26:0.29952955 27:0.26569492 28:0.66703606 29:0.53612715 30:0.38063058 31:0.37663922 32:0.4002918 33:0.44852409 34:0.77273536 35:0.5185492 36:0.57066524 37:0.9056983 38:0.44631922 39:0.51323992 40:0.55433738 41:0.4283236 42:0.53567141 43:0.28873909 44:0.43428171 45:0.2382078 46:0.57632542 47:0.67719388 48:0.27927789 
0.2841995364267008 0 1.051287982456114 3.872100707198726 0.4048830167687449 1.26934139969833 0.759929591434892 0.9157733421507682 0 1.563435952022555 0 0 0.5522679420068451 0.4555154502628739 3.698530514065547 0 1.989927171675333 0.9133270654805989 0 1.617425407659304 2.455512580696808 0 0.8590157565399532 0.1388139079464376 0.4381294875710004 0 1:0.46674517 2:0.71419239 3:0.43379804 4:0.79091197 5:0.37706658 6:0.77455151 7:0.49482542 8:0.67778575 9:0.61784822 10:0.74072468 11:0.46197873 12:0.45607868 13:0.43026721 14:0.34263039 15:0.39716038 16:0.48453814 17:0.35675544 18:0.63497448 19:0.58231395 20:0.54744405 21:0.65427691 22:0.27132687 23:0.60462612 24:0.32401904 25:0.80013931 26:0.51046652 27:0.38769355 28:0.62300807 29:0.54027259 30:0.34157741 31:0.35031188 32:0.403622 33:0.40961605 34:0.70659 35:0.48856825 36:0.4666678 37:0.88235086 38:0.34282786 39:0.60551643 40:0.55300474 41:0.43730673 42:0.73232853 43:0.33094308 44:0.50149423 45:0.2676273 46:0.4971571 47:0.57908702 48:0.198447 
4.040969010641947 1.171125516526592 3.898679781121772 3.115839230937891 2.676032007773318 3.425734874517182 0.267515218750693 2.558041296535709 2.909143826804247 4.093624123842527 3.878254321713739 0.05704416028794809 1.547539292122254 0 0 1.743707869020364 0.7802348903002971 0 0 2.177902825976491 2.880261510139433 1.517540481496848 0.1398684961469821 3.068977790530996 3.398007330211922 4.567763390610045 1:0.58908528 2:0.42350373 3:0.42837268 4:0.59067786 5:0.62201107 6:0.29795897 7:0.52546 8:0.36117285 9:0.82608289 10:0.48920709 11:0.50130481 12:0.50618005 13:0.51098186 14:0.4882198 15:0.58527076 16:0.26664588 17:0.57143176 18:0.33057663 19:0.19340782 20:0.42044988 21:0.37397751 22:0.64877027 23:0.63157421 24:0.45665109 25:0.48803574 26:0.24007693 27:0.12876984 28:0.37897566 29:0.46254033 30:0.41902599 31:0.5991832 32:0.2693702 33:0.37286341 34:0.77252162 35:0.57489729 36:0.72393155 37:0.77065349 38:0.54680085 39:0.55844271 40:0.56223273 41:0.39650536 42:0.51818621 43:0.27627373 44:0.49121249 45:0.43297184 46:0.447063 47:0.65682554 48:0.30967855 
1.402199245097176 0.6113981666762575 0 0 0.7394355495648699 0 0 2.347231074311525 0 0.5418908987929164 0.1906198572769819 0.58318062513541 0 0 0 0 1.179959126049981 0.200920233834763 0 1.419626269660376 0 2.693258079782845 1.235974213610733 0 0.04110434155553398 0 1:0.59308344 2:0.54216921 3:0.59439951 4:0.58581865 5:0.62764215 6:0.36315721 7:0.39336357 8:0.44371068 9:0.67491519 10:0.32852894 11:0.6506418 12:0.33748576 13:0.41185126 14:0.40629035 15:0.1658619 16:0.53254396 17:0.62237501 18:0.13836968 19:0.11798566 20:0.34541523 21:0.43939117 22:0.7244215 23:0.49587768 24:0.39815399 25:0.47289494 26:0.27562213 27:0.22454695 28:0.68153548 29:0.63993508 30:0.39879546 31:0.47885069 32:0.39838046 33:0.66383576 34:0.71204585 35:0.64003193 36:0.63413316 37:0.78538215 38:0.59914273 39:0.60490584 40:0.68168044 41:0.42484221 42:0.56134862 43:0.30517703 44:0.50939369 45:0.35835397 46:0.51007241 47:0.73201889 48:0.33093306 
0 0.4657230708499953 0 0 0.5842087688165305 1.426175489815846 0.4988239655858416 0 0.5033197127983636 0 0 0 0 0.8407863777395593 0 0.3289463165762403 0 0 0.7865942180976868 0 0 0.1426756744869858 0 0.4224730305728251 0 0 1:0.44439819 2:0.53234845 3:0.74880463 4:0.64906889 5:0.37064061 6:0.18257102 7:0.23805141 8:0.25997475 9:0.68765891 10:0.42349386 11:0.40875289 12:0.20635687 13:0.34093362 14:0.38754907 15:0.29378378 16:0.51447028 17:0.73508161 18:0.21793522 19:0.33775538 20:0.2998071 21:0.53726882 22:0.883488 23:0.52246618 24:0.78174961 25:0.47149882 26:0.32253549 27:0.11013184 28:0.79152107 29:0.77478635 30:0.49638706 31:0.37238097 32:0.33370447 33:0.60315281 34:0.92361277 35:0.5916006 36:0.65218288 37:0.62848741 38:0.55441093 39:0.45350266 40:0.53909689 41:0.50967568 42:0.51367378 43:0.26694536 44:0.46554348 45:0.3518582 46:0.5656563 47:0.84206003 48:0.29949585 
0 0 0 0 0 0 0 0.5072653885882776 0 1.134350350549136 1.062540013623895 0 0 0 0 1.866488578164663 0 0 0 0 0 0 0 0 0 0 1:0.43318945 2:0.31444657 3:0.41645712 4:0.64397722 5:0.38533244 6:0.52678138 7:0.48571345 8:0.51805389 9:0.66767687 10:0.58987182 11:0.67773134 12:0.39266914 13:0.62515169 14:0.33419466 15:0.38633153 16:0.77431822 17:0.47268042 18:0.46574235 19:0.41402987 20:0.30316302 21:0.71981561 22:0.43722484 23:0.69542831 24:0.45161846 25:0.68935817 26:0.47922453 27:0.30144334 28:0.81756103 29:0.61864674 30:0.50942415 31:0.34152249 32:0.27373049 33:0.39497387 34:0.79241389 35:0.62662643 36:0.63407695 37:0.89595741 38:0.37521365 39:0.53430545 40:0.47715387 41:0.32319382 42:0.52270675 43:0.39802602 44:0.3951776 45:0.12680911 46:0.56834227 47:0.62191778 48:0.34540132 
0 0 0 0 0 0 0 0 0 0 0 1.413431883180094 0 1.077841910133156 1.294371619075172 0 0 0.08998560686240899 0 0 0 0 0 0 0 0 1:0.70767856 2:0.41685277 3:0.34525356 4:0.58344829 5:0.4985843 6:0.36419109 7:0.55294186 8:0.27285159 9:0.78989184 10:0.60751122 11:0.65895993 12:0.43397042 13:0.49954963 14:0.42868531 15:0.42075238 16:0.50791132 17:0.61828393 18:0.44019794 19:0.41876304 20:0.56563187 21:0.40637371 22:0.65016693 23:0.655173 24:0.4008421 25:0.62595832 26:0.39781293 27:0.22337362 28:0.58806038 29:0.50583971 30:0.51957095 31:0.64531422 32:0.48599657 33:0.46819177 34:0.82231021 35:0.53408003 36:0.68619734 37:0.93492037 38:0.35787696 39:0.61761498 40:0.56632334 41:0.42200288 42:0.62928551 43:0.42605209 44:0.52293384 45:0.3667334 46:0.52136272 47:0.63432556 48:0.29598901 
0 0 0 0 0 0 0 0 0 0 0 0 0 0 2.506927996108827 0 0 0 0 0 0 0 0 0 0 0 1:0.56768245 2:0.79941237 3:0.35390088 4:0.3696022 5:0.50273919 6:0.61036354 7:0.71479064 8:0.6090064 9:0.67022699 10:0.43437973 11:0.61056733 12:0.36969 13:0.55320609 14:0.55651575 15:0.45034957 16:0.43881926 17:0.60603863 18:0.3438445 19:0.50254118 20:0.61623889 21:0.46653771 22:0.57661992 23:0.74635202 24:0.48235014 25:0.63412684 26:0.43289128 27:0.24890997 28:0.74209356 29:0.50821179 30:0.51177359 31:0.60338223 32:0.41826469 33:0.47585732 34:0.85933554 35:0.41614413 36:0.54430479 37:0.97229576 38:0.32958531 39:0.64288616 40:0.61858082 41:0.30912864 42:0.59778732 43:0.30044574 44:0.53262633 45:0.45422927 46:0.46816111 47:0.73108244 48:0.34167239 
0 0 0 4.030842497309379 1.251415683664199 0 0 0 2.585471365930162 0 0.3893546320371394 0.1116158592090159 2.905988963694065 0 0.1242007107691955 1.0537700941082 1.830316732839704 0.5213041664977491 0 0 0 6.23893760154202 0.1510203669077165 2.980950749801932 0.4588230864391226 0 1:0.55226946 2:0.70336848 3:0.46982688 4:0.56476283 5:0.51533747 6:0.57675999 7:0.60529768 8:0.57920939 9:0.73813134 10:0.54724884 11:0.64670289 12:0.5059104 13:0.50574768 14:0.6564514 15:0.47600853 16:0.44192952 17:0.59858686 18:0.3897647 19:0.47039995 20:0.55805969 21:0.41811982 22:0.73642927 23:0.58306295 24:0.44853702 25:0.65269214 26:0.46947026 27:0.30640531 28:0.61588484 29:0.48938504 30:0.48348409 31:0.50937861 32:0.44447824 33:0.43365285 34:0.81570244 35:0.64442182 36:0.59244156 37:0.89679718 38:0.38351896 39:0.64654416 40:0.55617994 41:0.32457262 42:0.54514956 43:0.33731407 44:0.59487301 45:0.44092438 46:0.53724462 47:0.70933712 48:0.27904475 
2.60135697669305 0 0 0 0 0.05659996745029481 0 0.452926536244752 0 0 0 0 0.2648927504307527 0 0 0 0 0 0.4768316003760317 0 0 1.063402036219115 0 0 0 0 1:0.48657647 2:0.73343307 3:0.37167105 4:0.73206836 5:0.47978285 6:0.51671487 7:0.63767195 8:0.66200799 9:0.67073971 10:0.48886278 11:0.60248262 12:0.52269995 13:0.60645992 14:0.73347682 15:0.49838448 16:0.27579597 17:0.49309844 18:0.44837034 19:0.4436546 20:0.50084186 21:0.67063981 22:0.56029773 23:0.72214335 24:0.69231129 25:0.63750476 26:0.48992971 27:0.30159393 28:0.75530982 29:0.6067518 30:0.42738438 31:0.33881292 32:0.51882893 33:0.40633389 34:0.86049783 35:0.57655096 36:0.52972418 37:0.9448536 38:0.44010201 39:0.67431748 40:0.49572417 41:0.38220879 42:0.47882375 43:0.22321728 44:0.4884589 45:0.36999068 46:0.5145117 47:0.69132662 48:0.22956024 
0 0 0 0.3972910170115888 1.661823323025969 0 0 0 0 0 0.6306876260059785 1.133234393956291 0.7758901166535959 0 0.1638631416564656 0.02361876348123819 0 0 0 0 0 0 0 0 0 0 1:0.5343985 2:0.33301431 3:0.30647466 4:0.54038358 5:0.33184084 6:0.16321458 7:0.4529812 8:0.67213988 9:0.62440372 10:0.64437556 11:0.71278131 12:0.18275364 13:0.30650455 14:0.64266384 15:0.51081192 16:0.50270611 17:0.66433531 18:0.45363593 19:0.52810007 20:0.52452403 21:0.64450765 22:0.7241267 23:0.57126677 24:0.46565843 25:0.67935705 26:0.33884618 27:0.0960631 28:0.78293842 29:0.57580507 30:0.60465854 31:0.52157933 32:0.37182298 33:0.56804615 34:0.86430705 35:0.62807953 36:0.60865515 37:0.75651437 38:0.27462578 39:0.55585295 40:0.59787244 41:0.42140484 42:0.58827591 43:0.38825479 44:0.52817965 45:0.26241323 46:0.47715905 47:0.69107985 48:0.26512653 
0 0 0 0 0 0.1287310663664533 0 0 0 0 0 0 0 0 0 0 0 0 0 0 0 0 0 0 0 0 1:0.56002808 2:0.63492346 3:0.34866899 4:0.76378459 5:0.33272737 6:0.61164641 7:0.72981763 8:0.85462385 9:0.66882229 10:0.51873296 11:0.6687386 12:0.42901984 13:0.44254902 14:0.60003173 15:0.76272231 16:0.1341504 17:0.44300166 18:0.63944101 19:0.59847385 20:0.53956658 21:0.71651798 22:0.55185628 23:0.83418578 24:0.65354776 25:0.64594597 26:0.49371454 27:0.23023784 28:0.73662728 29:0.53702497 30:0.38256228 31:0.3683742 32:0.46212724 33:0.32189259 34:0.89298201 35:0.44642374 36:0.53859043 37:0.95695305 38:0.41180816 39:0.70532811 40:0.49132538 41:0.42448896 42:0.51272833 43:0.17414255 44:0.49333814 45:0.31580573 46:0.45630401 47:0.66512024 48:0.23350912 
0 0.2499814500420039 0.7135577623222371 0 0.6328638803684935 0.07872328839647182 1.060512863102866 0.3194108366464897 0.6022704886376724 0 0.6053552904081736 1.42677412860988 0.4164319889455065 2.743588110577463 1.151080360906746 0.688701679361862 0 0 0.3116376154661579 0.0538212750220407 0 0 0 0 0.6623812234322708 0 1:0.60956091 2:0.612046 3:0.2990686 4:0.36817139 5:0.64128453 6:0.30072963 7:0.65441167 8:0.62698865 9:0.70093441 10:0.60882682 11:0.53387082 12:0.21042536 13:0.49571919 14:0.74700749 15:0.60038954 16:0 17:0.4491652 18:0.45550647 19:0.58164507 20:0.44795951 21:0.46962878 22:0.58501691 23:0.76068699 24:0.43767336 25:0.59302163 26:0.37774557 27:0.12193052 28:0.58005059 29:0.41633597 30:0.52745408 31:0.54193425 32:0.41349599 33:0.46466199 34:0.83969396 35:0.36788222 36:0.58146387 37:0.82445157 38:0.4220407 39:0.51965964 40:0.61649084 41:0.44071773 42:0.58901846 43:0.26941839 44:0.5426963 45:0.40618891 46:0.42440906 47:0.64828563 48:0.30844498 
0 0 0 0 0 0 0.1755666924317594 0 0 0 0 0 0 0 0 0.1996004693097373 0 0 0 0 0 0.5172036299764018 0 0.1749791345113032 0 0 1:0.47537974 2:0.70347571 3:0.27181777 4:0.75924075 5:0.21310215 6:0.21031974 7:0.39920169 8:0.49866265 9:0.7227031 10:0.54154468 11:0.47454593 12:0.30359635 13:0.56440562 14:0.47771981 15:0.37006298 16:0.46764651 17:0.53596115 18:0.56333828 19:0.40000826 20:0.33798239 21:0.73330158 22:0.64995718 23:0.54779172 24:0.62463951 25:0.70723331 26:0.41905826 27:0.21062514 28:0.64174896 29:0.50771993 30:0.50923014 31:0.35154331 32:0.29602382 33:0.42534834 34:0.79540873 35:0.74126399 36:0.71982491 37:0.87240213 38:0.38012365 39:0.59590644 40:0.47187689 41:0.4149774 42:0.58766973 43:0.29036087 44:0.50408745 45:0.25513095 46:0.48418698 47:0.69876313 48:0.24525364 
-0 0 0 0 0 0 0 0 0 0 0 0 0 0 0 0 0 0 0 0 0 4.008238546296193e-05 0 0 0 0 1:0.68917358 2:0.64794821 3:0.75371915 4:0.72592431 5:0.3454974 6:0.58510113 7:0.85415691 8:0.43218666 9:0.80527633 10:0.402291 11:0.44420442 12:0.40837026 13:0.52848244 14:0.61572939 15:0.52855778 16:0.51593882 17:0.37623054 18:0.36552534 19:0.39940295 20:0.22358511 21:0.54373419 22:0.4716689 23:0.53250086 24:0.5682776 25:0.36575168 26:0.1222458 27:0.5866214 28:0.27753198 29:0.38765046 30:0.62428337 31:0.60791415 32:0.92166042 33:0.76186991 34:0.4494926 35:0.48573789 36:0.59542298 37:0.60800254 38:0.66756099 39:0.78238738 40:0.7489925 41:0.36319792 42:0.51573664 43:0.32577294 44:0.48064649 45:0.4860101 46:0.4993563 47:0.47717115 48:0.38607964 
-0 0 0 0 0 0 0 0 0 0 0 0 0 0 0 0 0 0 1.112058605711198e-06 0 0 3.510727242543207e-05 0 0 0 0 1:0.4909912 2:0.44444451 3:0.46621308 4:0.73772037 5:0.43492007 6:0.50406331 7:0.56704086 8:0.56246358 9:0.7963748 10:0.37177661 11:0.5912925 12:0.52699864 13:0.59755284 14:0.61949593 15:0.54257226 16:0.63243645 17:0.42816177 18:0.39804053 19:0.34238493 20:0.30738497 21:0.59152824 22:0.46925542 23:0.58921176 24:0.57376909 25:0.42236242 26:0.087583497 27:0.67586786 28:0.27444625 29:0.32809159 30:0.47452638 31:0.59558523 32:0.81026012 33:0.72405356 34:0.38755804 35:0.51892829 36:0.5171988 37:0.66213751 38:0.63251388 39:0.74087316 40:0.69651479 41:0.30595827 42:0.49407437 43:0.27171782 44:0.50077575 45:0.49876854 46:0.58198738 47:0.44933543 48:0.3595145 
-3.183652636224227 2.075448030330497 0.7378156932295555 0 0 0.04337785992661922 1.130524761319013 0.7091200556962326 1.78930450314392 2.015166898667503 1.536491085923361 0 0 0.7852591826843921 0 0 0.7546839150383858 3.169846495839396 0 1.781849975284757 1.532345706047867 0 0.2433303061600368 2.363073603038361 0 1.91998010861139 1:0.52460116 2:0.57303727 3:0.41136703 4:0.51711363 5:0.41902396 6:0.36439243 7:0.29028609 8:0.62237185 9:0.59914166 10:0.34658349 11:0.50431824 12:0.78258246 13:0.42774171 14:0.24704029 15:0.47805113 16:0.58156717 17:0.27819639 18:0.44273418 19:0.37178266 20:0.58998311 21:0.47060826 22:0.56652391 23:0.74723434 24:0.69846076 25:0.2289733 26:0.026489792 27:0.53105736 28:0.28059828 29:0.30256242 30:0.57218915 31:0.5536409 32:0.64708489 33:0.65280086 34:0.50017542 35:0.45881054 36:0.51684332 37:0.80653232 38:0.5810867 39:0.83924663 40:0.68582749 41:0.41230142 42:0.47334084 43:0.30223513 44:0.57936889 45:0.58421677 46:0.56196272 47:0.45305279 48:0.38700819 
-2.781911806516816 1.184081585659792 2.741446313139372 1.771853384657708 3.266942817793578 3.78671792282759 2.139825101649711 3.171228516181305 2.623250669394859 2.523796367396844 3.830653273216469 4.551165170070518 4.070360165722638 3.500432179464623 2.893596284641101 2.198856657882721 3.006343266649232 3.612419121473522 4.300188516614834 3.884638218890272 2.545609387878506 1.163858978068394 3.722604066464336 2.969243436455441 4.132808977755383 3.31274726809837 1:0.68917358 2:0.64794821 3:0.75371915 4:0.72592431 5:0.3454974 6:0.58510113 7:0.85415691 8:0.43218666 9:0.80527633 10:0.402291 11:0.44420442 12:0.40837026 13:0.52848244 14:0.61572939 15:0.52855778 16:0.51593882 17:0.37623054 18:0.36552534 19:0.39940295 20:0.22358511 21:0.54373419 22:0.4716689 23:0.53250086 24:0.5682776 25:0.36575168 26:0.1222458 27:0.5866214 28:0.27753198 29:0.38765046 30:0.62428337 31:0.60791415 32:0.92166042 33:0.76186991 34:0.4494926 35:0.48573789 36:0.59542298 37:0.60800254 38:0.66756099 39:0.78238738 40:0.7489925 41:0.36319792 42:0.51573664 43:0.32577294 44:0.48064649 45:0.4860101 46:0.4993563 47:0.47717115 48:0.38607964 
-0 0 0 0 0 0 0 0 0 0 0 0 0 0 0 0.267898401638732 0 0 0 0.310033213974535 0 0 0.3764777069710603 0 0 0 1:0.56301665 2:0.42763564 3:0.5546152 4:0.44832721 5:0.40072066 6:0.6050083 7:0.47527593 8:0.41577473 9:0.59758186 10:0.4573366 11:0.50383323 12:0.55995572 13:0.4696435 14:0.662166 15:0.37604111 16:0.33925971 17:0.43738374 18:0.44595367 19:0.31790268 20:0.42498454 21:0.67260021 22:0.57229513 23:0.4195236 24:0.69720143 25:0.22785628 26:0.20437379 27:0.70923662 28:0.31656328 29:0.35549322 30:0.39159006 31:0.53845751 32:0.80206352 33:0.6495291 34:0.39487115 35:0.51311785 36:0.70140147 37:0.74810159 38:0.51472706 39:0.78592795 40:0.72015887 41:0.37000591 42:0.55137843 43:0.15626419 44:0.58385295 45:0.60332388 46:0.52489978 47:0.50930995 48:0.31944522 
-0.7237894612092787 2.810258737649299 0 1.059032691572727 0 0 1.588020437126693 0 0 0 0 0 0 1.338614392205936 1.385200473329488 0 0.2379713607655406 0 0 0 0 0 0 0 0.8079630909925217 0.2431005772720245 1:0.53054607 2:0.47243381 3:0.54855114 4:0.49336931 5:0.54678082 6:0.58872348 7:0.63188607 8:0.47412741 9:0.51220798 10:0.36682191 11:0.25864542 12:0.37955397 13:0.49705377 14:0.57297873 15:0.38203666 16:0.46223742 17:0.53294003 18:0.42735919 19:0.36704752 20:0.6244216 21:0.62777871 22:0.37869817 23:0.55162579 24:0.65020388 25:0.087389573 26:0.11032106 27:0.69181454 28:0.30394977 29:0.42285696 30:0.54251009 31:0.5249247 32:0.64586461 33:0.6680125 34:0.41658467 35:0.37219226 36:0.5696547 37:0.70166552 38:0.54737705 39:0.87608182 40:0.67135286 41:0.34808147 42:0.55899549 43:0.19442895 44:0.54443204 45:0.53312266 46:0.54154027 47:0.49663991 48:0.28529409 
-0 2.322391389793384 0.1376122521445209 1.037580357901726 0 0 1.786036292298932 1.935560037483773 3.164120920185229 0.08155722850027949 0 0 0 0 0.4395054687160392 2.218674976744214 0.9177219592420166 0.801482714417207 1.457346655381664 0.1181457441243078 2.669520097126875 5.522869068108948 1.530079493276466 0 0 0 1:0.4909912 2:0.44444451 3:0.46621308 4:0.73772037 5:0.43492007 6:0.50406331 7:0.56704086 8:0.56246358 9:0.7963748 10:0.37177661 11:0.5912925 12:0.52699864 13:0.59755284 14:0.61949593 15:0.54257226 16:0.63243645 17:0.42816177 18:0.39804053 19:0.34238493 20:0.30738497 21:0.59152824 22:0.46925542 23:0.58921176 24:0.57376909 25:0.42236242 26:0.087583497 27:0.67586786 28:0.27444625 29:0.32809159 30:0.47452638 31:0.59558523 32:0.81026012 33:0.72405356 34:0.38755804 35:0.51892829 36:0.5171988 37:0.66213751 38:0.63251388 39:0.74087316 40:0.69651479 41:0.30595827 42:0.49407437 43:0.27171782 44:0.50077575 45:0.49876854 46:0.58198738 47:0.44933543 48:0.3595145 
-3.616299655435927 0 0 0 0.1340022977061161 0 0 0 0 1.208938002436941 0.4833619972865749 0 0 0 0 0 0 0.1775623754585579 0 0 0 0 0 0 1.244343574630434 0.3813912791863288 1:0.49657431 2:0.63395816 3:0.49739638 4:0.71236861 5:0.39246306 6:0.44607267 7:0.49758291 8:0.46365207 9:0.65832448 10:0.50056058 11:0.5203622 12:0.56184483 13:0.53431922 14:0.7071045 15:0.4450506 16:0.39824155 17:0.34400159 18:0.47207761 19:0.16905145 20:0.27543071 21:0.57667524 22:0.52308208 23:0.57488382 24:0.71570629 25:0.41519606 26:0.1060318 27:0.54221094 28:0.2579256 29:0.3596088 30:0.55005276 31:0.51992047 32:0.80583704 33:0.63353664 34:0.35720822 35:0.55404902 36:0.60842675 37:0.7558586 38:0.54936934 39:0.82808793 40:0.6804505 41:0.38711551 42:0.50112677 43:0.1754809 44:0.51570219 45:0.54869378 46:0.50265324 47:0.52219236 48:0.30085301 
-2.354576118767807 1.872851567670493 2.457593187398024 3.93789815063398 4.471742040238368 3.615559469410312 1.590295517522331 1.989457122924789 2.431635074508025 1.940638677390648 2.969980081278133 2.688606396294424 2.436704520232293 2.140824018936816 4.293902678092802 2.790400549635427 2.080406774718763 1.692335093614471 1.901275319373566 1.881579782148113 1.877682750713487 4.036620360768328 0.9408437764002235 3.271631277706002 3.178454386680087 2.525145523942002 1:0.49236906 2:0.30286008 3:0.067457817 4:0.53920484 5:0.4205094 6:0.62821132 7:0.45373854 8:0.75173068 9:0.543953 10:0.56790292 11:0.60308981 12:0.45922726 13:0.56523383 14:0.71795249 15:0.73660243 16:0.32197195 17:0.52750796 18:0.2711066 19:0.51704222 20:0.73892874 21:0.78763771 22:0.5334875 23:0.37065935 24:0.68255198 25:0.12845656 26:0.096047617 27:0.73296201 28:0.24482244 29:0.41481343 30:0.47994915 31:0.63435149 32:0.5889591 33:0.53900975 34:0.54435211 35:0.50960594 36:0.66967261 37:0.6661523 38:0.45479354 39:0.77701145 40:0.51361424 41:0.47076747 42:0.49347162 43:0.27742383 44:0.61684597 45:0.60461909 46:0.51695365 47:0.53339267 48:0.20883414 
-0.2468682003405348 0.3496365451363371 1.775242405504315 4.986119705752869 2.553530576168013 2.620620540291463 1.391311396420367 2.823998566763224 0.9852451826203495 2.488438287625808 2.707443102179707 1.895414199711409 3.702725677208592 1.074558262587326 1.709078647904079 2.723669923248268 2.572143042008323 0.1397863846199403 1.715891095763107 0.873827511734786 3.010550057435234 4.188395605041442 3.190161221548679 2.546434385133554 3.188844843606955 2.51581372892253 1:0.51375163 2:0.61568373 3:0.37125692 4:0.54246461 5:0.32760271 6:0.52339792 7:0.36143589 8:0.65747011 9:0.53944188 10:0.62342596 11:0.38456759 12:0.6826154 13:0.49953336 14:0.20636854 15:0.20482342 16:0.78067333 17:0.29713306 18:0.59904873 19:0.39292046 20:0.39524692 21:0.52253085 22:0.42516327 23:0.64218384 24:0.71800977 25:0.39594144 26:0.18833882 27:0.59288025 28:0.2545715 29:0.33065113 30:0.63085586 31:0.3871839 32:0.74009377 33:0.64353466 34:0.43875852 35:0.46604148 36:0.55959302 37:0.70801055 38:0.52068734 39:0.8130554 40:0.64251053 41:0.24507554 42:0.42436182 43:0.29819649 44:0.52023685 45:0.53357404 46:0.50501686 47:0.42143941 48:0.32182947 
-0 0.526593168527229 1.192557743030904 0 0 0 0 0 0 1.776448961334734 0 1.793578639058253 0.6122208321416889 0.9713235685961236 0 0 0 0 1.059628763873066 0 0 0 0 0.5094130197811969 0 0 1:0.49557048 2:0.7752614 3:0.43987462 4:0.41066408 5:0.40175921 6:0.22379079 7:0.33644336 8:0.70822752 9:0.74656516 10:0.50503975 11:0.41067442 12:0.71331847 13:0.57456207 14:0.33550242 15:0.34829032 16:0.64109218 17:0.42369401 18:0.38616431 19:0.36531579 20:0.41682547 21:0.56048548 22:0.47403157 23:0.63561493 24:0.68353403 25:0.31990251 26:0.070834674 27:0.64467102 28:0.27455717 29:0.32384652 30:0.54833716 31:0.42587316 32:0.77322167 33:0.72094995 34:0.45488515 35:0.49097151 36:0.46799496 37:0.79655761 38:0.56379306 39:0.72674477 40:0.70065856 41:0.37854716 42:0.45680419 43:0.27286547 44:0.57617915 45:0.58844149 46:0.58258212 47:0.41325051 48:0.40084717 
-2.212311782680826e-05 -0 0 0 0 0 0 0 0 0 0 0 0 0 0 0 0 0 0 0 0 0 0 0 0 0 1:0.31112817 2:0.37441266 3:0.47912109 4:0.58278739 5:0.78346115 6:0.38756508 7:0.53971624 8:0.70301145 9:0.80218029 10:0.19375801 11:0.4238435 12:0.73654985 13:0.4607417 14:0.58629829 15:0.45923933 16:0.21197484 17:0.72857898 18:0.33496228 19:0.27258745 20:0.41805014 21:0.38475811 22:0.39807376 23:0.73859435 24:0.52500474 25:0.44626346 26:0.42848396 27:0.54388636 28:0.75433403 29:0.44102275 30:0.36345118 31:0.35355604 32:0.25352076 33:0.63954622 34:0.6763767 35:0.45701993 36:0.50539625 37:0.32548919 38:0.70046735 39:0.51377004 40:0.783234 41:0.48644808 42:0.6040771 43:0.25257125 44:0.3276754 45:0.60200888 46:0.64623636 47:0.57290822 48:0.27817425 
-8.477003501327511e-06 -0 0 0 0 0 0 0 0 0 0 0 0 0 0 0 0 0 0 0 0 0 0 0 0 0 1:0.64767945 2:0.32309118 3:0.28956389 4:0.78274059 5:0.54862481 6:0.89935666 7:0.48350713 8:0.76656228 9:0.76344806 10:0.65270364 11:0.62562436 12:0.66624731 13:0.27756837 14:0.50238442 15:0.50551492 16:0.020393016 17:0.48207211 18:0.40073296 19:0.57213211 20:0.82150334 21:0.24548474 22:0.59729236 23:0.63535827 24:0.6080091 25:0.22760315 26:0.36580557 27:0.41350046 28:0.82661253 29:0.26807493 30:0.48325494 31:0.57872987 32:0.36119917 33:0.59192622 34:0.44251469 35:0.61159873 36:0.55074614 37:0.52727985 38:0.46184894 39:0.46556625 40:0.94642949 41:0.57835644 42:0.81973177 43:0.35580817 44:0.58604157 45:0.74991351 46:0.62156987 47:0.40091231 48:0.27295026 
-3.689625024810764e-05 -0 0 0 0 0 0 0 0 0 0 0 0 0 0 0 0 0 0 0 0 0 0 0 0 0 1:0.47052267 2:0.78757459 3:0.59402537 4:0.84076577 5:0.30990899 6:0.49978065 7:0.82127333 8:0.43488014 9:0.66313273 10:0.78988057 11:0.44570544 12:0.63478529 13:0.47137675 14:0.47207603 15:0.47089368 16:0.3127524 17:0.5604291 18:0.54937541 19:0.34401342 20:0.42932341 21:0.67001379 22:0.5129838 23:0.64354777 24:0.54603255 25:0.49542701 26:0.292061 27:0.48269311 28:0.76155967 29:0.31455374 30:0.38660064 31:0.56964326 32:0.23624173 33:0.58011585 34:0.52145976 35:0.52136445 36:0.35564139 37:0.28779477 38:0.32389307 39:0.43672585 40:0.91350293 41:0.52300686 42:0.8693518 43:0.39025262 44:0.45706043 45:0.64424103 46:0.70096707 47:0.58412665 48:0.24064168 
-0 -0 0 0 0 0 0 0 0 0 0 0 0 3.980640935668818e-06 0 0 0 0 0 0 0 1.660686336638179e-05 0 0 0 0 1:0.31112817 2:0.37441266 3:0.47912109 4:0.58278739 5:0.78346115 6:0.38756508 7:0.53971624 8:0.70301145 9:0.80218029 10:0.19375801 11:0.4238435 12:0.73654985 13:0.4607417 14:0.58629829 15:0.45923933 16:0.21197484 17:0.72857898 18:0.33496228 19:0.27258745 20:0.41805014 21:0.38475811 22:0.39807376 23:0.73859435 24:0.52500474 25:0.44626346 26:0.42848396 27:0.54388636 28:0.75433403 29:0.44102275 30:0.36345118 31:0.35355604 32:0.25352076 33:0.63954622 34:0.6763767 35:0.45701993 36:0.50539625 37:0.32548919 38:0.70046735 39:0.51377004 40:0.783234 41:0.48644808 42:0.6040771 43:0.25257125 44:0.3276754 45:0.60200888 46:0.64623636 47:0.57290822 48:0.27817425 
-0 -0 0 0 0 0 0 0 0 0 0 0 0 0 0 0 0 3.413025586838285e-05 0 0 0 0 0 0 0 0 1:0.43408573 2:0.74545366 3:0.46679029 4:0.5466454 5:0.57062459 6:0.38986352 7:0.5670017 8:0.51975244 9:0.45950824 10:0.57101023 11:0.37764409 12:0.47805178 13:0.48953635 14:0.36603144 15:0.28150398 16:0.50445116 17:0.49609423 18:0.63061154 19:0.40179908 20:0.35628927 21:0.6311146 22:0.5295164 23:0.63503808 24:0.51677781 25:0.45507786 26:0.21952564 27:0.3544673 28:0.75035006 29:0.21659173 30:0.44615629 31:0.38975599 32:0.31374446 33:0.62391704 34:0.74730963 35:0.35606268 36:0.44370246 37:0.1954641 38:0.55749023 39:0.28674757 40:0.88662446 41:0.6857447 42:0.8437466 43:0.35649258 44:0.39221531 45:0.53013784 46:0.59901446 47:0.53348124 48:0.30983594 
-0 -0 0 0 0 0 0 0 0 0 0 0 0 0 0 0 0 0 0 0 0 0.0002424284447035988 0 0 0 0 1:0.6949259 2:0.6474067 3:0.21170691 4:0.75664043 5:0.44527212 6:0.43102875 7:0.73028207 8:0.75509501 9:0.58082098 10:0.49123722 11:0.2951439 12:0.56943911 13:0.52187043 14:0.55889475 15:0.33190408 16:0.40002286 17:0.45755696 18:0.50740135 19:0.35045612 20:0.35833463 21:0.57846671 22:0.77447432 23:0.42310593 24:0.58279598 25:0.47598502 26:0.22596693 27:0.48037624 28:0.95601189 29:0.24728628 30:0.47534806 31:0.48364264 32:0.30091879 33:0.68463641 34:0.58795404 35:0.61374652 36:0.41363457 37:0.21294712 38:0.3787176 39:0.32774153 40:0.82701641 41:0.71537453 42:0.89143056 43:0.39035934 44:0.49256316 45:0.6181097 46:0.68302369 47:0.53168803 48:0.26281092 
-0 -0 0 0 0 0 0 0 0 0 0 0 0 0 0 0 0 0 0 0 0 0.0001453288976813611 0 0 0 0 1:0.37843177 2:0.63080561 3:0.43501303 4:0.75503063 5:0.7865445 6:0.470431 7:0.58155411 8:0.51131582 9:0.53905064 10:0.56898242 11:0.52317059 12:0.59165263 13:0.37408552 14:0.48073414 15:0.22849433 16:0.68171996 17:0.48328781 18:0.36290875 19:0.48786724 20:0.82663482 21:0.52814639 22:0.068373457 23:0.46340469 24:0.53171831 25:0.41334671 26:0.63511378 27:0.83495086 28:0.96349406 29:0.34808081 30:0.34585071 31:0.42087662 32:0.17200837 33:0.41239777 34:0.39165792 35:0.54288632 36:0.41879255 37:0.48815349 38:0.20196152 39:0.59631294 40:0.93431586 41:0.61299884 42:0.78241074 43:0.41544756 44:0.56760186 45:0.70744985 46:0.60965347 47:0.43871948 48:0.30264279 
-0 -0 0 0 0 0 0 0 0 0 0 0 0 0 0 0 0 3.988505374218889e-05 0 0 0 0 0 0 0 0 1:0.64767945 2:0.32309118 3:0.28956389 4:0.78274059 5:0.54862481 6:0.89935666 7:0.48350713 8:0.76656228 9:0.76344806 10:0.65270364 11:0.62562436 12:0.66624731 13:0.27756837 14:0.50238442 15:0.50551492 16:0.020393016 17:0.48207211 18:0.40073296 19:0.57213211 20:0.82150334 21:0.24548474 22:0.59729236 23:0.63535827 24:0.6080091 25:0.22760315 26:0.36580557 27:0.41350046 28:0.82661253 29:0.26807493 30:0.48325494 31:0.57872987 32:0.36119917 33:0.59192622 34:0.44251469 35:0.61159873 36:0.55074614 37:0.52727985 38:0.46184894 39:0.46556625 40:0.94642949 41:0.57835644 42:0.81973177 43:0.35580817 44:0.58604157 45:0.74991351 46:0.62156987 47:0.40091231 48:0.27295026 
-0 -0 0 0 0 0 0 0 0 0 0 0 0 9.466826570504234e-06 0 0 0 6.506415785575193e-05 0 0 0 0 0 0 0 0 1:0.42952073 2:0.53545535 3:0.48491359 4:0.65825373 5:0.61722445 6:0.60960448 7:0.47329858 8:0.56288904 9:0.49357516 10:0.4502795 11:0.59187675 12:0.52641714 13:0.45392424 14:0.4979274 15:0.42277387 16:0.35275233 17:0.40247333 18:0.59510869 19:0.60926288 20:0.43820846 21:0.45087352 22:0.58182359 23:0.51444727 24:0.33033571 25:0.52116263 26:0.2883338 27:0.66540539 28:0.62286931 29:0.23238941 30:0.38102379 31:0.39117897 32:0.19544356 33:0.52981889 34:0.59965253 35:0.7016812 36:0.39867407 37:0.27431464 38:0.44675374 39:0.4695015 40:0.93619829 41:0.65031773 42:0.81962812 43:0.35934323 44:0.46182546 45:0.53268617 46:0.61528635 47:0.55264497 48:0.3770602 
-0 -0 0 0 0 0 0 0 0 0 0 0 0 0 0 0 0 0 0 0 0 0 0 9.209759458381956e-07 0 0 1:0.47052267 2:0.78757459 3:0.59402537 4:0.84076577 5:0.30990899 6:0.49978065 7:0.82127333 8:0.43488014 9:0.66313273 10:0.78988057 11:0.44570544 12:0.63478529 13:0.47137675 14:0.47207603 15:0.47089368 16:0.3127524 17:0.5604291 18:0.54937541 19:0.34401342 20:0.42932341 21:0.67001379 22:0.5129838 23:0.64354777 24:0.54603255 25:0.49542701 26:0.292061 27:0.48269311 28:0.76155967 29:0.31455374 30:0.38660064 31:0.56964326 32:0.23624173 33:0.58011585 34:0.52145976 35:0.52136445 36:0.35564139 37:0.28779477 38:0.32389307 39:0.43672585 40:0.91350293 41:0.52300686 42:0.8693518 43:0.39025262 44:0.45706043 45:0.64424103 46:0.70096707 47:0.58412665 48:0.24064168 
-0 -0 0 0 0 0 0 0 0 0 0 0 0 2.456087505332687e-05 0 0 0 5.189746211006479e-05 0 0 0 0 0 0 0 0 1:0.55443901 2:0.45823267 3:0.60710192 4:0.6111179 5:0.40147164 6:0.58867741 7:0.35644397 8:0.41436407 9:0.69502693 10:0.35844883 11:0.52421272 12:0.44882351 13:0.50515336 14:0.5617153 15:0.48790732 16:0.19290261 17:0.77997559 18:0.43563977 19:0.19220178 20:0.5012123 21:0.57954788 22:0.62943333 23:0.62371224 24:0.68017179 25:0.28786877 26:0.18034872 27:0.42887798 28:0.90761328 29:0.36356825 30:0.49998155 31:0.49172172 32:0.20006712 33:0.55779868 34:0.509462 35:0.63794297 36:0.55157435 37:0.24520631 38:0.39539042 39:0.40678355 40:0.82482994 41:0.62045747 42:0.72495282 43:0.34701607 44:0.39571306 45:0.70531821 46:0.70339048 47:0.61298233 48:0.25790936 
-0 -0 0 6.911734949144212e-05 0 0 0 0 0 0 0 0 0 6.90026027860209e-06 0 0 0 0 0 0 0 0 0 0 0 0 1:0.48983404 2:0.73805428 3:0.54623359 4:0.61186063 5:0.55073535 6:0.52339262 7:0.54965717 8:0.60133201 9:0.61229157 10:0.57737416 11:0.32321855 12:0.47192654 13:0.45510659 14:0.47887406 15:0.49429601 16:0.44785449 17:0.47868606 18:0.57794553 19:0.38464653 20:0.43104452 21:0.47747782 22:0.28149813 23:0.63075799 24:0.28901625 25:0.50418192 26:0.25491884 27:0.58268505 28:0.46844143 29:0.22961186 30:0.42253503 31:0.47257468 32:0.1931614 33:0.57755631 34:0.51169682 35:0.55470061 36:0.37294012 37:0.32040593 38:0.33595404 39:0.55423236 40:0.90509516 41:0.64433992 42:0.84332824 43:0.42888242 44:0.4143891 45:0.54890066 46:0.60803521 47:0.46908912 48:0.27717775 
-0 -0 0 0 0 0 0 0 0 0 0 0 0 8.820482245021306e-06 0 0 0 5.219741493715809e-05 0 0 0 0 0 0 0 0 1:0.19459103 2:0.80707502 3:0.57805043 4:0.75893587 5:0.41190365 6:0.50983578 7:0.69410694 8:0.93298399 9:0.81734109 10:0.48603642 11:0.42254177 12:0.52622551 13:0.4413839 14:0.58579397 15:0.29566562 16:0.55427867 17:0.12675242 18:0.39917436 19:0.478147 20:0.52843422 21:0.48448059 22:0.62637746 23:0.55899453 24:0.40388381 25:0.55757236 26:0.34951186 27:0.76438844 28:0.89173025 29:0.23395541 30:0.28849486 31:0.39806929 32:0.30883336 33:0.60293132 34:0.54589945 35:0.55388796 36:0.31852293 37:0.4993608 38:0.29495975 39:0.46846625 40:0.78572577 41:0.53884834 42:0.81863701 43:0.35505629 44:0.47582963 45:0.57898551 46:0.76382816 47:0.51389599 48:0.26588672 
-0 -0 0 3.501359357700561e-05 0 0 0 0 0 0 0 0 0 0 0 0 0 0 0 0 0 0 0 0 0 0 1:0.35837269 2:0.4841941 3:0.35834059 4:0.61595011 5:0.28899866 6:0.48452961 7:0.38840187 8:0.43748322 9:0.71575665 10:0.43265548 11:0.4645099 12:0.72317195 13:0.68197137 14:0.40479967 15:0.42948788 16:0.58945894 17:0.51321203 18:0.44980073 19:0.36280704 20:0.33179384 21:0.53537172 22:0.56181413 23:0.58853793 24:0.46576607 25:0.53956503 26:0.12940298 27:0.55171913 28:0.7924794 29:0.26689756 30:0.52303332 31:0.44004813 32:0.17386656 33:0.65287602 34:0.64992446 35:0.75895995 36:0.39238778 37:0.19228706 38:0.37529075 39:0.33104736 40:0.84115255 41:0.68902612 42:0.68453026 43:0.5018484 44:0.39677453 45:0.42791855 46:0.77778077 47:0.52269959 48:0.36113667 
-0 -0 0 5.692232460413576e-06 0 0 0 0 0 0 0 0 0 0 0 0 0 0 0 0 0 0 0 0 0 0 1:0.47098672 2:0.41607416 3:0.63369423 4:0.51431793 5:0.39315119 6:0.56984526 7:0.48433623 8:0.7880646 9:0.90048254 10:0.25737157 11:0.33732697 12:0.66831684 13:0.71312851 14:0.5566777 15:0.46692783 16:0.44496685 17:0.40412658 18:0.47958881 19:0.21096347 20:0.3097809 21:0.53008229 22:0.52598375 23:0.72294205 24:0.42515922 25:0.42300573 26:0.23023818 27:0.62057781 28:0.97540522 29:0.24005279 30:0.34627846 31:0.51559269 32:0.2481204 33:0.52193153 34:0.6434195 35:0.74423492 36:0.46984842 37:0.43404824 38:0.26750824 39:0.37242749 40:0.75853008 41:0.61074728 42:0.65260011 43:0.39514259 44:0.44415173 45:0.63902336 46:0.78597558 47:0.55709708 48:0.3076933 
-0.6710247814946353 -0.4174833595282491 0.01805227608170418 0.486179973346464 0.174242182785831 2.129902035651698 1.361569954563419 0.06456178754898627 0 0.2511873142309284 2.740447413276864 0 2.261722114268371 0.8214622064494179 0 0 0.1037688674147972 0 2.015115126190348 0 0 4.882028004418093 0 1.367614353383963 2.850930140706188 0 1:0.65861088 2:0.62393409 3:0.51376522 4:0.50653261 5:0.44670054 6:0.54542059 7:0.58592242 8:0.6184904 9:0.76972002 10:0.28754735 11:0.56678009 12:0.42004338 13:0.36428836 14:0.79262233 15:0.42011955 16:0.25216654 17:0.69329536 18:0.35278124 19:0.13852639 20:0.51515371 21:0.57225877 22:0.59914041 23:0.62664026 24:0.73324227 25:0.38556403 26:0.22621059 27:0.46720546 28:0.90883309 29:0.34751663 30:0.44379106 31:0.40553409 32:0.21972308 33:0.55103469 34:0.58361411 35:0.60852307 36:0.55641359 37:0.31142271 38:0.39836609 39:0.40280679 40:0.78217787 41:0.58202553 42:0.71169144 43:0.27937579 44:0.45501894 45:0.68460554 46:0.65179038 47:0.5706569 48:0.23336579 
-4.777138736767224 -1.973034579235772 1.744672431896035 1.274022718485971 1.501757287936606 4.496845290917627 3.163280624750652 4.022930645021495 3.760942356960504 3.952402401612912 0.2879102886793032 2.871774636624848 0 2.145436671304033 0.3595296324764229 0.9341359063472525 2.390207373346513 1.771654660549428 2.056690920570292 2.564116259441217 2.647700130197347 3.606535728684773 4.638098187580208 3.763241234252177 3.562518439646343 2.178920862433732 1:0.31112817 2:0.37441266 3:0.47912109 4:0.58278739 5:0.78346115 6:0.38756508 7:0.53971624 8:0.70301145 9:0.80218029 10:0.19375801 11:0.4238435 12:0.73654985 13:0.4607417 14:0.58629829 15:0.45923933 16:0.21197484 17:0.72857898 18:0.33496228 19:0.27258745 20:0.41805014 21:0.38475811 22:0.39807376 23:0.73859435 24:0.52500474 25:0.44626346 26:0.42848396 27:0.54388636 28:0.75433403 29:0.44102275 30:0.36345118 31:0.35355604 32:0.25352076 33:0.63954622 34:0.6763767 35:0.45701993 36:0.50539625 37:0.32548919 38:0.70046735 39:0.51377004 40:0.783234 41:0.48644808 42:0.6040771 43:0.25257125 44:0.3276754 45:0.60200888 46:0.64623636 47:0.57290822 48:0.27817425 
-0 -0.8317577543359508 0 1.250445817279878 0.2557868186299418 0 0 0.6702346966904592 0 0 0 0 0 0 0 0 0 0.1044659438724663 0 0 0 0 1.031889143040324 0 0 0 1:0.54814118 2:0.619362 3:0.36782318 4:0.55587149 5:0.57881945 6:0.56982195 7:0.59090167 8:0.62374222 9:0.46529514 10:0.57468939 11:0.42062971 12:0.50655884 13:0.5773086 14:0.39481342 15:0.23253581 16:0.53384686 17:0.33875185 18:0.63731432 19:0.42744097 20:0.31540233 21:0.56187677 22:0.52341497 23:0.5972414 24:0.40479913 25:0.43549764 26:0.28908163 27:0.54234231 28:0.61631811 29:0.20715027 30:0.44348404 31:0.5123648 32:0.19485386 33:0.69521677 34:0.5484733 35:0.62068057 36:0.37946615 37:0.29072103 38:0.3971101 39:0.45865846 40:0.93599981 41:0.56726098 42:0.85760075 43:0.41032869 44:0.41747379 45:0.50869924 46:0.68180478 47:0.47865981 48:0.31877708 
-0 -0 0 0 0 0 0 1.623060039664328 0 0 0 0 0 0 0 0 0 0 0 0 0 0 0.2276421299102121 0 0 0 1:0.39908457 2:0.51629406 3:0.50005275 4:0.41455749 5:0.565826 6:0.67841184 7:0.68577695 8:0.67259234 9:0.4360584 10:0.41751415 11:0.47156534 12:0.64809704 13:0.36548752 14:0.60000646 15:0.33131412 16:0.67745441 17:0.43166146 18:0.4747313 19:0.39122033 20:0.20539869 21:0.37928253 22:0.25082216 23:0.52078271 24:0.48585641 25:0.48778293 26:0.50453305 27:0.74609661 28:0.84275436 29:0.33485761 30:0.25619608 31:0.32919154 32:0.14554428 33:0.58857644 34:0.51507318 35:0.79528612 36:0.444296 37:0.24802688 38:0.36551583 39:0.61947268 40:0.98829168 41:0.67445922 42:0.70229256 43:0.43768466 44:0.46249416 45:0.60329324 46:0.57300675 47:0.51472747 48:0.33594501 
-3.307431751015454 -0 2.923071114085908 0 0.6735385586535426 5.051179701160335 1.698939050188265 0 0 0.2120418128520069 2.55326271822747 1.63182199048172 2.427359264260266 2.015845051522271 0 0.8045958772983857 0 0.1888873926325638 0 5.133544923213491 0.4372965031619377 0 0 0.6520145285474533 0.836707374433635 2.034467763786676 1:0.43408573 2:0.74545366 3:0.46679029 4:0.5466454 5:0.57062459 6:0.38986352 7:0.5670017 8:0.51975244 9:0.45950824 10:0.57101023 11:0.37764409 12:0.47805178 13:0.48953635 14:0.36603144 15:0.28150398 16:0.50445116 17:0.49609423 18:0.63061154 19:0.40179908 20:0.35628927 21:0.6311146 22:0.5295164 23:0.63503808 24:0.51677781 25:0.45507786 26:0.21952564 27:0.3544673 28:0.75035006 29:0.21659173 30:0.44615629 31:0.38975599 32:0.31374446 33:0.62391704 34:0.74730963 35:0.35606268 36:0.44370246 37:0.1954641 38:0.55749023 39:0.28674757 40:0.88662446 41:0.6857447 42:0.8437466 43:0.35649258 44:0.39221531 45:0.53013784 46:0.59901446 47:0.53348124 48:0.30983594 
-0 -0 0 0 1.459501514695814 0 0 0 0 0 0 0 0 0 0 0 0 0 0 0 0 0.930380177238495 0 0.1138766454436581 0 0 1:0.6949259 2:0.6474067 3:0.21170691 4:0.75664043 5:0.44527212 6:0.43102875 7:0.73028207 8:0.75509501 9:0.58082098 10:0.49123722 11:0.2951439 12:0.56943911 13:0.52187043 14:0.55889475 15:0.33190408 16:0.40002286 17:0.45755696 18:0.50740135 19:0.35045612 20:0.35833463 21:0.57846671 22:0.77447432 23:0.42310593 24:0.58279598 25:0.47598502 26:0.22596693 27:0.48037624 28:0.95601189 29:0.24728628 30:0.47534806 31:0.48364264 32:0.30091879 33:0.68463641 34:0.58795404 35:0.61374652 36:0.41363457 37:0.21294712 38:0.3787176 39:0.32774153 40:0.82701641 41:0.71537453 42:0.89143056 43:0.39035934 44:0.49256316 45:0.6181097 46:0.68302369 47:0.53168803 48:0.26281092 
-0 -0 0 0 0 0 0 0.8030571666842622 0 0 0 0 0 0 0.6893271638040164 0 0.4546931126770383 0 0 0 0 0 0.2671192731616344 0.1229855553576883 0 0 1:0.55977964 2:0.52448344 3:0.51478678 4:0.51398337 5:0.5281176 6:0.53392076 7:0.71625501 8:0.61870909 9:0.45763531 10:0.48672023 11:0.31689346 12:0.52446747 13:0.46917936 14:0.32499105 15:0.3605172 16:0.42367357 17:0.37699643 18:0.51992399 19:0.67819166 20:0.322384 21:0.52457738 22:0.45661286 23:0.51291561 24:0.39874756 25:0.43529463 26:0.22528124 27:0.58536893 28:0.66991013 29:0.222701 30:0.37980431 31:0.33762634 32:0.21377663 33:0.63888246 34:0.74012661 35:0.5462783 36:0.45648411 37:0.26651165 38:0.52969593 39:0.42161676 40:1 41:0.56449616 42:0.81726128 43:0.40510577 44:0.43086466 45:0.5416131 46:0.63975245 47:0.53641272 48:0.39317697 
-0 -0 0 1.019098871963984 0 0.3076353555454901 0 0 0.8739155899468439 1.098880842548329 0 0 0.6380623472198276 0.5651399652484683 0.3056068304426956 0 0.4803433687696555 0.1906720303033641 0.4971852291226843 0.2846870402393683 0.3495333735301527 2.816912010621182 0 2.041120708668085 1.299288021659106 0.2614124938841446 1:0.37843177 2:0.63080561 3:0.43501303 4:0.75503063 5:0.7865445 6:0.470431 7:0.58155411 8:0.51131582 9:0.53905064 10:0.56898242 11:0.52317059 12:0.59165263 13:0.37408552 14:0.48073414 15:0.22849433 16:0.68171996 17:0.48328781 18:0.36290875 19:0.48786724 20:0.82663482 21:0.52814639 22:0.068373457 23:0.46340469 24:0.53171831 25:0.41334671 26:0.63511378 27:0.83495086 28:0.96349406 29:0.34808081 30:0.34585071 31:0.42087662 32:0.17200837 33:0.41239777 34:0.39165792 35:0.54288632 36:0.41879255 37:0.48815349 38:0.20196152 39:0.59631294 40:0.93431586 41:0.61299884 42:0.78241074 43:0.41544756 44:0.56760186 45:0.70744985 46:0.60965347 47:0.43871948 48:0.30264279 
-2.182804378359972 -2.437495153568437 0.8944142969583623 2.360539474246452 2.1186005883907 0.8590228048530264 0.3687560872503627 0.8119719647334419 1.101441012840597 1.655938135351066 2.780687772717634 2.321959147762896 1.041138498773213 0.5824392599321029 0.9098852063643875 2.585571690051783 0.9394001326390892 1.880760948094812 0.06544235688692208 3.115155634742977 1.848234153076393 0 1.600964164220358 0.8257471577980536 1.312368884830431 1.714509750421297 1:0.64767945 2:0.32309118 3:0.28956389 4:0.78274059 5:0.54862481 6:0.89935666 7:0.48350713 8:0.76656228 9:0.76344806 10:0.65270364 11:0.62562436 12:0.66624731 13:0.27756837 14:0.50238442 15:0.50551492 16:0.020393016 17:0.48207211 18:0.40073296 19:0.57213211 20:0.82150334 21:0.24548474 22:0.59729236 23:0.63535827 24:0.6080091 25:0.22760315 26:0.36580557 27:0.41350046 28:0.82661253 29:0.26807493 30:0.48325494 31:0.57872987 32:0.36119917 33:0.59192622 34:0.44251469 35:0.61159873 36:0.55074614 37:0.52727985 38:0.46184894 39:0.46556625 40:0.94642949 41:0.57835644 42:0.81973177 43:0.35580817 44:0.58604157 45:0.74991351 46:0.62156987 47:0.40091231 48:0.27295026 
-0 -0 1.844742313934715 0 0 0 0 0 2.367645734513958 0 0 0 0 1.057375706598158 1.812032028679339 0 2.877275900377201 0.5463569103416547 0 0.873634309608697 0 0 0.6221753661003495 0 0.7840827915159546 1.457499773033789 1:0.42952073 2:0.53545535 3:0.48491359 4:0.65825373 5:0.61722445 6:0.60960448 7:0.47329858 8:0.56288904 9:0.49357516 10:0.4502795 11:0.59187675 12:0.52641714 13:0.45392424 14:0.4979274 15:0.42277387 16:0.35275233 17:0.40247333 18:0.59510869 19:0.60926288 20:0.43820846 21:0.45087352 22:0.58182359 23:0.51444727 24:0.33033571 25:0.52116263 26:0.2883338 27:0.66540539 28:0.62286931 29:0.23238941 30:0.38102379 31:0.39117897 32:0.19544356 33:0.52981889 34:0.59965253 35:0.7016812 36:0.39867407 37:0.27431464 38:0.44675374 39:0.4695015 40:0.93619829 41:0.65031773 42:0.81962812 43:0.35934323 44:0.46182546 45:0.53268617 46:0.61528635 47:0.55264497 48:0.3770602 
-2.748848693168977 -0 0 0 0 0.2618353398077515 0 0 0.108359232485223 0 0 0.957674207268515 0 0 0 0.8805617754067587 0.2530222502741047 0 0 0 0 0 1.611337468327992 0.4758543184754192 0.7928309645302665 0 1:0.47052267 2:0.78757459 3:0.59402537 4:0.84076577 5:0.30990899 6:0.49978065 7:0.82127333 8:0.43488014 9:0.66313273 10:0.78988057 11:0.44570544 12:0.63478529 13:0.47137675 14:0.47207603 15:0.47089368 16:0.3127524 17:0.5604291 18:0.54937541 19:0.34401342 20:0.42932341 21:0.67001379 22:0.5129838 23:0.64354777 24:0.54603255 25:0.49542701 26:0.292061 27:0.48269311 28:0.76155967 29:0.31455374 30:0.38660064 31:0.56964326 32:0.23624173 33:0.58011585 34:0.52145976 35:0.52136445 36:0.35564139 37:0.28779477 38:0.32389307 39:0.43672585 40:0.91350293 41:0.52300686 42:0.8693518 43:0.39025262 44:0.45706043 45:0.64424103 46:0.70096707 47:0.58412665 48:0.24064168 
-0 -0 0 1.059167727979899 1.890497149656793 0 0 0 0 0 0 0 0 0.725118848233923 0 0 0 1.070151061708289 0 0 0 0 0 0 0.5795465036958045 0 1:0.55443901 2:0.45823267 3:0.60710192 4:0.6111179 5:0.40147164 6:0.58867741 7:0.35644397 8:0.41436407 9:0.69502693 10:0.35844883 11:0.52421272 12:0.44882351 13:0.50515336 14:0.5617153 15:0.48790732 16:0.19290261 17:0.77997559 18:0.43563977 19:0.19220178 20:0.5012123 21:0.57954788 22:0.62943333 23:0.62371224 24:0.68017179 25:0.28786877 26:0.18034872 27:0.42887798 28:0.90761328 29:0.36356825 30:0.49998155 31:0.49172172 32:0.20006712 33:0.55779868 34:0.509462 35:0.63794297 36:0.55157435 37:0.24520631 38:0.39539042 39:0.40678355 40:0.82482994 41:0.62045747 42:0.72495282 43:0.34701607 44:0.39571306 45:0.70531821 46:0.70339048 47:0.61298233 48:0.25790936 
-1.067809262156244 -2.927249282366251 2.595588280354181 3.04821002988228 3.525706275677819 0 3.750964501626795 0 0 4.144608847527134 3.273915934412837 1.384170834228732 1.622250412922614 2.176851937681768 4.300854806464325 0 0.1580659418143573 2.341264161073227 0.3292790913564774 0 5.328266570768671 0.0001110126699128726 0.6761433627119033 3.054430830579083 2.795817902315485 0.5854443705467786 1:0.48983404 2:0.73805428 3:0.54623359 4:0.61186063 5:0.55073535 6:0.52339262 7:0.54965717 8:0.60133201 9:0.61229157 10:0.57737416 11:0.32321855 12:0.47192654 13:0.45510659 14:0.47887406 15:0.49429601 16:0.44785449 17:0.47868606 18:0.57794553 19:0.38464653 20:0.43104452 21:0.47747782 22:0.28149813 23:0.63075799 24:0.28901625 25:0.50418192 26:0.25491884 27:0.58268505 28:0.46844143 29:0.22961186 30:0.42253503 31:0.47257468 32:0.1931614 33:0.57755631 34:0.51169682 35:0.55470061 36:0.37294012 37:0.32040593 38:0.33595404 39:0.55423236 40:0.90509516 41:0.64433992 42:0.84332824 43:0.42888242 44:0.4143891 45:0.54890066 46:0.60803521 47:0.46908912 48:0.27717775 
-2.088260227738079 -0 0 0 0 0 0 0 0 0.1980504888256339 0.507708531229924 0 0 0 0 0 0 0.8776313227790608 1.23170484379179 0 0 0 0.5311900399087049 0 0 0 1:0.35014516 2:0.51419497 3:0.41640306 4:0.73227298 5:0.63683861 6:0.68373525 7:0.58328444 8:0.69988859 9:0.60390377 10:0.62601209 11:0.42171997 12:0.55725294 13:0.32782865 14:0.36858064 15:0.30536118 16:0.25081417 17:0.23118414 18:0.47505203 19:0.64588457 20:0.40041909 21:0.33013973 22:0.64273351 23:0.55494183 24:0.36670443 25:0.57029444 26:0.41848591 27:0.60455602 28:0.71931076 29:0.2298706 30:0.31401664 31:0.35849836 32:0.30816889 33:0.56577897 34:0.62373734 35:0.64379257 36:0.3108491 37:0.46638593 38:0.42874181 39:0.40875548 40:0.95284933 41:0.59002268 42:0.83924264 43:0.44271952 44:0.47318593 45:0.57441986 46:0.70332235 47:0.421868 48:0.32019776 
-0.7633420085038846 -0.5183742065646144 0 0 0 0 1.347345276316853 0 0 0 1.620898997965765 0 0 0.191540054420227 0 0 0.5585830783306942 0.2829369613443453 0.5743471612490531 0 0 3.054547211672412 0 0.2671552202666958 0 0 1:0.19459103 2:0.80707502 3:0.57805043 4:0.75893587 5:0.41190365 6:0.50983578 7:0.69410694 8:0.93298399 9:0.81734109 10:0.48603642 11:0.42254177 12:0.52622551 13:0.4413839 14:0.58579397 15:0.29566562 16:0.55427867 17:0.12675242 18:0.39917436 19:0.478147 20:0.52843422 21:0.48448059 22:0.62637746 23:0.55899453 24:0.40388381 25:0.55757236 26:0.34951186 27:0.76438844 28:0.89173025 29:0.23395541 30:0.28849486 31:0.39806929 32:0.30883336 33:0.60293132 34:0.54589945 35:0.55388796 36:0.31852293 37:0.4993608 38:0.29495975 39:0.46846625 40:0.78572577 41:0.53884834 42:0.81863701 43:0.35505629 44:0.47582963 45:0.57898551 46:0.76382816 47:0.51389599 48:0.26588672 
-0 -0 0 0 0.5923532487353145 0 0 0 0 0 0 0 0 0 0 0 0 0.05859192320314435 0 0 0 0 0 0 0 0 1:0.55841833 2:0.5045473 3:0.48993281 4:0.62798464 5:0.68953544 6:0.68188113 7:0.33083114 8:0.49474025 9:0.68073463 10:0.5818364 11:0.60795867 12:0.78798848 13:0.45853835 14:0.60462719 15:0.52407825 16:0.27447474 17:0.46596575 18:0.51914757 19:0.41982189 20:0.61769563 21:0.54426551 22:0.53653073 23:0.64094639 24:0.59935373 25:0.46792245 26:0.25341055 27:0.47520408 28:0.93796134 29:0.24734916 30:0.54241621 31:0.54446948 32:0.29268846 33:0.53477108 34:0.46932983 35:0.61999631 36:0.43610969 37:0.36949602 38:0.23309486 39:0.4173305 40:0.85912347 41:0.71352309 42:0.88945204 43:0.42017904 44:0.55279404 45:0.7212199 46:0.71556139 47:0.5600971 48:0.24563521 
-0 -0 0 0.7978961739029456 0 0 0 0 0 2.005344131017081 0 0 0.6545341580765935 0 0 0.1670253016296809 0 0 0 0 0 0 0 0 0 0 1:0.4529199 2:0.66295582 3:0.32216334 4:0.31924346 5:0.70196199 6:0.45402762 7:0.44489232 8:0.68181509 9:0.68599719 10:0.41708827 11:0.45209652 12:0.55896473 13:0.67194575 14:0.64929974 15:0.60162109 16:0.53359538 17:0.40966481 18:0.55935216 19:0.25814328 20:0.33481902 21:0.43512511 22:0.53760821 23:0.56796229 24:0.4847531 25:0.51663864 26:0.24361622 27:0.58024794 28:0.7542125 29:0.19704671 30:0.50036865 31:0.40320477 32:0.098838948 33:0.61985505 34:0.59289479 35:0.68943471 36:0.38724902 37:0.20993041 38:0.33193758 39:0.36726019 40:0.78591651 41:0.5783869 42:0.70655239 43:0.41010332 44:0.44051754 45:0.58203077 46:0.72865736 47:0.47265711 48:0.33219096 
-0 -0 0.7046900958138044 0 0 0 0 0 0 0 0 0 0 0 0 0 0 0 4.809994979016657 0 0 0 0 0 0.04613168262953677 0.8120661719531564 1:0.55566627 2:0.50263953 3:0.17071424 4:0.61985987 5:0.45263171 6:0.35550269 7:0.52808863 8:0.58899456 9:0.69677377 10:0.31946763 11:0.37946862 12:0.51557255 13:0.57407606 14:0.44070202 15:0.56211394 16:0.4581452 17:0.55807942 18:0.37167534 19:0.31214646 20:0.38095966 21:0.4534122 22:0.61381066 23:0.64960897 24:0.57961863 25:0.50248277 26:0.1855489 27:0.55233985 28:0.78315651 29:0.27554399 30:0.47847182 31:0.44622585 32:0.12687051 33:0.5905298 34:0.67775863 35:0.62347335 36:0.45832187 37:0.19760902 38:0.4770678 39:0.25629383 40:0.81593615 41:0.66874492 42:0.66445959 43:0.27258116 44:0.35206291 45:0.49250656 46:0.68802261 47:0.52118832 48:0.33569291 
-0 -0 0.38008122070934 0.728124788342382 0.8223984528321497 0 0 4.531754687840925 1.697551991886896 0 0 2.753905775369689 1.813389972845826 1.916169142906343 0 0 1.084668171653635 0.313429731197777 0 0 4.402724310736543 3.147097323372749 0 0.3405250300800223 0 0 1:0.35837269 2:0.4841941 3:0.35834059 4:0.61595011 5:0.28899866 6:0.48452961 7:0.38840187 8:0.43748322 9:0.71575665 10:0.43265548 11:0.4645099 12:0.72317195 13:0.68197137 14:0.40479967 15:0.42948788 16:0.58945894 17:0.51321203 18:0.44980073 19:0.36280704 20:0.33179384 21:0.53537172 22:0.56181413 23:0.58853793 24:0.46576607 25:0.53956503 26:0.12940298 27:0.55171913 28:0.7924794 29:0.26689756 30:0.52303332 31:0.44004813 32:0.17386656 33:0.65287602 34:0.64992446 35:0.75895995 36:0.39238778 37:0.19228706 38:0.37529075 39:0.33104736 40:0.84115255 41:0.68902612 42:0.68453026 43:0.5018484 44:0.39677453 45:0.42791855 46:0.77778077 47:0.52269959 48:0.36113667 
-0 -0.6833388555497545 1.50963411152418 0 0 0 0.3697038117842826 0 3.377796877382001 0 1.862813255829943 0 0 0 2.108918928653859 0.1642496563213631 1.054212851748333 1.424935342431864 0.6708173654891714 0 0 0 0 0 0.2083615906367869 0 1:0.45390964 2:0.44617587 3:0.46460271 4:0.71011853 5:0.21121159 6:0.4497835 7:0.42833158 8:0.34190467 9:0.57587004 10:0.45155954 11:0.46450275 12:0.56106377 13:0.58784026 14:0.48290172 15:0.49678832 16:0.62296975 17:0.72566104 18:0.48924026 19:0.39085221 20:0.48171076 21:0.78232539 22:0.60834813 23:0.82624894 24:0.74361396 25:0.47358868 26:0.089560382 27:0.42332429 28:0.96013057 29:0.36177939 30:0.45406789 31:0.4833256 32:0.24571288 33:0.66462046 34:0.5794313 35:0.63659102 36:0.38129926 37:0.2071202 38:0.48391974 39:0.31822357 40:0.88037449 41:0.60972953 42:0.82505172 43:0.43046588 44:0.42187154 45:0.54456049 46:0.70776856 47:0.59357321 48:0.27209795 
-0 -0 0 0.5595726659868998 0 0 0 0 0 1.369309933256875 0 0.7443887343861904 0.1072433930145447 0 0 0 0 0 0 0 0 0 0 0 0 0.4096517702060061 1:0.47098672 2:0.41607416 3:0.63369423 4:0.51431793 5:0.39315119 6:0.56984526 7:0.48433623 8:0.7880646 9:0.90048254 10:0.25737157 11:0.33732697 12:0.66831684 13:0.71312851 14:0.5566777 15:0.46692783 16:0.44496685 17:0.40412658 18:0.47958881 19:0.21096347 20:0.3097809 21:0.53008229 22:0.52598375 23:0.72294205 24:0.42515922 25:0.42300573 26:0.23023818 27:0.62057781 28:0.97540522 29:0.24005279 30:0.34627846 31:0.51559269 32:0.2481204 33:0.52193153 34:0.6434195 35:0.74423492 36:0.46984842 37:0.43404824 38:0.26750824 39:0.37242749 40:0.75853008 41:0.61074728 42:0.65260011 43:0.39514259 44:0.44415173 45:0.63902336 46:0.78597558 47:0.55709708 48:0.3076933 
-0 -0 0 0 0 0 0 0 0 0 0 0 0 0 0 3.843555265146421 0 0 0 0 0 0 0 0 0 0 1:0.54276359 2:0.42308953 3:0.46442777 4:0.63065612 5:0.30653211 6:0.50495529 7:0.54634154 8:0.63110328 9:0.77075779 10:0.3738825 11:0.4456172 12:0.57849884 13:0.55291027 14:0.57678211 15:0.47746822 16:0.54889566 17:0.49772891 18:0.40224499 19:0.30812865 20:0.43267068 21:0.62996203 22:0.5661037 23:0.6290307 24:0.65855193 25:0.36503589 26:0.065886594 27:0.45865464 28:1 29:0.31328097 30:0.44900608 31:0.49934307 32:0.17205039 33:0.57735562 34:0.64787602 35:0.61460793 36:0.46197391 37:0.25308126 38:0.3788422 39:0.24282348 40:0.84809256 41:0.58236128 42:0.69681364 43:0.38455173 44:0.38348618 45:0.57356411 46:0.72686124 47:0.54262149 48:0.34878829 
-0 -0 0 0 0 0.02221073124838679 0 0 0 0 0 0 0 0 0 2.403557562391967 0 0 0 0.0902299342124528 0 0 0.4097743254139629 0 0 0 1:0.59974271 2:0.42325053 3:0.52539057 4:0.67038167 5:0.12072863 6:0.49775785 7:0.32302824 8:0.33040515 9:0.62063199 10:0.30547151 11:0.60866779 12:0.51570988 13:0.64067185 14:0.36357564 15:0.483987 16:0.65758872 17:0.83154619 18:0.51134533 19:0.2576223 20:0.54908282 21:0.69887584 22:0.31414485 23:0.70134169 24:0.77785617 25:0.40040916 26:0.06165497 27:0.44710669 28:0.98629057 29:0.3655884 30:0.44121414 31:0.52305162 32:0.13000692 33:0.67986697 34:0.51060343 35:0.61098289 36:0.44886065 37:0.14112638 38:0.45925325 39:0.26969352 40:0.87188655 41:0.56841254 42:0.82434529 43:0.41437703 44:0.36719063 45:0.59029132 46:0.6863904 47:0.5935697 48:0.2725406 
-0 -1.352527833618003 0 1.656861431728574 0 0 0 0.4293152236227931 0.1825663762275215 0 0 0 1.511787700229959 0.05047697042708765 0 1.554812902523767 0.1967827556742164 0 0 0 0 0 0 1.308404868023928 0 3.519041560000702 1:0.42578992 2:0.5377652 3:0.55407017 4:0.61714894 5:0.53019851 6:0.42822078 7:0.73577279 8:0.55540723 9:0.80959475 10:0.40978286 11:0.1623835 12:0.52200902 13:0.4304741 14:0.37912032 15:0.44859296 16:0.65836406 17:0.67046857 18:0.45810139 19:0.14778776 20:0.27493092 21:0.45529029 22:0.33581123 23:0.6505776 24:0.46236652 25:0.28786057 26:0.22585031 27:0.58096433 28:0.69399887 29:0.27449566 30:0.47180057 31:0.49025583 32:0.19467235 33:0.59797102 34:0.64335942 35:0.54337853 36:0.50218076 37:0.26007676 38:0.40136531 39:0.3756949 40:0.84882069 41:0.52928984 42:0.65111017 43:0.35248956 44:0.32949966 45:0.55562431 46:0.67577136 47:0.55439687 48:0.3356604 
-0 -0 0 0 0 0 0 0 0 0 0 0 0 0 0.4813224458718823 0 0 0 0 0 0 0 0 0 0 0 1:0.46692932 2:0.5160228 3:0.64713252 4:0.50479394 5:0.37055144 6:0.57134557 7:0.56746864 8:0.65105158 9:0.84914136 10:0.29546317 11:0.44157231 12:0.63906145 13:0.55179852 14:0.65369678 15:0.62521547 16:0.52963471 17:0.57529837 18:0.3929294 19:0.24142791 20:0.61592752 21:0.56413001 22:0.68338215 23:0.65300661 24:0.52433687 25:0.42581907 26:0.082440794 27:0.60338598 28:0.8540051 29:0.29744658 30:0.41674277 31:0.57752568 32:0.18903315 33:0.52891994 34:0.5123834 35:0.69693631 36:0.42863044 37:0.35155874 38:0.25482634 39:0.398581 40:0.82396716 41:0.61754656 42:0.81853461 43:0.41425368 44:0.4605957 45:0.67477351 46:0.79456753 47:0.53875893 48:0.3452692 
-0 -0 -0 0 0 0 0 0 0 0 0 0 0 0 0 0 0 0 3.651933312041952e-06 0 0 0 0 0 0 0 1:0.18005708 2:0.832228 3:0.25577509 4:0.66810673 5:0.35653499 6:0.27370027 7:0.42623544 8:0.35202521 9:0.66590762 10:0.57589293 11:0.2986207 12:0.5372293 13:0.28755277 14:0.44210976 15:0.55417514 16:0.58879519 17:0.44142774 18:0.28791562 19:0.35085475 20:0.62016869 21:0.70205009 22:0.68704897 23:0.67304081 24:0.45726022 25:0.41888636 26:0.78040403 27:0.33321583 28:0.16956247 29:0.23253405 30:0.50863439 31:0.27723718 32:0.65180391 33:0.37644395 34:0.57544607 35:0.73409605 36:0.26644644 37:0.29759714 38:0.79864585 39:0.36423326 40:0.77738178 41:0.62411487 42:0.61242199 43:0.41653988 44:0.42531246 45:0.51907849 46:0.48655406 47:0.66823447 48:0.42281815 
-0 -0 -0 0 0 0 0 0 0 0 0 0 0 0 0 0 0 0 0 0 0 4.354812784241801e-06 0 0 0 0 1:0.45138842 2:0.58848333 3:0.31970128 4:0.48294678 5:0.38655457 6:0.30680925 7:0.40615755 8:0.30800208 9:0.63572335 10:0.51949829 11:0.45489055 12:0.57027191 13:0.46895158 14:0.56302202 15:0.54021811 16:0.60246241 17:0.51066387 18:0.35761967 19:0.39031953 20:0.4910447 21:0.65737075 22:0.75481057 23:0.69293892 24:0.54426861 25:0.47246522 26:0.63396901 27:0.3026866 28:0.1077659 29:0.33748838 30:0.4241139 31:0.26373535 32:0.58276373 33:0.37482065 34:0.59861469 35:0.72965592 36:0.47715926 37:0.34424463 38:0.73884863 39:0.3692092 40:0.79707128 41:0.68705767 42:0.66647589 43:0.43780118 44:0.42828023 45:0.46286097 46:0.49746418 47:0.72512507 48:0.40738699 
-0 -0 -0 0 0 0 0 0 0 0 0 0 0 0 0 0 0 0 7.352387666918682e-05 0 0 0 0 0 0 0 1:0.58180994 2:0.66691202 3:0.58388132 4:0.51495814 5:0.47678769 6:0.44529232 7:0.53613436 8:0.47696376 9:0.64938021 10:0.55009419 11:0.63895047 12:0.51814413 13:0.30749464 14:0.53067452 15:0.4825289 16:0.70374548 17:0.57933009 18:0.35730779 19:0.32459334 20:0.47097477 21:0.52415109 22:0.62898624 23:0.81236351 24:0.55432469 25:0.51933348 26:0.65458703 27:0.37648097 28:0.030481024 29:0.33148673 30:0.41374284 31:0.28729671 32:0.54390955 33:0.4598155 34:0.52880877 35:0.73775172 36:0.43198562 37:0.28398943 38:0.67994738 39:0.29436493 40:0.84885687 41:0.62377697 42:0.78533274 43:0.46851334 44:0.39114553 45:0.43189317 46:0.5137248 47:0.63580048 48:0.38092184 
-0 -0 -0 0 0 0 0 0 0 0 0 0 0 0 0 0 0 0 0 0 0 1.008030249075329e-06 0 0 0 0 1:0.62848723 2:0.34764186 3:0.64857006 4:0.59216899 5:0.53575695 6:0.71733809 7:0.30449128 8:0.6276592 9:0.74428517 10:0.52802664 11:0.73523813 12:0.52966601 13:0.55485439 14:0.73500341 15:0.3912746 16:0.31148645 17:0.51520503 18:0.27484205 19:0.43606842 20:0.5776118 21:0.7196309 22:0.73811716 23:0.78808159 24:0.68348294 25:0.4635402 26:0.54451245 27:0.37277943 28:0.11097466 29:0.39305967 30:0.51918167 31:0.44845548 32:0.60644513 33:0.46212763 34:0.58292848 35:0.61194915 36:0.45379892 37:0.18589596 38:0.67248929 39:0.21437664 40:0.75150323 41:0.68348461 42:0.69812673 43:0.49281269 44:0.38874391 45:0.47721171 46:0.52629501 47:0.67797869 48:0.38917491 
-0 -0 -0 0 0 0 0 0 0 0 0 0 0 0 0 0 0 0 8.267505908101813e-05 0 0 0 0 0 0 0 1:0.68457693 2:0.56685716 3:0.54549354 4:0.49431261 5:0.6104632 6:0.50116277 7:0.56489414 8:0.81540126 9:0.71361375 10:0.36066043 11:0.85998422 12:0.35268706 13:0.60208446 14:0.41111526 15:0.51064384 16:0.43684968 17:0.37513235 18:0.32405367 19:0.52584219 20:0.36580396 21:0.70685267 22:0.54175264 23:0.80409557 24:0.6368463 25:0.45137846 26:0.50945842 27:0.32704449 28:0.11583517 29:0.33483687 30:0.45419255 31:0.37328088 32:0.3887555 33:0.42367965 34:0.63410085 35:0.69104034 36:0.47751611 37:0.22098047 38:0.75172955 39:0.25584659 40:0.7621069 41:0.56535816 42:0.71876079 43:0.55816627 44:0.42360425 45:0.38762951 46:0.55378449 47:0.65940636 48:0.42895502 
-3.054516018597586 -1.626842092572697 -3.380131633447082 1.322679939737098 0.178646083233646 1.425884256100568 1.163559893935544 2.502285527413544 2.217716865979961 3.349050674453756 3.509649879737581 1.942453636576313 2.12177811991058 0.6129860608171955 0 2.780329772644263 4.479991504257705 2.074952284691567 1.942832611294307 1.592323209181591 2.74943942947109 0.173501131172988 2.534270188814299 2.441329907253963 1.665985211835334 2.018944241410856 1:0.68457693 2:0.56685716 3:0.54549354 4:0.49431261 5:0.6104632 6:0.50116277 7:0.56489414 8:0.81540126 9:0.71361375 10:0.36066043 11:0.85998422 12:0.35268706 13:0.60208446 14:0.41111526 15:0.51064384 16:0.43684968 17:0.37513235 18:0.32405367 19:0.52584219 20:0.36580396 21:0.70685267 22:0.54175264 23:0.80409557 24:0.6368463 25:0.45137846 26:0.50945842 27:0.32704449 28:0.11583517 29:0.33483687 30:0.45419255 31:0.37328088 32:0.3887555 33:0.42367965 34:0.63410085 35:0.69104034 36:0.47751611 37:0.22098047 38:0.75172955 39:0.25584659 40:0.7621069 41:0.56535816 42:0.71876079 43:0.55816627 44:0.42360425 45:0.38762951 46:0.55378449 47:0.65940636 48:0.42895502 
-0 -1.838936209230231 -3.122185506661693 2.302898184370974 0.7080853495521898 1.522709277051509 2.909403797410305 2.02603854199582 2.855025827595571 0.7375145084839801 2.46004639342276 3.366689930973349 3.476047478082636 1.160534232096254 0 2.287837632754079 3.922895362631312 3.255595412751783 2.774163222823137 2.426704016592849 2.362069736527514 2.782177001857997 2.736347887277206 4.173435915721485 2.594121208086788 3.380447635537259 1:0.18005708 2:0.832228 3:0.25577509 4:0.66810673 5:0.35653499 6:0.27370027 7:0.42623544 8:0.35202521 9:0.66590762 10:0.57589293 11:0.2986207 12:0.5372293 13:0.28755277 14:0.44210976 15:0.55417514 16:0.58879519 17:0.44142774 18:0.28791562 19:0.35085475 20:0.62016869 21:0.70205009 22:0.68704897 23:0.67304081 24:0.45726022 25:0.41888636 26:0.78040403 27:0.33321583 28:0.16956247 29:0.23253405 30:0.50863439 31:0.27723718 32:0.65180391 33:0.37644395 34:0.57544607 35:0.73409605 36:0.26644644 37:0.29759714 38:0.79864585 39:0.36423326 40:0.77738178 41:0.62411487 42:0.61242199 43:0.41653988 44:0.42531246 45:0.51907849 46:0.48655406 47:0.66823447 48:0.42281815 
-0 -0 -0 0.02506653145729534 0 0 0 0 0 0 0 0 0 0 0 0 0 0 0 0 0 0 0.6363972784316474 0 0 0 1:0.63964623 2:0.44769427 3:0.23810025 4:0.70663118 5:0.46966082 6:0.55453581 7:0.50552237 8:0.5656209 9:0.8203811 10:0.53222054 11:0.43597943 12:0.2951991 13:0.37463012 14:0.39205489 15:0.28765237 16:0.47792721 17:0.55203611 18:0.37790307 19:0.32200837 20:0.50443763 21:0.70504594 22:0.59637558 23:0.57247043 24:0.63596433 25:0.44758376 26:0.71450227 27:0.17471327 28:0.091235876 29:0.4073357 30:0.47510207 31:0.18483701 32:0.52054095 33:0.45596576 34:0.52942133 35:0.77570909 36:0.32095921 37:0.28755495 38:0.69492346 39:0.32095885 40:0.85872436 41:0.60647464 42:0.7848208 43:0.45226949 44:0.36919034 45:0.35308874 46:0.54134643 47:0.66147768 48:0.35910267 
-1.751479203469195 -0 -0.03103601391065721 0 0 1.271681329614485 0 0 0 0 0 0 0 0 0 0.03737216451878564 0 0.3595826525761649 0 0 0 0 0 0 1.671275035176103 0 1:0.79895353 2:0.47767928 3:0.37828225 4:0.85217458 5:0.530536 6:0.3826386 7:0.65767598 8:0.67830735 9:0.77895445 10:0.53920621 11:0.41997808 12:0.4202168 13:0.43455362 14:0.27504864 15:0.58254075 16:0.36760041 17:0.50288981 18:0.37261742 19:0.53043377 20:0.49862033 21:0.78405309 22:0.50780451 23:0.58077109 24:0.74612939 25:0.32717746 26:0.75565225 27:0.17838803 28:0.10718952 29:0.35723796 30:0.47395194 31:0.32363394 32:0.40179744 33:0.27617678 34:0.59480554 35:0.60727519 36:0.46494693 37:0.24466212 38:0.77513492 39:0.32676291 40:0.80707568 41:0.63279575 42:0.77700472 43:0.42954868 44:0.38704208 45:0.42616314 46:0.54229373 47:0.67308331 48:0.30754942 
-3.84621086058812 -1.36293413416541 -0 0 1.130595753873766 1.938641311690164 0 0.1001282912543976 0.7643840960184588 1.22254513230339 0 0 0 3.301378864873076 3.040327232066884 0 0 0 0 0.9522944291496661 0 1.576135402954243 0 0 0.4158885162709638 1.684939468654641 1:0.45138842 2:0.58848333 3:0.31970128 4:0.48294678 5:0.38655457 6:0.30680925 7:0.40615755 8:0.30800208 9:0.63572335 10:0.51949829 11:0.45489055 12:0.57027191 13:0.46895158 14:0.56302202 15:0.54021811 16:0.60246241 17:0.51066387 18:0.35761967 19:0.39031953 20:0.4910447 21:0.65737075 22:0.75481057 23:0.69293892 24:0.54426861 25:0.47246522 26:0.63396901 27:0.3026866 28:0.1077659 29:0.33748838 30:0.4241139 31:0.26373535 32:0.58276373 33:0.37482065 34:0.59861469 35:0.72965592 36:0.47715926 37:0.34424463 38:0.73884863 39:0.3692092 40:0.79707128 41:0.68705767 42:0.66647589 43:0.43780118 44:0.42828023 45:0.46286097 46:0.49746418 47:0.72512507 48:0.40738699 
-0 -0 -1.160974436278967 0 0 0 0 0 0 1.207325790462384 0.7299997829966256 0 0 0 0 0 0 0 0.7348901013348463 0 0 0 0 0 0 0 1:0.58180994 2:0.66691202 3:0.58388132 4:0.51495814 5:0.47678769 6:0.44529232 7:0.53613436 8:0.47696376 9:0.64938021 10:0.55009419 11:0.63895047 12:0.51814413 13:0.30749464 14:0.53067452 15:0.4825289 16:0.70374548 17:0.57933009 18:0.35730779 19:0.32459334 20:0.47097477 21:0.52415109 22:0.62898624 23:0.81236351 24:0.55432469 25:0.51933348 26:0.65458703 27:0.37648097 28:0.030481024 29:0.33148673 30:0.41374284 31:0.28729671 32:0.54390955 33:0.4598155 34:0.52880877 35:0.73775172 36:0.43198562 37:0.28398943 38:0.67994738 39:0.29436493 40:0.84885687 41:0.62377697 42:0.78533274 43:0.46851334 44:0.39114553 45:0.43189317 46:0.5137248 47:0.63580048 48:0.38092184 
-0 -0 -0 0 0 0 0 0 0 0 0 0 0 0 1.851424077487883 0 0 0 0 0 0 0 0 0 0 0 1:0.39666486 2:0.63635266 3:0.46181616 4:0.61247712 5:0.48759678 6:0.66628098 7:0.43682435 8:0.70452613 9:0.70567006 10:0.34415233 11:0.46430907 12:0.31016153 13:0.52372545 14:0.51396853 15:0.43803093 16:0.43432766 17:0.5879634 18:0.42388463 19:0.48500073 20:0.5110392 21:0.6936053 22:0.55266827 23:0.74746251 24:0.6328671 25:0.4281604 26:0.641729 27:0.26454443 28:8.4190501e-16 29:0.33250874 30:0.4170416 31:0.30308375 32:0.47460178 33:0.41982543 34:0.62561256 35:0.78686839 36:0.35802534 37:0.23235843 38:0.6708222 39:0.26628509 40:0.81755197 41:0.60000592 42:0.74163705 43:0.48663107 44:0.38544244 45:0.45467085 46:0.54433721 47:0.68107444 48:0.47267714 
-2.263189766445123 -1.965220329234432 -2.572413323241591 3.027976406226577 3.460385337650028 1.167663133264741 2.771070583380938 2.322948527658367 1.830565867796771 2.157209204285493 1.319632934235982 1.610036253042587 2.257691745265516 1.718516375338195 1.497353548462012 2.014118840247903 0.2667031300597365 1.601826093281483 0.8133775226990855 0.667597648914763 3.325549088585166 2.698247473778435 1.311342465845683 2.116733149521809 1.106505135146387 1.523206039438984 1:0.79877532 2:0.73368412 3:0.46005446 4:0.5724144 5:0.31202793 6:0.71659237 7:0.3803713 8:0.57998085 9:0.63671178 10:0.43152022 11:0.20487355 12:0.55395073 13:0.88504142 14:0.16669334 15:0.43379313 16:0.80095887 17:0.613949 18:0.46573886 19:0.45484194 20:0.33392584 21:0.71145469 22:0.66206849 23:0.61636227 24:0.69483042 25:0.33720639 26:0.56734854 27:0.12743831 28:0.039032362 29:0.35286066 30:0.46891293 31:0.28272575 32:0.21475379 33:0.51965684 34:0.60244322 35:0.71467817 36:0.39641392 37:0.29429397 38:0.56655163 39:0.46059206 40:0.68065107 41:0.61698461 42:0.70307118 43:0.60153019 44:0.34362814 45:0.42303756 46:0.58214968 47:0.63545781 48:0.29226714 
-0 -2.24833482924392 -2.348205227818241 2.810380452846819 6.844825409969276 2.04557936344304 2.823005477966065 0.4372129356488302 1.614662941727104 1.423568367150661 2.053998779025411 3.412155854330112 2.292740973458816 3.102267289935569 2.270992341454604 2.73092981672894 0.1906941778930816 1.933303791076446 3.264364951993576 3.685803232079736 1.405164219850045 1.148891748419594 1.265983289060006 2.479454488986199 3.269371910144399 3.587732960119062 1:0.62848723 2:0.34764186 3:0.64857006 4:0.59216899 5:0.53575695 6:0.71733809 7:0.30449128 8:0.6276592 9:0.74428517 10:0.52802664 11:0.73523813 12:0.52966601 13:0.55485439 14:0.73500341 15:0.3912746 16:0.31148645 17:0.51520503 18:0.27484205 19:0.43606842 20:0.5776118 21:0.7196309 22:0.73811716 23:0.78808159 24:0.68348294 25:0.4635402 26:0.54451245 27:0.37277943 28:0.11097466 29:0.39305967 30:0.51918167 31:0.44845548 32:0.60644513 33:0.46212763 34:0.58292848 35:0.61194915 36:0.45379892 37:0.18589596 38:0.67248929 39:0.21437664 40:0.75150323 41:0.68348461 42:0.69812673 43:0.49281269 44:0.38874391 45:0.47721171 46:0.52629501 47:0.67797869 48:0.38917491 
-0.9600871960911675 -0 -0 0.3047357281514196 0.02590588974868907 0 0 2.194041913523491 2.266516003834034 0.6185139536626585 1.714641404389928 0 0 0.1256733868794205 0 0 1.572982547380079 0 0 0 1.503840638123743 6.556619308542659 0.6865727479091547 0 0 0 1:0.35798737 2:0.43950772 3:0.4733384 4:0.57248658 5:0.40567437 6:0.53875512 7:0.44738957 8:0.55383819 9:0.74298036 10:0.48034242 11:0.64475048 12:0.44731286 13:0.52424055 14:0.79709649 15:0.3917135 16:0.45947981 17:0.4120613 18:0.29827639 19:0.36534053 20:0.46428356 21:0.65175426 22:0.89810508 23:0.77680939 24:0.61735207 25:0.44131404 26:0.60061055 27:0.34490743 28:0.134569 29:0.44096261 30:0.44812521 31:0.40390298 32:0.57383639 33:0.40812272 34:0.64926094 35:0.71766931 36:0.51171452 37:0.23316738 38:0.66721916 39:0.30555052 40:0.79952103 41:0.59965163 42:0.70248717 43:0.53807819 44:0.39930862 45:0.41400942 46:0.56374848 47:0.71763754 48:0.42017171 
-0 -0 -3.9398865776479e-05 -0 0 0 0 0 0 0 0 0 0 0 0 0 0 0 0 0 0 0 0 0 0 0 1:0.55540097 2:0.56733525 3:0.093737222 4:0.48289099 5:0.39321718 6:0.67922574 7:0.61889261 8:0.77261096 9:0.68675309 10:0.72167349 11:0.73606861 12:0.36102152 13:0.61299634 14:0.32158372 15:0.35724449 16:0.51700437 17:0.61721271 18:0.53404224 19:0.45604271 20:0.45073503 21:0.3917349 22:0.52580529 23:0.62162232 24:0.42311129 25:0.27880031 26:0.25336793 27:0.51584083 28:0.60908514 29:0.28942394 30:0.46882752 31:0.32713792 32:0.40992957 33:0.45334888 34:0.5556348 35:0.75069481 36:0.50760961 37:0.32939139 38:0.25693044 39:0.81121278 40:0.41888794 41:0.45462522 42:0.58415407 43:0.33541936 44:0.38267797 45:0.46456552 46:0.56774026 47:0.39245951 48:0.057173442 
-0 -0 -6.021262155417025e-05 -0 0 0 0 0 0 0 0 0 0 0 0 0 0 0 0 0 0 0 0 0 0 0 1:0.49157184 2:0.68733364 3:0.59089047 4:0.7431426 5:0.41167021 6:0.38052318 7:0.45115396 8:0.60178572 9:0.72107154 10:0.62914079 11:0.53461272 12:0.38762009 13:0.62510574 14:0.59498179 15:0.38757873 16:0.24795118 17:0.54549313 18:0.39886382 19:0.50864458 20:0.58022344 21:0.46720973 22:0.50513792 23:0.7468313 24:0.35686785 25:0.22168286 26:0.4532128 27:0.36108586 28:0.5789144 29:0.30050185 30:0.4806475 31:0.41708958 32:0.50007296 33:0.32993543 34:0.63339406 35:0.81056541 36:0.45930207 37:0.25800556 38:0.20581645 39:0.7764293 40:0.38877398 41:0.45376566 42:0.445012 43:0.30496967 44:0.43965042 45:0.48741806 46:0.47795719 47:0.37471861 48:0.0022072762 
-0 -0 -1.532777764965458e-05 -0 0 0 0 0 0 0 0 0 0 0 0 0 0 0 0 0 0 0 0 0 0 0 1:0.6837427 2:0.56287545 3:0.40283021 4:0.64917856 5:0.57604063 6:0.45882651 7:0.41187119 8:0.40240926 9:0.71392351 10:0.61535472 11:0.56226027 12:0.45552778 13:0.52660108 14:0.51912928 15:0.56878495 16:0.34123665 17:0.573829 18:0.4046154 19:0.33706394 20:0.54623854 21:0.19447795 22:0.067680411 23:0.69738346 24:0.51604533 25:0.13639781 26:0.71298039 27:0.45068428 28:0.61811471 29:0.20698917 30:0.46577436 31:0.26860169 32:0.3194527 33:0.41169548 34:0.48593116 35:0.87593782 36:0.43640539 37:0.25555906 38:0.19569388 39:0.92982394 40:0.46887118 41:0.56493658 42:0.37682834 43:0.42349756 44:0.43317154 45:0.43132323 46:0.41116726 47:0.30710399 48:0.062618174 
-0 -0 -3.51223771648167e-05 -0 0 0 0 0 0 0 0 0 0 0 0 1.798115929751884e-06 0 0 0 0 0 0 0 0 0 0 1:0.5572468 2:0.38448551 3:0.64148295 4:0.69829041 5:0.42011839 6:1 7:0.66168088 8:0.45989537 9:0.7979179 10:0.75036597 11:0.4605327 12:0.38717484 13:0.36515009 14:0.62021428 15:0.53651077 16:0.68086553 17:0.63460881 18:0.60695434 19:0.2767821 20:0.46896467 21:0.60988897 22:0.4527337 23:0.66494441 24:0.36445567 25:0.5424515 26:0.44872212 27:0.51220942 28:0.5163427 29:0.44876862 30:0.63192749 31:0.51971453 32:0.7751537 33:0.39597964 34:0.47785112 35:0.68359691 36:0.59420723 37:0.27406141 38:0.37243354 39:0.75591928 40:0.26802808 41:0.50124139 42:0.5325284 43:0.29033318 44:0.28258175 45:0.5040338 46:0.51448953 47:0.48168534 48:0.013028249 
