svm_type c_svc
kernel_type rbf
gamma 0.09
nr_class 36
total_sv 2325
rho -0.0922762 0.45303 0.278422 -0.245943 0.136561 -0.367789 -0.0722763 -0.050271 -0.618884 -0.373743 -0.352371 -0.39182 -0.507503 -0.112573 -0.104117 -0.153989 -0.565088 -0.26331 -0.0564591 -0.666422 -0.499939 -0.0853249 0.0928046 0.0466125 0.238219 -0.420391 -0.511549 -0.2754 -0.331241 -0.127706 -0.510663 0.00203273 -0.48049 0.0455112 -0.388264 0.635582 0.552141 -0.250465 0.211628 -0.201817 -0.0865318 -0.0446315 -0.629736 -0.438621 -0.308307 -0.310605 -0.528774 -0.0210726 -0.0319126 -0.281756 -0.432038 -0.296107 -0.245203 -0.703311 -0.449768 0.141219 0.243767 -0.014537 0.119968 -0.39988 -0.478322 -0.296166 -0.259546 -0.11835 -0.137671 -0.00927724 -0.445379 0.143846 -0.348541 0.137668 -0.883223 -0.124937 -0.668866 -0.435991 -0.305248 -1.05309 -1.14658 -0.795377 -0.893908 -0.856132 -0.151102 -0.459416 -0.531051 -0.784953 -0.724729 -0.726305 -0.955757 -0.812289 -0.351716 0.19825 -0.510635 -0.0697784 -0.93644 -0.88973 -0.585847 -0.454358 -0.977995 -0.786846 -0.523068 -0.999503 -0.580628 -1.03658 -0.452886 -0.267465 -0.851796 -0.453592 -0.284497 -0.875182 -0.744744 -0.624318 -0.840996 -0.9778 -0.426049 -0.426605 -0.554851 -0.727153 -0.54847 -0.549682 -0.821901 -0.737175 -0.34203 -0.025081 -0.543005 -0.00597864 -0.650057 -0.857729 -0.522965 -0.529425 -0.443517 -0.691131 -0.443265 -0.842962 -0.238248 -1.03526 0.14175 -0.0731674 0.115301 0.205453 -0.457841 -0.368174 -0.289922 -0.377383 -0.419809 0.00330416 0.0254143 -0.177828 -0.457315 -0.300678 -0.243382 -0.50876 -0.487793 0.144267 0.381392 0.18998 0.301812 -0.230696 -0.449188 -0.163616 -0.223792 -0.00794795 -0.174275 0.0688146 -0.45964 0.342373 -0.4563 -0.376321 -0.080211 -0.175066 -0.71195 -0.577637 -0.513752 -0.530364 -0.767443 -0.321181 -0.486683 -0.509742 -0.4786 -0.614822 -0.50304 -0.525831 -0.592639 -0.243562 0.095829 0.142285 0.320989 -0.487016 -0.577225 -0.410543 -0.382929 -0.0567907 -0.225174 -0.103615 -0.583703 0.0768201 -0.713456 0.505147 0.114615 -0.499478 -0.359305 -0.215481 -0.241588 -0.382663 0.12277 0.237491 -0.19734 -0.306434 -0.122632 -0.0930454 -0.403287 -0.252654 0.269383 0.31953 0.0596487 0.25561 -0.213944 -0.217283 -0.148924 -0.201887 0.0301947 -0.171018 0.0497452 -0.325536 0.440613 -0.311592 -0.00369132 -0.539109 -0.451802 -0.378559 -0.495168 -0.493423 -0.172428 -0.13468 -0.342323 -0.362226 -0.311543 -0.217596 -0.511551 -0.529137 0.0642719 0.284331 -0.0428442 0.17706 -0.340861 -0.434025 -0.289937 -0.357202 0.00822447 -0.0757565 -0.130468 -0.636209 0.216469 -0.389668 -0.490688 -0.38346 -0.208502 -0.388776 -0.193894 0.010399 0.00704457 -0.167456 -0.345778 -0.216506 -0.0734278 -0.375007 -0.389451 0.116142 0.256392 0.00822715 0.231658 -0.382524 -0.424321 -0.23353 -0.245845 0.0947315 -0.0128893 -0.198989 -0.393323 0.218121 -0.331839 0.123082 0.210712 0.155309 0.130191 0.319351 0.404757 0.258377 0.0577061 0.162513 0.229235 -0.0247733 0.00296091 0.431044 0.64729 0.598029 0.572326 0.103664 0.0466714 0.155984 0.134707 0.601829 0.541225 0.580814 0.0140328 0.753032 0.119946 0.385555 0.0354152 -0.0931932 0.304648 0.376691 0.0700434 -0.145444 0.0820335 0.0942577 -0.202394 -0.110007 0.46718 0.674784 0.378751 0.481748 -0.058822 0.0244858 0.231654 0.0463704 0.372508 0.386153 0.528103 -0.0630621 0.776576 -0.0562902 0.00467308 -0.1174 0.185217 0.181746 -0.0294319 -0.188788 -0.0362308 0.113242 -0.1648 -0.160729 0.239749 0.545979 0.344569 0.525869 0.0424801 -0.152814 0.0971804 0.0416101 0.452288 0.196657 0.397061 -0.152658 0.597736 -0.21017 -0.200891 0.291885 0.206388 0.0507232 -0.177773 -0.00327651 0.000907296 -0.192186 -0.093992 0.265648 0.519137 0.344529 0.568878 -0.0534791 -0.145837 0.0284281 0.105731 0.435022 0.214499 0.496085 -0.192608 0.932899 -0.189156 0.231314 0.383219 0.214556 -0.0474199 0.00796273 0.131845 -0.15206 -0.102288 0.464727 0.640965 0.486516 0.570988 0.00667237 0.0114162 0.0983714 0.116223 0.325957 0.206743 0.506825 -0.143618 0.917618 0.0698069 -0.0195481 -0.059008 -0.193598 -0.202315 -0.124644 -0.382231 -0.319851 0.215823 0.435629 0.186041 0.300577 -0.274415 -0.249493 -0.103043 -0.100131 0.0117732 -0.0573769 -0.00524391 -0.531794 0.333416 -0.315071 -0.170808 -0.217776 -0.164988 -0.185789 -0.293134 -0.122879 0.133712 0.30594 0.0688793 0.201392 -0.182089 -0.234252 -0.111344 -0.138185 -0.00419866 -0.0564982 0.205047 -0.353204 0.14945 -0.405039 -0.149429 -0.18891 -0.011004 -0.204294 -0.203289 0.237695 0.391707 0.182518 0.284223 -0.107221 -0.193481 -0.0657505 -0.0869392 0.14184 0.112321 0.313671 -0.300642 0.468323 -0.230155 0.102316 0.134925 -0.0534353 -0.0279465 0.359311 0.500794 0.560266 0.426442 0.0384052 0.0847218 0.167466 0.0638258 0.382348 0.244884 0.393656 0.0373535 0.618643 -0.033423 0.0600246 -0.0742351 -0.0741147 0.276086 0.465616 0.308584 0.382219 -0.0386118 -0.106794 0.0633003 0.0167175 0.247912 0.171634 0.151989 -0.175914 0.658383 -0.0579246 -0.276834 -0.2702 0.281263 0.370556 0.345196 0.359627 -0.150947 -0.19132 -0.0792907 -0.0608018 0.235332 0.147108 0.363337 -0.175758 0.659325 -0.242541 0.0942163 0.628368 0.571612 0.547864 0.56783 0.192332 0.108931 0.133978 0.118176 0.432417 0.502649 0.557328 0.0724827 0.760565 0.0109298 0.357729 0.448962 0.430426 0.575737 0.0758358 0.086639 0.0825674 0.150058 0.293132 0.28768 0.4576 0.0549071 0.809381 -0.0155587 0.611102 0.0244829 0.145446 -0.247092 -0.443786 -0.330777 -0.279995 -0.196885 -0.0776046 0.00375362 -0.476675 0.23559 -0.414486 -0.141806 -0.0057804 -0.426242 -0.599749 -0.430151 -0.3699 -0.0790242 -0.195036 -0.295097 -0.538788 -0.19348 -0.532614 0.509008 -0.384927 -0.397286 -0.296332 -0.34925 -0.114973 -0.228046 -0.124611 -0.30228 0.177513 -0.468012 -0.424163 -0.539168 -0.35223 -0.401356 -0.144705 -0.168593 -0.228796 -0.384252 -0.0744748 -0.48033 -0.0792436 0.0619576 0.136936 0.127172 0.311341 0.355564 0.0070127 0.619907 -0.110657 0.155723 0.102144 0.406646 0.280825 0.52515 -0.00610981 0.687197 0.0308834 -0.023756 0.197141 0.130921 0.333846 -0.0581272 0.456568 -0.14645 0.198103 0.12737 0.357277 -0.0508799 0.459272 -0.0953127 -0.157408 0.025078 -0.296119 0.128614 -0.447712 0.31082 -0.457307 0.534675 -0.224515 -0.61057 0.136515 -0.371141 0.676496 0.0527165 -0.642214
label 2001 2001657 2004 2004657 20101 20102 2010657 2010658 2011 2011657 20121 20122 2012657 2012658 2021 2021657 20221 20222 20223 2022657 2022658 2022659 20231 20232 2023657 2023658 2024 2024657 2025 2025657 2031 2031657 20411 20412 2041657 2041658
probA -4.74556 -5.31208 -4.74283 -4.35212 -4.34904 -4.41391 -4.48192 -4.51599 -4.90191 -4.58936 -4.36556 -4.55489 -4.33572 -4.66496 -4.58866 -4.40864 -4.37081 -4.56898 -4.19589 -4.48762 -4.4233 -4.6362 -4.85682 -4.64814 -4.84312 -4.52037 -4.44081 -4.71159 -4.6511 -4.92579 -4.87276 -4.87766 -4.55571 -4.83921 -4.52801 -5.17675 -4.8109 -4.44229 -4.43248 -4.48233 -4.47688 -4.6182 -4.82121 -4.56584 -4.44655 -4.65533 -4.47591 -4.56919 -4.60823 -4.12627 -4.52152 -4.50796 -4.35022 -4.34646 -4.55875 -4.68831 -4.79779 -4.65215 -4.87638 -4.49682 -4.49296 -4.58849 -4.68996 -4.93052 -4.91983 -4.83628 -4.55599 -4.93676 -4.57634 -4.70828 -4.82157 -4.86925 -4.96773 -4.72868 -4.8456 -5.40742 -4.92088 -4.79634 -5.08711 -4.94468 -4.8996 -5.03516 -4.60896 -5.10038 -4.87306 -4.79699 -4.92272 -5.03061 -4.89377 -5.26699 -5.15236 -5.40365 -4.83481 -4.97528 -5.19266 -5.24262 -5.3852 -5.39369 -5.21235 -4.83388 -5.27934 -4.87965 -4.44623 -4.31924 -4.35645 -4.40385 -4.3346 -4.8113 -4.52055 -4.37576 -4.45293 -4.36209 -4.55474 -4.34305 -4.35892 -4.4134 -4.57866 -4.24535 -4.44398 -4.38752 -4.63118 -4.81458 -4.36225 -4.60507 -4.476 -4.41911 -4.62791 -4.56375 -4.87637 -4.80147 -4.77954 -4.44646 -4.93333 -4.40377 -3.98844 -4.2217 -4.02356 -3.96979 -4.57988 -4.13022 -4.06211 -4.15448 -3.91325 -4.21937 -4.16667 -4.05408 -4.1657 -4.21711 -3.88645 -4.11768 -4.07213 -4.29998 -4.35827 -4.32567 -4.4097 -4.12549 -4.11206 -4.37928 -4.16951 -4.57231 -4.47087 -4.44501 -4.16558 -4.45852 -4.14166 -4.14441 -4.25281 -4.07408 -4.44915 -4.1083 -3.94005 -4.15501 -3.89314 -4.23726 -4.20193 -3.87116 -4.21497 -4.09326 -3.86393 -4.05337 -4.04038 -4.21901 -4.40543 -4.23563 -4.38893 -4.09903 -4.13256 -4.29816 -4.37849 -4.584 -4.55066 -4.46627 -4.13041 -4.29268 -4.12546 -3.914 -4.17 -4.52822 -4.25967 -3.98987 -4.35718 -4.16737 -4.26151 -4.2611 -3.90399 -4.22689 -4.24121 -4.11712 -4.19894 -4.24371 -4.40136 -4.50877 -4.28419 -4.5031 -4.19938 -4.20258 -4.27762 -4.43513 -4.4864 -4.68512 -4.49823 -4.05268 -4.53752 -4.21706 -4.07165 -4.39611 -4.18835 -4.02727 -4.19585 -3.9476 -4.15504 -4.32199 -3.90395 -4.13607 -4.21405 -3.98042 -4.15125 -4.18372 -4.30659 -4.4626 -4.33339 -4.38487 -4.14896 -4.12837 -4.34279 -4.30034 -4.56403 -4.65719 -4.33976 -4.10454 -4.58667 -4.0955 -4.44625 -4.20879 -4.08017 -4.12549 -3.93103 -4.15821 -4.17852 -3.94671 -4.17502 -4.15254 -3.92287 -4.11813 -4.16437 -4.13299 -4.43166 -4.16557 -4.3382 -4.13261 -4.14368 -4.31388 -4.32244 -4.59095 -4.50282 -4.36303 -4.15661 -4.35122 -4.04685 -4.45228 -4.26229 -4.58019 -4.36779 -4.57558 -4.46421 -4.15466 -4.43406 -4.4992 -4.29586 -4.48416 -4.38821 -4.5854 -4.67926 -4.4814 -4.71105 -4.32614 -4.47469 -4.65273 -4.57092 -4.91723 -4.79355 -4.84099 -4.5063 -4.97951 -4.44385 -3.70734 -4.23672 -3.95949 -4.28666 -4.30754 -3.96938 -4.29794 -4.15128 -4.03518 -4.26916 -4.267 -4.21157 -4.45907 -4.40039 -4.48755 -4.07053 -4.23253 -4.31906 -4.39354 -4.69441 -4.67731 -4.47673 -4.16114 -4.6683 -4.11183 -4.03923 -3.81563 -4.15568 -4.1095 -3.95235 -4.20434 -3.86285 -3.77534 -4.08728 -4.06918 -3.9024 -4.30347 -4.14031 -4.21369 -3.99198 -4.0793 -4.14957 -4.10036 -4.50606 -4.45757 -4.31584 -3.85583 -4.44966 -4.02436 -3.57102 -4.32925 -4.26219 -4.11793 -4.23866 -4.28597 -4.02356 -4.24351 -4.21177 -4.33103 -4.54465 -4.23969 -4.38264 -4.24838 -4.08013 -4.333 -4.38126 -4.70494 -4.56409 -4.62848 -4.09746 -4.52204 -4.18398 -3.96044 -4.13155 -3.9115 -4.06295 -4.12594 -3.87505 -4.12588 -4.01146 -4.18886 -4.29769 -4.06056 -4.25342 -4.04731 -4.0219 -4.15331 -4.08253 -4.47906 -4.43727 -4.44123 -3.91291 -4.46292 -3.87058 -4.26153 -3.93153 -4.18966 -4.13892 -4.01286 -4.27499 -4.1961 -4.24754 -4.37706 -4.40599 -4.41433 -4.09655 -4.25587 -4.31986 -4.29047 -4.5624 -4.69065 -4.49814 -4.1234 -4.67116 -4.22392 -4.13256 -4.30444 -4.26996 -3.88148 -4.23835 -4.07335 -4.36264 -4.47146 -4.25746 -4.39516 -4.31572 -4.17375 -4.3708 -4.33171 -4.67709 -4.50615 -4.64245 -4.22445 -4.58115 -4.12379 -4.05335 -3.8371 -3.7755 -3.94894 -3.9773 -3.92579 -4.30274 -4.20009 -4.28938 -3.88422 -4.02915 -4.08329 -4.1631 -4.37999 -4.49178 -4.22687 -3.96988 -4.47091 -4.06039 -4.14394 -3.92995 -4.22476 -4.17875 -4.41671 -4.4932 -4.22409 -4.44868 -4.17998 -4.16504 -4.31746 -4.26648 -4.59553 -4.64035 -4.53525 -4.21323 -4.75325 -4.15808 -4.02777 -4.14981 -4.24946 -4.25114 -4.38715 -4.29735 -4.40164 -4.19637 -4.17758 -4.33736 -4.29026 -4.58969 -4.59977 -4.49073 -4.16545 -4.6085 -4.25228 -4.05633 -3.94784 -4.12839 -4.32003 -4.04545 -4.23676 -4.06604 -3.87655 -4.17937 -4.21261 -4.4993 -4.30998 -4.39307 -4.06648 -4.36293 -4.05362 -4.16018 -4.26986 -4.4605 -4.39753 -4.40202 -4.14565 -4.04035 -4.27301 -4.29233 -4.56773 -4.52362 -4.63508 -4.18027 -4.6814 -4.22753 -4.24447 -4.45897 -4.24664 -4.40076 -4.22472 -4.12637 -4.33152 -4.34143 -4.60855 -4.57645 -4.57624 -4.22271 -4.46194 -4.10209 -4.22903 -4.47911 -4.51381 -4.30369 -4.19716 -4.25749 -4.46184 -4.60242 -4.68895 -4.60168 -4.19615 -4.76035 -4.28839 -4.57353 -4.65968 -4.3663 -4.43822 -4.54801 -4.50824 -4.81552 -4.84852 -4.84011 -4.38436 -4.91507 -4.39706 -4.237 -4.30169 -4.24686 -4.37344 -4.26768 -4.6741 -4.65813 -4.71234 -4.27739 -4.7821 -4.19906 -4.48709 -4.35988 -4.45448 -4.52449 -4.82772 -4.81646 -4.84812 -4.447 -4.85342 -4.42246 -4.10067 -4.28149 -4.28143 -4.58269 -4.60866 -4.4613 -4.19809 -4.57521 -4.13863 -4.05854 -4.28651 -4.5405 -4.61496 -4.51616 -4.13395 -4.43309 -4.12655 -4.31048 -4.70512 -4.73747 -4.74929 -4.22362 -4.80489 -4.26634 -4.73148 -4.73953 -4.65527 -4.32489 -4.83537 -4.22134 -5.00875 -4.98122 -4.63429 -4.95096 -4.56535 -4.84818 -4.57099 -5.03732 -4.5774 -4.42922 -4.37282 -4.43144 -4.51574 -4.01684 -4.60379
probB 0.0539469 0.629226 -0.0515395 -0.190358 -0.261023 -0.245392 -0.536065 -0.275329 -0.207332 -0.32324 -0.318229 -0.233825 -0.474467 -0.372385 -0.292526 -0.492883 -0.37066 -0.419394 -0.369144 -0.400462 -0.371874 -0.250977 -0.24291 -0.21534 -0.260627 -0.373034 -0.476657 -0.278325 -0.218022 -0.0105542 -0.014167 0.0322257 -0.457468 0.0535895 -0.420444 0.510238 0.00966873 -0.303829 -0.336464 -0.288855 -0.320258 -0.297878 -0.15665 -0.324737 -0.427048 -0.092227 -0.344198 -0.281755 -0.352118 -0.560248 -0.384697 -0.389137 -0.56172 -0.36374 -0.347211 -0.270653 -0.238579 -0.171406 -0.231391 -0.420319 -0.441066 -0.254724 -0.293169 0.0263973 -0.0449563 0.0854653 -0.471874 0.1769 -0.39129 -1.03696 -0.758613 -0.551035 -0.735953 -0.748653 -0.665308 -0.794731 -0.764901 -0.852022 -0.77777 -0.954711 -0.660449 -0.749028 -0.818599 -0.93288 -0.834716 -1.19736 -1.00255 -0.884967 -0.727669 -0.736518 -0.87901 -0.863075 -0.796194 -0.936268 -0.932887 -0.881324 -0.485191 -0.660377 -0.410843 -0.906383 -0.374611 -0.871196 -0.141018 -0.307918 -0.278175 -0.302193 -0.321693 -0.0976501 -0.225895 -0.411976 -0.281969 -0.404371 -0.196838 -0.177154 -0.458586 -0.332116 -0.35894 -0.258735 -0.334561 -0.327305 -0.285484 -0.220938 -0.0811524 -0.0926217 -0.301558 -0.337893 -0.318651 -0.257548 0.0337165 0.0146808 -0.0207343 -0.440392 0.157474 -0.245974 -0.237334 0.110855 0.0735744 0.0866432 0.121659 0.0371379 -0.0319996 -0.136256 -0.0992254 0.035158 0.0219902 -0.164916 -0.0731946 -0.109069 -0.284461 -0.0842664 0.0267536 0.0932745 0.165555 0.0495162 0.0918039 0.00424474 -0.0343608 -0.0514413 -0.0587044 0.438466 0.175508 0.370726 -0.121309 0.393137 -0.0853818 0.0876375 -0.135496 0.138491 0.247194 0.0542158 -0.0640662 0.057774 -0.076971 0.071919 0.107682 -0.0669818 -0.0712497 0.0219968 -0.200753 -0.0274864 -0.0176963 0.0981083 0.175565 0.123995 0.198486 -0.0233687 -0.181701 0.030552 0.0735146 0.426035 0.262501 0.412582 -0.0556812 0.472801 0.0016036 -0.198936 -0.131249 0.0865743 -0.0675068 -0.131768 -0.0017129 -0.100534 -0.0451433 -0.0273848 -0.296661 -0.0739107 -0.0760404 -0.151638 -0.202904 -0.139964 -0.0143352 0.0934271 0.00445227 0.029436 -0.0970968 -0.204263 -0.011269 -0.0217047 0.247528 0.390941 0.363154 -0.256119 0.428016 -0.101186 0.139102 0.237619 0.0606962 -0.110717 -0.00643051 -0.0470899 0.125292 0.0272485 -0.0894778 0.00532261 0.00690744 -0.0840913 -0.000256435 -0.0282266 0.118265 0.198216 0.0995041 0.222397 -0.0417007 -0.165465 0.0960322 0.112465 0.357474 0.411882 0.401803 -0.0250718 0.663529 -0.0827742 0.197348 0.0558188 -0.0934921 0.0999661 -0.0819794 0.0364903 0.10039 -0.103641 0.0346642 -0.039414 -0.0731704 -0.0348318 -0.00469309 0.112469 0.135122 0.0329028 -0.0161114 -0.104584 -0.159 0.0174823 0.0104381 0.261333 0.276006 0.223265 -0.0637004 0.238362 -0.0396609 -0.137733 -0.369365 -0.175408 -0.277883 -0.149536 -0.120299 -0.369143 -0.294192 -0.246102 -0.367181 -0.242725 -0.182985 -0.174436 -0.0826631 -0.0556818 -0.0654244 -0.304961 -0.270287 -0.19208 -0.160415 0.200838 0.150427 0.173915 -0.219119 0.294975 -0.260401 0.00697084 0.0182792 -0.0846984 0.0891288 0.00844732 -0.128734 -0.0769189 0.0077596 -0.248348 -0.140458 -0.112529 0.0183441 0.145963 0.0831841 0.046761 -0.0615711 -0.142904 0.0152254 0.00979892 0.402374 0.291646 0.250821 -0.0928064 0.532854 -0.134679 0.0941954 -0.0964686 0.163037 0.18093 -0.0435557 -0.0337719 -0.0156448 -0.0918364 0.0121492 0.0638069 0.0488551 0.229348 0.168922 0.251178 0.0931354 0.112443 0.199687 0.275088 0.506087 0.422081 0.370325 -0.035146 0.499179 -0.0374479 -0.0888229 0.00383476 0.0806764 -0.18483 -0.0850412 -0.0915491 -0.243251 -0.118379 0.0204931 0.144956 0.12788 0.0490255 0.148793 -0.148734 -0.0335266 -0.101831 0.0279259 0.371182 0.333174 0.280373 -0.194304 0.422817 -0.111245 0.198954 0.186405 -0.0347192 0.0986801 0.0642895 -0.115532 -0.0241785 0.131125 0.209008 0.339484 0.104346 0.216747 0.0583453 0.160938 0.162755 0.225736 0.502492 0.456984 0.378743 0.0313955 0.554618 0.161063 0.0283184 -0.299571 -0.0671835 -0.13379 -0.197323 -0.0983436 -0.0829904 0.0457512 0.0614654 0.033957 0.0232364 -0.196506 -0.13498 0.0621778 -0.0832471 0.34861 0.296866 0.168061 -0.134578 0.362458 -0.133516 -0.230415 -0.0952552 -0.0466948 -0.267387 -0.077038 -0.159158 0.0537044 0.0559851 0.0483198 0.0458636 -0.0740331 -0.165603 -0.0624596 0.0414481 0.368071 0.235035 0.292478 -0.190252 0.406877 -0.0882462 0.168096 0.102117 -0.0429645 0.108264 0.159325 0.133472 0.274704 0.256824 0.269705 0.122684 0.130352 0.276042 0.244078 0.584812 0.550582 0.487058 0.0401581 0.656198 0.103802 0.0418371 -0.0972912 -0.0203071 0.0856862 0.21144 0.20547 0.166146 0.153102 -0.038129 0.0662254 0.122877 0.116028 0.408729 0.488494 0.474032 0.0350141 0.582194 -0.00287281 -0.110946 -0.0814955 0.0115455 0.0944779 0.23239 0.0607259 0.133569 -0.00400183 -0.066385 0.0691188 0.0498082 0.424794 0.461157 0.330167 0.0412484 0.427606 0.0463587 0.133183 0.139558 0.291525 0.297603 0.151518 0.272694 0.0187791 0.0831085 0.250029 0.210214 0.5478 0.550911 0.583668 0.0945179 0.641337 0.054509 0.112268 0.207303 0.135786 0.22837 0.233507 0.0993108 -0.0738803 0.114963 0.0576267 0.450798 0.471326 0.47689 -0.00808863 0.620425 0.0512789 0.067234 0.199436 0.152629 0.1862 -0.0933154 -0.0344582 0.0408147 0.0316656 0.421686 0.439863 0.350682 -0.0376066 0.337584 -0.0624162 -0.0385075 0.0466889 0.0747468 -0.193973 -0.195965 -0.0247727 -0.0963753 0.246388 0.269292 0.320221 -0.0873005 0.665911 -0.0789 -0.0770646 -0.0328937 -0.118241 -0.215024 -0.102496 -0.114668 0.214441 0.296455 0.200224 -0.167171 0.308385 -0.206885 -0.0742983 -0.12679 -0.202797 -0.0830951 -0.000798241 0.212074 0.219336 0.20793 -0.20755 0.341989 -0.153914 -0.185572 -0.114796 -0.0514671 -0.0932989 0.31025 0.20685 0.245143 -0.137 0.344757 -0.162054 0.0718633 0.0587624 0.153602 0.401642 0.485651 0.286248 0.0376167 0.504532 0.0858264 0.0585027 0.114029 0.463671 0.482169 0.429232 0.0597088 0.603123 0.107596 0.0286399 0.360052 0.373649 0.288949 -0.135728 0.542124 -0.10745 0.365125 0.379542 0.318149 -0.109778 0.392028 -0.0817005 -0.00923736 0.0324334 -0.448627 -0.0354464 -0.496794 0.0386806 -0.555361 0.136497 -0.372497 -0.437051 0.503237 -0.38103 0.505078 0.00486697 -0.552553
nr_sv 105 117 313 115 60 60 66 57 35 56 63 49 60 48 59 70 28 43 26 33 44 18 74 16 74 18 20 24 19 27 104 86 115 33 158 32
SV
0 0 0 0 0 0 0 0 0 0 0 0 0 0.1399135627359099 0 0 0 0 0 0 0.2778262988450517 0 0 0 0 0 0 0 0 0 0 0 0 0 0 1:0.40300623 2:0.49926469 3:0.42517963 4:0.52083164 5:0.44225481 6:0.44568378 7:0.66357338 8:0.67581791 9:0.56463355 10:0.61932921 11:0.51216722 12:0.69060397 13:0.60501617 14:0.42184705 15:0.25987476 16:0.70926553 17:0.23910756 18:0.54524881 19:0.36897427 20:0.52887559 21:0.26509425 22:0.40530491 23:0.57035524 24:0.49221492 25:0.46196917 26:0.31486329 27:0.71363556 28:0.29855675 29:0.08639805 30:0.55282432 31:0.23389043 32:0.47566104 33:0.49892193 34:0.49801677 35:0.80076301 36:0.35293067 37:0.65565377 38:0.57493204 39:0.45589072 40:0.47856608 41:0.49580094 42:0.44325432 43:0.50975245 44:0.4564268 45:0.24867922 46:0.45409468 47:0.58472359 48:0.59928739 49:0.50817692 50:0.49678341 51:0.7036798 52:0.33127481 53:0.6443212 54:0.50112981 55:0.4855389 56:0.4741548 57:0.41841695 58:0.04993318 59:0.43638864 60:0.54381573 61:0.50644672 62:0.83710432 63:0.62974602 
0.894958579564933 0 0 0 0 0 0 0.0491926327255684 0 0 0 0 0 0 0 0 0 0 0 0 0 0 0.1215065842002643 0 0 0 0.1208095641050518 0 0 0 0 0 0 0 0 1:0.43608254 2:0.42826185 3:0.75343269 4:0.12455699 5:0.36007982 6:0.24390721 7:0.42099825 8:0.37679854 9:0.71598113 10:0.53248239 11:0.71407098 12:0.69648629 13:0.63739467 14:0.72173423 15:0.20080951 16:0.59018922 17:0.41881287 18:0.35389611 19:0.4656862 20:0.53974777 21:0.24272867 22:0.67160887 23:0.49176031 24:0.52692699 25:0.20297936 26:0.4384959 27:0.56773102 28:0.4366563 29:0.36994207 30:0.65174991 31:0.27281702 32:0.60277081 33:0.52514374 34:0.49100453 35:0.38811877 36:0.46279633 37:0.53039926 38:0.6637764 39:0.6262269 40:0.42576656 41:0.57635874 42:0.35213247 43:0.68234521 44:0.41028726 45:0.52354139 46:0.63670516 47:0.40384766 48:0.85103542 49:0.69338483 50:0.51453292 51:0.83429974 52:0.42735606 53:0.47833204 54:0.58613485 55:0.50716937 56:0.67079049 57:0.40046784 58:0.11375099 59:0.40918338 60:0.69803947 61:0.63863373 62:0.67987639 63:0.63152623 
0 0 0 0 0 0 0 0 0 0 0 0 0 0 0 0 0.761830364134244 0 0 0 0 0 0 0.7947041444499385 0 0.8821696255139785 0 0 0 0 0 0 0 0 0 1:0.3746115 2:0.38491124 3:0.46371818 4:0.38357216 5:0.48814222 6:0.37175861 7:0.49472493 8:0.10267878 9:0.70681661 10:0.6991238 11:0.56478769 12:0.44804761 13:0.4455713 14:0.49985373 15:0.3063772 16:0.48906183 17:0.29742691 18:0.50930649 19:0.51078588 20:0.49601886 21:0.57148522 22:0.529158 23:0.61850011 24:0.66205209 25:0.745745 26:0.51997799 27:0.60795784 28:0.53678262 29:0.21099015 30:0.51642191 31:0.48797187 32:0.43841428 33:0.44505763 34:0.43312368 35:0.5411759 36:0.31350571 37:0.53325295 38:0.70979232 39:0.67951691 40:0.54385233 41:0.53597283 42:0.35352355 43:0.52911383 44:0.40206316 45:0.51674199 46:0.63574773 47:0.54925156 48:0.49256781 49:0.74158716 50:0.47968918 51:0.73870432 52:0.48803225 53:0.42095217 54:0.35295424 55:0.2345055 56:0.61125189 57:0.39722052 58:0.17678232 59:0.48192 60:0.66615802 61:0.56271535 62:0.79579437 63:0.58673865 
0 0 0 0 0 0 0 0 0 0.2359912161971914 0 0 0 0 0 0 0 0 0 0 0 0 0 0 0 0 0 0 0 0.6147190058835186 0 0 0 0 0 1:0.44347483 2:0.3061077 3:0.50017697 4:0.5246945 5:0.31879839 6:0.5519892 7:0.57665831 8:0.54841858 9:0.49007037 10:0.65210986 11:0.58729833 12:0.57371515 13:0.42119405 14:0.59825009 15:0.20328932 16:0.80628163 17:0.26904607 18:0.57122737 19:0.31228235 20:0.49655604 21:0.35333827 22:0.41484272 23:0.66016495 24:0.4421235 25:0.51347816 26:0.306647 27:0.52163142 28:0.15829462 29:0.13977979 30:0.5516966 31:0.32735083 32:0.44704279 33:0.51160008 34:0.49549571 35:0.67728007 36:0.41043657 37:0.59095734 38:0.51339215 39:0.51536697 40:0.54367673 41:0.63835353 42:0.39810413 43:0.51729804 44:0.45036232 45:0.30991182 46:0.51662737 47:0.61509436 48:0.5977419 49:0.57244116 50:0.56394643 51:0.69547313 52:0.4294149 53:0.6222496 54:0.43312955 55:0.55157846 56:0.59119207 57:0.46018445 58:0.12940255 59:0.45445591 60:0.62285793 61:0.60128552 62:0.79953891 63:0.57119972 
4.083461869597457 5.615018786145239 0 3.33915573265906 0 0 1.36279549887702 0 0 0 0 0 0.0151487260662819 0 0.3507347443568206 0 0 0 0.6199394123356248 1.358220061041301 0 1.433329926185784 0.497607126231321 0.5363183166508335 0 0 0 0 0 0 3.709551946145636 0 0 4.866825093539253 0 1:0.35956523 2:0.36851484 3:0.42574438 4:0.60984123 5:0.6548844 6:0.18295749 7:0.62303346 8:0.16379866 9:0.7916857 10:0.64784014 11:0.60093158 12:0.55528247 13:0.48487663 14:0.69910145 15:0.44137856 16:0.37617791 17:0.19632599 18:0.62729454 19:0.3836357 20:0.37345451 21:0.37884423 22:0.41880918 23:0.60023868 24:0.79623187 25:0.78541434 26:0.48145187 27:0.51480818 28:0.64250749 29:0.37704834 30:0.59029472 31:0.41953647 32:0.48523027 33:0.47155902 34:0.48603046 35:0.49644831 36:0.47108844 37:0.72260392 38:0.57300222 39:0.48271236 40:0.53072917 41:0.71036124 42:0.4891248 43:0.34571198 44:0.41870615 45:0.66540802 46:0.56589621 47:0.50508022 48:0.39325038 49:0.54948896 50:0.34767064 51:0.71257383 52:0.52551883 53:0.50816309 54:0.32401085 55:0.37978297 56:0.57057387 57:0.39141738 58:0.1468872 59:0.47548386 60:0.6727351 61:0.5426355 62:0.76033616 63:0.5469408 
0 0 0 0 0 1.979939603322671 0 0 0 0 0 0 0 0 0 0 0 0 0 0 0 0 0 0 0 0 0 0 0.1574564236767788 0 0 0 0 0 0 1:0.41868275 2:0.40494341 3:0.52640045 4:0.3119373 5:0.50495791 6:0.3925719 7:0.64404196 8:0.27901793 9:0.81411278 10:0.38793507 11:0.87862188 12:0.52752191 13:0.44690183 14:0.51696497 15:0.31576511 16:0.46488047 17:0.23910321 18:0.70128709 19:0.43501371 20:0.41126487 21:0.61458933 22:0.44709867 23:0.64799738 24:0.69036204 25:0.63598239 26:0.38716134 27:0.47456485 28:0.39721146 29:0.39393738 30:0.62195498 31:0.42280447 32:0.53194094 33:0.5830912 34:0.55739635 35:0.62082022 36:0.44184551 37:0.54482007 38:0.6310432 39:0.52617162 40:0.61362076 41:0.60192555 42:0.63641357 43:0.48452985 44:0.22494939 45:0.42451304 46:0.46337169 47:0.48834318 48:0.37647182 49:0.56980073 50:0.52886319 51:0.75555515 52:0.42159125 53:0.52199292 54:0.43025702 55:0.40062273 56:0.54182303 57:0.40294254 58:0.23565634 59:0.42966413 60:0.65543658 61:0.52838957 62:0.75737339 63:0.65393507 
0 0 0 1.510532774166389 2.115011469148604 0 0 0 0.1003157252424477 0.3112774722239783 0 0 0 1.415720044310798 0 0 0.0218143343239038 0.5380852831211439 0 0 0 0 0.4099083148487404 0 0 0 0 0.2197726004829957 0 0 1.054814289487031 0.03834796269333371 0 2.213848392112956 0 1:0.45118973 2:0.44660905 3:0.55277079 4:0.55040383 5:0.18811148 6:0.44265994 7:0.61367077 8:0.33818206 9:0.71377474 10:0.6733256 11:0.58352709 12:0.89404833 13:0.46723938 14:0.39862144 15:0.12956752 16:0.57081074 17:0.44460863 18:0.72291845 19:0.6660248 20:0.35083804 21:0.3901954 22:0.54042423 23:0.46322075 24:0.59485668 25:0.35044774 26:0.52674299 27:0.58836502 28:0.25945833 29:0.42527503 30:0.32353422 31:0.40285087 32:0.48343334 33:0.41318083 34:0.4698182 35:0.45506623 36:0.41137603 37:0.43318534 38:0.69818431 39:0.64442241 40:0.38174078 41:0.6489467 42:0.40384689 43:0.56284112 44:0.43302965 45:0.36109945 46:0.48527077 47:0.3270385 48:0.63385171 49:0.54804146 50:0.55894965 51:0.82139653 52:0.30100533 53:0.61554837 54:0.61641252 55:0.70175624 56:0.51210058 57:0.41485468 58:0.35064274 59:0.3933703 60:0.69422317 61:0.43279746 62:0.69644952 63:0.71866083 
0 0 0 0 0 0 0 0 0.1044490648332943 0 0 0 0 0 0 0 0 0 0 0 0 0 0.2184649452576294 0 0 0 2.001630521518088 0 2.045839798471662 0 0 0 0 0 0 1:0.2981638 2:0.53107774 3:0.67691857 4:0.26617154 5:0.49470684 6:0.51114094 7:0.59912634 8:0.080160722 9:0.76571077 10:0.45819595 11:0.64599311 12:0.57414317 13:0.552661 14:0.68771708 15:0.43058127 16:0.46121591 17:0.51265323 18:0.77634037 19:0.39547762 20:0.39693251 21:0.51556998 22:0.35092184 23:0.58046746 24:0.65539253 25:0.71385157 26:0.40400934 27:0.58594078 28:0.51161289 29:0.38415354 30:0.6056568 31:0.44834042 32:0.49927396 33:0.52157563 34:0.59837252 35:0.54305881 36:0.4067983 37:0.69818681 38:0.51545453 39:0.56199455 40:0.48825374 41:0.57515138 42:0.52748662 43:0.38535392 44:0.20133346 45:0.47020325 46:0.4422946 47:0.33109444 48:0.6823231 49:0.59664369 50:0.48758519 51:0.84517986 52:0.51153553 53:0.49554968 54:0.39272007 55:0.51921254 56:0.58470857 57:0.36264679 58:0.23446305 59:0.42148954 60:0.69168752 61:0.55499798 62:0.73832077 63:0.67593205 
0 0 0 0 0 0 0 0 0 0 0 0 0 0 0 0.2803261127593245 0 0 0 1.569124770270836 0 0 0.544820767918563 0 0 0 0.2384926580392024 0 0 0 0 0 0 0 0 1:0.56154615 2:0.54722965 3:0.08549466 4:0.55096239 5:0.65501118 6:0.40824479 7:0.47448507 8:0.71652788 9:0.39260021 10:0.57342178 11:0.59920526 12:0.67535847 13:0.69559354 14:0.40735641 15:0.40494633 16:0.46227616 17:0.59630501 18:0.54194826 19:0.51877052 20:0.70493889 21:0.18168825 22:0.75317746 23:0.41178069 24:0.38248602 25:0.56833875 26:0.44765365 27:0.71975815 28:0.46816477 29:0.2519244 30:0.52352899 31:0.40517747 32:0.43497714 33:0.30998877 34:0.41561478 35:0.62194437 36:0.45501801 37:0.57752192 38:0.47647637 39:0.52013254 40:0.26098955 41:0.58726698 42:0.27016288 43:0.70179582 44:0.27050272 45:0.40997058 46:0.54402131 47:0.4241856 48:0.61872375 49:0.61773235 50:0.65992922 51:0.70392907 52:0.57940912 53:0.59301436 54:0.50935066 55:0.69821095 56:0.66996431 57:0.59758121 58:0.22537062 59:0.35730609 60:0.66478324 61:0.41905612 62:0.83915401 63:0.59866053 
0 0.172993481532284 0 0 0 0 0 0 0 0 0 0 0 0 0 0 0 0 0 0 0 0 0 0 0 0 0 0 0 0 0 0 0 0 0 1:0.39177054 2:0.33036652 3:0.4932963 4:0.50374562 5:0.50487578 6:0.26802582 7:0.76313227 8:0.21874186 9:0.86940813 10:0.56216311 11:0.56820512 12:0.5768519 13:0.62843496 14:0.71461171 15:0.25213277 16:0.64669776 17:0.35922435 18:0.69478863 19:0.37294707 20:0.24895938 21:0.41255942 22:0.3647694 23:0.61061877 24:0.70277441 25:0.51710385 26:0.32595107 27:0.52828455 28:0.65236819 29:0.33369768 30:0.49358606 31:0.42605585 32:0.6414088 33:0.49776715 34:0.58095545 35:0.58630288 36:0.51755214 37:0.60750139 38:0.65169477 39:0.56037426 40:0.4912048 41:0.67363733 42:0.42043126 43:0.47470713 44:0.33050895 45:0.54000539 46:0.55873859 47:0.50426209 48:0.55082554 49:0.65935469 50:0.47619495 51:0.70559412 52:0.41473749 53:0.61436576 54:0.50305384 55:0.50983047 56:0.59644449 57:0.42030033 58:0.14781663 59:0.44476709 60:0.70915842 61:0.55411559 62:0.6946373 63:0.61832815 
0 0 0 0 0 0.2232596403724659 0 0 0 0 0 0 0 1.664168818238089 0 0 0 0 2.042632889796029 0.8493324517068503 0 0 0 0 0 0 0 0.60061083905796 0 0 0 0 0 0 0 1:0.3588239 2:0.24624188 3:0.57965243 4:0.4467586 5:0.47541979 6:0.3716616 7:0.71359247 8:0.34472284 9:0.67092806 10:0.38952032 11:0.74370807 12:0.4962438 13:0.35919851 14:0.67913091 15:0.34290746 16:0.38649783 17:0.44093013 18:0.56595594 19:0.4064644 20:0.42628235 21:0.63914543 22:0.48681253 23:0.62580431 24:0.5662365 25:0.37371594 26:0.32623458 27:0.58690864 28:0.54961073 29:0.37804207 30:0.55763394 31:0.39693016 32:0.5218395 33:0.5812127 34:0.68183035 35:0.44109172 36:0.32802728 37:0.58712381 38:0.6613518 39:0.48948273 40:0.48265138 41:0.58766598 42:0.44910669 43:0.52930683 44:0.35057119 45:0.3582789 46:0.54352969 47:0.58023971 48:0.47281709 49:0.46880093 50:0.54591113 51:0.57664144 52:0.40060258 53:0.53120315 54:0.45251939 55:0.49614692 56:0.52352351 57:0.32282716 58:0.18866114 59:0.32925943 60:0.61341316 61:0.59030259 62:0.71153444 63:0.65268195 
0 0.05535970051605962 0 0 0 0 0.09878224395727382 0 0 0.4428968291989174 0 0 0 0 0 0 0 0 0 0 0 0 0 0 0 0 0 0 0 0 0 0.5853426608852147 0 0 0 1:0.42245939 2:0.53007776 3:0.90591276 4:0.51624185 5:0.54094857 6:0.16211563 7:0.84415627 8:0.28940225 9:0.72853535 10:0.52157998 11:0.71549153 12:0.58430755 13:0.46314001 14:0.49795359 15:0.42815554 16:0.36181751 17:0.42570117 18:0.57270443 19:0.46657133 20:0.60601312 21:0.37279913 22:0.58279067 23:0.49550444 24:0.72061443 25:0.75528842 26:0.46267369 27:0.61779475 28:0.34850106 29:0.30840361 30:0.57915455 31:0.65222305 32:0.46400639 33:0.65770829 34:0.52574617 35:0.55985749 36:0.50650144 37:0.53861469 38:0.57594454 39:0.63125658 40:0.47802365 41:0.60181129 42:0.27791113 43:0.52775347 44:0.2496812 45:0.43760103 46:0.48896235 47:0.63921231 48:0.48158041 49:0.57150424 50:0.4719649 51:0.8021313 52:0.36067721 53:0.49307367 54:0.57346511 55:0.52296495 56:0.56802094 57:0.38831472 58:0.24892677 59:0.35407269 60:0.62991244 61:0.47330794 62:0.66233444 63:0.62051117 
0 0 0 0 0 0 0 0 0 0 0 0 0 0 0 0 0.8017628039964559 0 0 0 0 0 0 0 0 0 0 0 0 0 0 0 0 0 0 1:0.48097903 2:0.40568981 3:0.61961061 4:0.59091574 5:0.60049593 6:0.092376478 7:0.59635127 8:0.2118029 9:0.73797196 10:0.55134666 11:0.62883735 12:0.63014805 13:0.52537924 14:0.33543581 15:0.37644529 16:0.44969136 17:0.35313153 18:0.48662731 19:0.36724105 20:0.35805866 21:0.34086823 22:0.47743717 23:0.45936441 24:0.7573902 25:0.50126207 26:0.41189468 27:0.51192927 28:0.41732645 29:0.37234917 30:0.44001907 31:0.42072824 32:0.49555984 33:0.57659608 34:0.55781567 35:0.52785861 36:0.33346829 37:0.47102812 38:0.73569769 39:0.59423941 40:0.45226261 41:0.52766174 42:0.29256716 43:0.49806905 44:0.32933271 45:0.339782 46:0.57792902 47:0.56446189 48:0.46556988 49:0.5893572 50:0.48462471 51:0.67065889 52:0.33760446 53:0.62989688 54:0.50047284 55:0.49182642 56:0.49867544 57:0.35090643 58:0.1589594 59:0.36586663 60:0.62607634 61:0.58519149 62:0.66183162 63:0.68511337 
0 0 0 0 0 0 0 0 0 0 0 0 0 0 0 0 0 0.04287333793400915 0 0 0 0 0 0 0 0.7063687340896166 0 0 0 0 0 0 0 0 0 1:0.52826673 2:0.61275786 3:0.30430132 4:0.59771603 5:0.51506865 6:0.34587285 7:0.63690776 8:0.41881794 9:0.57805514 10:0.72174865 11:0.5247162 12:0.83051932 13:0.53886604 14:0.4060109 15:0.25229043 16:0.66406775 17:0.39122111 18:0.54615396 19:0.54753828 20:0.74575359 21:0.43395442 22:0.49391401 23:0.57116067 24:0.49640375 25:0.55936241 26:0.26397359 27:0.59394956 28:0.11990667 29:0.36365902 30:0.48528692 31:0.68426675 32:0.3830986 33:0.57733345 34:0.30233872 35:0.64331257 36:0.29718673 37:0.52551568 38:0.47302008 39:0.5519231 40:0.56430459 41:0.6173265 42:0.28173563 43:0.58287191 44:0.36869061 45:0.23708272 46:0.46130627 47:0.52895468 48:0.61323696 49:0.43917087 50:0.68415201 51:0.73249847 52:0.33280149 53:0.54157686 54:0.46831435 55:0.61871749 56:0.47581062 57:0.36082739 58:0.060481798 59:0.34006259 60:0.57317078 61:0.60654521 62:0.73406053 63:0.62941009 
0 0 0 0 0 0 0 0 0 0 0 0 0 0 0 1.281118576260544 0 0 0 0 0 0 0 0 0 0 0.4696003609058071 0 0.5661525605779235 0 0 0 0 0 0 1:0.47973031 2:0.24993789 3:0.59648031 4:0.5214712 5:0.55710769 6:0.45193449 7:0.61106735 8:0.10056864 9:0.68060589 10:0.55479133 11:0.44805261 12:0.66686773 13:0.58727062 14:0.4629291 15:0.40562519 16:0.51883399 17:0.23768704 18:0.59191573 19:0.38967368 20:0.39920628 21:0.49558747 22:0.46859244 23:0.54984206 24:0.74781859 25:0.60333502 26:0.42461294 27:0.54606944 28:0.46752542 29:0.37247428 30:0.52948636 31:0.38729548 32:0.52925217 33:0.5867421 34:0.50022107 35:0.52951676 36:0.46472627 37:0.7491222 38:0.57737112 39:0.55806607 40:0.42883348 41:0.60679179 42:0.56733471 43:0.38304031 44:0.30831221 45:0.48260528 46:0.44494626 47:0.44180357 48:0.44476917 49:0.55792332 50:0.42728132 51:0.78396219 52:0.36535853 53:0.5576207 54:0.50992751 55:0.47885102 56:0.49760076 57:0.41196918 58:0.16509064 59:0.42212251 60:0.62873465 61:0.53132558 62:0.745646 63:0.67078072 
0 0 0 0 0 0 0 0 0 0 0 0 0 0.560884829739179 0 0 0 0 0 0 0 0 0 0 0 0 0 0 0 0 0 0 0 0 0 1:0.30186778 2:0.63521314 3:0.4419767 4:0.66284543 5:0.34766439 6:0.47637278 7:0.35041848 8:0.66810644 9:0.63800484 10:0.6177054 11:0.64834899 12:0.62877989 13:0.53345305 14:0.53689402 15:0.22635567 16:0.56183487 17:0.41814336 18:0.64711231 19:0.45682254 20:0.62629807 21:0.3404226 22:0.53434783 23:0.63228399 24:0.55788481 25:0.30347562 26:0.39914384 27:0.57347506 28:0.45183384 29:0.095911197 30:0.7137832 31:0.33441031 32:0.60167557 33:0.48934603 34:0.54830337 35:0.52106494 36:0.35369444 37:0.46503034 38:0.54715329 39:0.49131384 40:0.50359923 41:0.61884469 42:0.30751705 43:0.4987739 44:0.49527714 45:0.30720869 46:0.51842809 47:0.60419023 48:0.60146201 49:0.59652221 50:0.52550751 51:0.65852541 52:0.52010888 53:0.55271935 54:0.49521708 55:0.58074111 56:0.53858227 57:0.43971393 58:0.15728773 59:0.3786 60:0.59155381 61:0.63524854 62:0.82192659 63:0.63978899 
0 0 0 0 0 0 0 0 0 0 1.868420065790221 0 0 0 0 0 0 0 0 0 0 0 0 0 0.04867394348963454 0 0 0 0 0 0 0 0 0 0 1:0.37592503 2:0.29486528 3:0.36398995 4:0.69957429 5:0.41602367 6:0.39403358 7:0.5113247 8:0.4257794 9:0.60987324 10:0.63011903 11:0.62352484 12:0.62099999 13:0.47311348 14:0.60674554 15:0.37525821 16:0.75792426 17:0.29640567 18:0.57330298 19:0.15651859 20:0.58670741 21:0.34151375 22:0.30680865 23:0.55190551 24:0.75203848 25:0.43443564 26:0.22787394 27:0.74278176 28:0.17313716 29:0.29673308 30:0.4849529 31:0.45951119 32:0.62466592 33:0.60003817 34:0.47721902 35:0.70911103 36:0.26099071 37:0.64522201 38:0.5667488 39:0.54954779 40:0.56418717 41:0.6807456 42:0.51375324 43:0.529989 44:0.52342945 45:0.27868867 46:0.46876344 47:0.52992332 48:0.52336687 49:0.62076354 50:0.52321488 51:0.52313924 52:0.35385326 53:0.61175513 54:0.42790246 55:0.58325046 56:0.46117014 57:0.42352152 58:0.11765268 59:0.50109446 60:0.62960905 61:0.54242891 62:0.73676342 63:0.58683336 
0 0 0 0 0 0.3577860410396042 1.270106032664142 0 0 0 0 0 0 0 0 0 0 0 0 0 0 0 0 0 0 0 0 0 0 0 0 0 0 0 0 1:0.31398338 2:0.35969335 3:0.70926565 4:0.29116312 5:0.59536505 6:0.35232219 7:0.75770986 8:0.34263721 9:0.84902215 10:0.61644661 11:0.72328937 12:0.43346903 13:0.44036523 14:0.59876668 15:0.40147492 16:0.63901722 17:0.22463237 18:0.4755775 19:0.36693424 20:0.39551789 21:0.30421975 22:0.52013981 23:0.37690163 24:0.86018425 25:0.66001928 26:0.5737682 27:0.48942193 28:0.3130886 29:0.4059296 30:0.46492997 31:0.37077641 32:0.44747251 33:0.63535798 34:0.49559534 35:0.51595062 36:0.43169641 37:0.57728797 38:0.68550855 39:0.5866524 40:0.47791225 41:0.44715282 42:0.5884701 43:0.44436082 44:0.29860663 45:0.41061404 46:0.54660815 47:0.61314446 48:0.3529129 49:0.5046193 50:0.45059022 51:0.8229779 52:0.3598541 53:0.54049414 54:0.48623011 55:0.52278292 56:0.52554196 57:0.43332121 58:0.2936914 59:0.49645105 60:0.66204065 61:0.59318835 62:0.75622284 63:0.65700585 
0 0 0 0 0 0 0 0 0 0 0 0 0 0 1.968364410040923 0.3928365901342918 0 0 0 0.0005657214409753363 0 0 0 0 0 0 0 0 0 0 0 0 0 0 0 1:0.23798373 2:0.55458874 3:0.44043607 4:0.71558321 5:0.28907788 6:0.64694208 7:0.52839369 8:0.62378579 9:0.79086608 10:0.5943476 11:0.61846262 12:0.72857827 13:0.48022217 14:0.63166958 15:0.45871812 16:0.70077264 17:0.45211115 18:0.43483928 19:0.30402932 20:0.69288206 21:0.22627863 22:0.25166929 23:0.57847267 24:0.58362693 25:0.33955196 26:0.28692356 27:0.49009871 28:0.2154258 29:0.21006478 30:0.57014859 31:0.35346133 32:0.64067924 33:0.60361844 34:0.41217175 35:0.65146744 36:0.37664008 37:0.64367855 38:0.47401902 39:0.58584762 40:0.54900998 41:0.6844632 42:0.35026792 43:0.45883465 44:0.4485603 45:0.36584798 46:0.49113426 47:0.60942769 48:0.47743255 49:0.58671737 50:0.51456773 51:0.59440958 52:0.53002954 53:0.64968699 54:0.42255399 55:0.5289402 56:0.45015633 57:0.39432389 58:0.10471195 59:0.44252938 60:0.64817101 61:0.69316089 62:0.75294858 63:0.65741229 
0 0 0 0 0 0 0 0 0 0.3530315870031064 0 0 0 0 0 0 0 0 0 1.394842372852303 0 0 0 0 0 0 0 0 0 0 0 0 0 0 0 1:0.52290201 2:0.44223538 3:0.51313394 4:0.38020781 5:0.24795122 6:0.45761055 7:0.52889979 8:0.64487684 9:0.48332959 10:0.53005117 11:0.40972298 12:0.7266953 13:0.34393424 14:0.49244079 15:0.19125101 16:0.67750561 17:0.34088528 18:0.56934446 19:0.63702607 20:0.61102229 21:0.45634016 22:0.42510292 23:0.65660536 24:0.57828385 25:0.4291462 26:0.41999134 27:0.57575589 28:0.0057727308 29:0.15156773 30:0.48585099 31:0.40710473 32:0.43505475 33:0.62771082 34:0.38494062 35:0.69583154 36:0.43524572 37:0.60365891 38:0.55365407 39:0.45202979 40:0.5178318 41:0.49774364 42:0.37652561 43:0.54511589 44:0.46356395 45:0.2662988 46:0.50324273 47:0.63265306 48:0.59435385 49:0.27557859 50:0.53798747 51:0.78917027 52:0.39238662 53:0.58440536 54:0.53051496 55:0.6826933 56:0.3969104 57:0.38476685 58:0.10128719 59:0.37790522 60:0.61917752 61:0.62247163 62:0.7437464 63:0.67193168 
0 0 0 0 0 0 0 0 0 0 0 0 0 0 0.1144538688000084 0 0 0 0 0 0 0 0.8151570292430127 0 0 0 0 0 0 0 0 0 0 0 0.5944844431344172 1:0.35733926 2:0.39015326 3:0.55884552 4:0.61501318 5:0.43732414 6:0.42474172 7:0.50265574 8:0.70705932 9:0.55771375 10:0.71305788 11:0.44898722 12:0.71461737 13:0.43472809 14:0.35338435 15:0.38137302 16:0.768107 17:0.32617134 18:0.73783559 19:0.30319121 20:0.72556108 21:0.048269391 22:0.4048399 23:0.63654834 24:0.55286646 25:0.53255838 26:0.35495126 27:0.66439444 28:0.33346719 29:0.16193154 30:0.61992818 31:0.30227891 32:0.59587246 33:0.56886792 34:0.4721339 35:0.69190133 36:0.44491979 37:0.57301593 38:0.53892744 39:0.59908634 40:0.47665974 41:0.65550315 42:0.28430569 43:0.51371592 44:0.47312483 45:0.2737819 46:0.43207777 47:0.55709821 48:0.56050831 49:0.67407101 50:0.45573235 51:0.68688041 52:0.4795177 53:0.55798745 54:0.49754632 55:0.49511406 56:0.45892236 57:0.4154475 58:0.1023079 59:0.43289539 60:0.60438913 61:0.60540169 62:0.79830027 63:0.62787908 
0 0 0 0 0 0 0 2.157611352975076 0 0 0 0 0 0 0 0 0 0 0 0 0 0 0 0 0 0 0 0 0 0 0 0 0 0 0 1:0.18900073 2:0.51041037 3:0.58959824 4:0.58894235 5:0.46751162 6:0.56449026 7:0.60141748 8:0.55562556 9:0.62777281 10:0.57817483 11:0.57965559 12:0.58937579 13:0.436405 14:0.5840407 15:0.44022545 16:0.77236444 17:0.3979269 18:0.59543204 19:0.19565852 20:0.67844474 21:0.33561137 22:0.24349378 23:0.60611159 24:0.54770476 25:0.55853212 26:0.24497445 27:0.63633609 28:0.20170557 29:0.1608265 30:0.55036396 31:0.35190833 32:0.62999564 33:0.53461528 34:0.59625196 35:0.74323672 36:0.32781044 37:0.67521632 38:0.44224805 39:0.57012188 40:0.55470979 41:0.73664784 42:0.41364479 43:0.52429152 44:0.3417165 45:0.32162234 46:0.58734494 47:0.60883844 48:0.51481527 49:0.51233417 50:0.50451756 51:0.62678385 52:0.40326938 53:0.6205107 54:0.27469498 55:0.48160484 56:0.53015327 57:0.39577314 58:0.06603726 59:0.46558794 60:0.67455089 61:0.57533365 62:0.74766415 63:0.60689092 
0 0 0 0 0 0 0 0 0 0 0 0 0 0 0 0 0 0 0 0 1.590452513077334 0 0 0 0 0 0 0 0 0 0 0 0 0 0 1:0.58405602 2:0.62112361 3:0.53241277 4:0.70515901 5:0.2578806 6:0.63556194 7:0.55722249 8:0.66734862 9:0.52619547 10:0.46995988 11:0.3466928 12:0.72419906 13:0.58247191 14:0.56606376 15:0.29511997 16:0.60561955 17:0.39973766 18:0.48514882 19:0.34758309 20:0.66320819 21:0.55665952 22:0.29256204 23:0.33360624 24:0.4157449 25:0.36122924 26:0.55873913 27:0.50884122 28:0.070976973 29:0.52264029 30:0.33493981 31:0.41631758 32:0.44156748 33:0.67676109 34:0.57768613 35:0.44821095 36:0.32848811 37:0.4066456 38:0.6814425 39:0.61398989 40:0.38968009 41:0.52862829 42:0.34717447 43:0.57105136 44:0.25121951 45:0.16465639 46:0.52335042 47:0.49853805 48:0.66688997 49:0.55540597 50:0.55816734 51:0.58408159 52:0.38719404 53:0.54986495 54:0.45380169 55:0.50488573 56:0.55034041 57:0.42531586 58:0.21859668 59:0.3352538 60:0.63914639 61:0.4542836 62:0.85293353 63:0.72569346 
0.3739419454695954 0 0.3731646882770653 0 0 0.5821037042787255 2.513726045074557 0.8075285366270717 1.349514832904007 1.346424218678553 0.3647433057769425 0 0 0 2.430730396132771 0.6988918108734858 0.6374694583093282 0 0 0 0.8304519664122911 0 0.01322409502175813 0.3115581185420274 0 0.7808487028039128 1.958004163024419 0.7992735779590472 0 0 0 4.213873170089827 0.8787713915969951 0.8727415842661054 1.579298391303003 1:0.34491071 2:0.31397969 3:0.71140426 4:0.39664143 5:0.70980281 6:0.12990366 7:0.49675417 8:0.34841958 9:0.70908165 10:0.68396354 11:0.59265852 12:0.60140145 13:0.39357266 14:0.22903146 15:0.44794148 16:0.35309392 17:0.48045117 18:0.81738001 19:0.68889612 20:0.58146596 21:0.44334343 22:0.43490228 23:0.59120053 24:0.66830891 25:0.80098557 26:0.51051629 27:0.49107695 28:0.5198406 29:0.48553306 30:0.38078988 31:0.57315212 32:0.38756329 33:0.57270467 34:0.48903587 35:0.51860356 36:0.43337828 37:0.54369503 38:0.69306064 39:0.57904607 40:0.37315485 41:0.58439881 42:0.37410155 43:0.51695007 44:0.25812614 45:0.41015816 46:0.45680946 47:0.50038344 48:0.45855096 49:0.67267483 50:0.45700526 51:0.69299847 52:0.38533768 53:0.52682078 54:0.53883839 55:0.53748584 56:0.48781061 57:0.29186979 58:0.30106503 59:0.36360192 60:0.62708777 61:0.54866451 62:0.61536312 63:0.7077828 
0 0 1.469444646043187 0.4148470433072119 0 0 0 0 0 0 0 0 0 0 0 0 0 0 0 0 0 0.483743021233681 0 0 0.157254151870246 1.200775537545038 0 0 0 0 0.7100385828778003 0 0 0 0 1:0.37506995 2:0.21424814 3:0.28383708 4:0.46412283 5:0.49988508 6:0.45097539 7:0.52041531 8:0.19583517 9:0.8485083 10:0.36916542 11:0.57631463 12:0.42968416 13:0.47691506 14:0.71931344 15:0.55154717 16:0.46451145 17:0.32417908 18:0.62272847 19:0.50690073 20:0.33472013 21:0.66049558 22:0.37458912 23:0.64960229 24:0.66096646 25:0.59090298 26:0.57149261 27:0.43106869 28:0.72009706 29:0.57173169 30:0.33884838 31:0.40362141 32:0.47688961 33:0.55369902 34:0.67910212 35:0.59273839 36:0.35890442 37:0.65444821 38:0.48782089 39:0.46691629 40:0.59550923 41:0.73514181 42:0.55209321 43:0.40764132 44:0.21320991 45:0.48026332 46:0.609267 47:0.46655521 48:0.44350418 49:0.65149993 50:0.39574042 51:0.55335796 52:0.49658254 53:0.47876349 54:0.3254759 55:0.30324149 56:0.5930115 57:0.34530655 58:0.15711766 59:0.48526573 60:0.75705594 61:0.52553958 62:0.74838072 63:0.59860182 
0 0 0 0 0 0 0.3864649097134655 0 0 0 0 0 0 0 0 0 0 0.6421815174322306 0 0 0 0 0 0 0 0 0 0 0 0 0 0 0 0 0 1:0.27006048 2:0.32905534 3:0.30582365 4:0.45213518 5:0.37997302 6:0.39400733 7:0.61170644 8:0.45637682 9:0.7162286 10:0.53774458 11:0.53164536 12:0.5451299 13:0.56061107 14:0.49799287 15:0.49543253 16:0.56601876 17:0.20655696 18:0.57657337 19:0.31597462 20:0.71541733 21:0.2948038 22:0.32708827 23:0.52215707 24:0.53927284 25:0.58033639 26:0.23148318 27:0.7037341 28:0.58698255 29:0.23191309 30:0.69144195 31:0.54543406 32:0.62794828 33:0.66343147 34:0.62775171 35:0.66507387 36:0.46239936 37:0.76311451 38:0.47403094 39:0.37196833 40:0.5050298 41:0.60353106 42:0.34281641 43:0.41826004 44:0.48566556 45:0.32168326 46:0.38564092 47:0.5205431 48:0.45201868 49:0.56005925 50:0.44796646 51:0.62049448 52:0.37610146 53:0.55058795 54:0.42410514 55:0.47349906 56:0.52046448 57:0.42097446 58:0.098624833 59:0.42148349 60:0.6015327 61:0.58079875 62:0.80971277 63:0.57088202 
0 0.8593735940612124 0 0 0 0 0 0 0 0 0 0 0 0 0 0 0 0 0 0.2796328951420909 0 0 0 0 0 0 0 0 0 0 0 0 0 0 0 1:0.42597225 2:0.34467176 3:0.41455135 4:0.67206377 5:0.53019059 6:0.59488785 7:0.57026136 8:0.50959802 9:0.70861268 10:0.72214407 11:0.62346625 12:0.52487874 13:0.50845331 14:0.55409503 15:0.4283461 16:0.7946713 17:0.26258087 18:0.56318498 19:0.29222083 20:0.47117957 21:0.44873515 22:0.19429153 23:0.66317189 24:0.63695294 25:0.41557914 26:0.23712634 27:0.64841169 28:0.3795132 29:0.050416611 30:0.57369584 31:0.37924692 32:0.47564915 33:0.42765218 34:0.61599243 35:0.75355357 36:0.33023494 37:0.76896763 38:0.37899032 39:0.4944593 40:0.58160508 41:0.71044469 42:0.46210644 43:0.51114798 44:0.3303971 45:0.40774986 46:0.47716773 47:0.60752302 48:0.57231921 49:0.46491238 50:0.5095827 51:0.75934017 52:0.42181718 53:0.63571262 54:0.33195066 55:0.57036161 56:0.56463242 57:0.445153 58:0.090295359 59:0.55330354 60:0.60428977 61:0.51340324 62:0.81118375 63:0.57647353 
0 0 0 0 0 0 0 0 0 0 0 0 0 0 0 0 0 0 0 0 0 0 0 0 0 0 0 0.1019495348722646 0 0 0 0 0 0 0 1:0.49922681 2:0.33982697 3:0.34643167 4:0.20815569 5:0.33363283 6:0.44818789 7:0.35106793 8:0.55875623 9:0.50689119 10:0.46994689 11:0.70162618 12:0.54040903 13:0.36806294 14:0.28902382 15:0.61797541 16:0.35309297 17:0.46087843 18:0.55600733 19:0.62120742 20:0.98428994 21:0.68465912 22:0.29804277 23:0.46651477 24:0.48312882 25:0.37440559 26:0.47244719 27:0.5597226 28:0.4350189 29:0.47295132 30:0.54315066 31:0.59648085 32:0.51602328 33:0.6050384 34:0.4387657 35:0.64749914 36:0.43674308 37:0.6257211 38:0.52045584 39:0.4051187 40:0.56202793 41:0.72999215 42:0.28405836 43:0.55719239 44:0.24628617 45:0.21154967 46:0.44975036 47:0.57906049 48:0.67521453 49:0.50247705 50:0.71092826 51:0.67099684 52:0.32591796 53:0.36376116 54:0.41468248 55:0.69189143 56:0.50756752 57:0.44154632 58:0.23268771 59:0.49340549 60:0.63335156 61:0.38829204 62:0.89138114 63:0.62028211 
2.068594734898932 1.559058102868594 1.113666834270478 2.001319669657534 0.9962383244137014 0.4409094292057015 3.125207866649362 2.118354225204669 0 0 0 0.4649422987289999 0 0 0 0 3.607319178005675 0 0 0 0.5075995350339783 0 1.687176079215778 1.223631807978664 0.3819709062267641 0 0 0.8174680259303096 0 0.1983728514397357 1.49036287059435 0 0.5547869189010324 0 0 1:0.80552894 2:0.50097054 3:0.47261122 4:0.30322599 5:0.30666909 6:0.35002974 7:0.63623095 8:0.45053312 9:0.61078763 10:0.472992 11:0.25549439 12:0.85504729 13:0.12287613 14:0.70466441 15:0.22226587 16:0.77495253 17:0.55571413 18:0.50898093 19:0.47061679 20:0.48858398 21:0.39136133 22:0.50027078 23:0.62483847 24:0.62764901 25:0.28977984 26:0.54917318 27:0.46797854 28:4.9906641e-16 29:0.37895623 30:0.29354283 31:0.3928237 32:0.46056882 33:0.55706918 34:0.31888816 35:0.580742 36:0.41835105 37:0.53776538 38:0.56543678 39:0.58908546 40:0.51363492 41:0.34799552 42:0.53586543 43:0.35335356 44:0.57743794 45:0.37900499 46:0.57746518 47:0.65930182 48:0.57529795 49:0.22462215 50:0.50925106 51:0.72996902 52:0.34717795 53:0.60537773 54:0.41933608 55:0.69675303 56:0.28699553 57:0.35797349 58:0.19648701 59:0.27183327 60:0.60335582 61:0.66692269 62:0.74810112 63:0.66564721 
1.141139754768901 0.653067834333652 1.324277887373655 0.5238617043711531 0 4.65005323121932 0 0 0 3.765441110594566 0 1.088757523279976 1.231991644069435 0 0.8934031535147948 0 0 0.4965596415245427 0 0 0 0.6236756030012022 0 3.333601476555012 1.560595245558511 1.923016860583181 0 0 0 0 0 3.150608263608651 0 1.884656159134937 2.190969583187027 1:0.45745364 2:0.26420799 3:0.43458152 4:0.41700417 5:0.63383037 6:0.28888842 7:0.89271313 8:0.23338339 9:0.87342852 10:0.6475808 11:0.55616999 12:0.59966445 13:0.35001329 14:0.62791157 15:0.35183457 16:0.51388067 17:0.30362412 18:0.59397036 19:0.35819998 20:0.42139587 21:0.44122496 22:0.37416396 23:0.60860717 24:0.81604177 25:0.49899387 26:0.46117038 27:0.50573415 28:0.25718915 29:0.44856027 30:0.46674135 31:0.431012 32:0.51836181 33:0.64312387 34:0.3817665 35:0.55830806 36:0.49742231 37:0.54653865 38:0.5649839 39:0.65032995 40:0.5675934 41:0.63239533 42:0.41393274 43:0.39814228 44:0.3762795 45:0.54637545 46:0.50724232 47:0.53371543 48:0.50618351 49:0.60082048 50:0.42935929 51:0.66824311 52:0.32212859 53:0.59655899 54:0.56063461 55:0.4648203 56:0.56628805 57:0.38784644 58:0.20634867 59:0.37664387 60:0.6016748 61:0.52296561 62:0.62544799 63:0.70200956 
0 0 0 0 4.467624212441791 0 0 1.246295313668914 1.270603147805641 0 0 0 0 0 0 1.123801774866074 0 0 0 0 0 0 0 0.5216848015109593 0 0 0 0 0 0 0 0 0 0 0 1:0.44857651 2:0.46858999 3:0.65952224 4:0.50891328 5:0.66313511 6:0.32318011 7:0.61944944 8:0.1622941 9:0.71586686 10:0.50461912 11:0.5618971 12:0.53711212 13:0.4990344 14:0.58260953 15:0.43797451 16:0.51356322 17:0.40195093 18:0.58719462 19:0.40448916 20:0.5033583 21:0.41135612 22:0.46056551 23:0.61400449 24:0.72917968 25:0.72051394 26:0.55749184 27:0.49834478 28:0.42064619 29:0.21446939 30:0.55037457 31:0.44903007 32:0.54035872 33:0.49299061 34:0.57239944 35:0.59787691 36:0.52833784 37:0.66033381 38:0.50831056 39:0.4881334 40:0.50041431 41:0.63033247 42:0.53075784 43:0.32302508 44:0.28409654 45:0.50738955 46:0.49580935 47:0.57440764 48:0.37488487 49:0.61925197 50:0.37365294 51:0.82863575 52:0.5320183 53:0.56271702 54:0.35224664 55:0.43630642 56:0.56614137 57:0.44132841 58:0.16092134 59:0.47269198 60:0.66562057 61:0.56010616 62:0.71024042 63:0.5830273 
2.900055639042842 2.830656123394531 5.057602043194198 1.993606335193058 0 0 3.155674931416212 2.406780820470338 0 0 0 0 0 0 0.6992188041722548 1.605878510330871 0.9535689833511077 0.9171148867145501 1.349363585451847 0.0937351383175809 4.722684478576482 1.946678603452256 0 0 0 0 0.6898783845689244 0 0 0.9885659808851218 0 1.304629762948853 0 2.136534945364943 0 1:0.37178966 2:0.40390375 3:0.37562129 4:0.30971253 5:0.49483171 6:0.22411132 7:0.53822213 8:0.34106216 9:0.60806751 10:0.42852622 11:0.65951413 12:0.61428446 13:0.48334742 14:0.48828122 15:0.32960057 16:0.40565482 17:0.63370126 18:0.62067008 19:0.48687068 20:0.5009017 21:0.48938316 22:0.63567513 23:0.50069463 24:0.74247354 25:0.52814478 26:0.4884879 27:0.54535383 28:0.53627139 29:0.16531317 30:0.55079401 31:0.43061003 32:0.48327038 33:0.48351824 34:0.52458054 35:0.46953905 36:0.45763087 37:0.5510571 38:0.66710073 39:0.61550283 40:0.45289764 41:0.39519802 42:0.43268439 43:0.5585103 44:0.3681992 45:0.49292365 46:0.48377106 47:0.56878334 48:0.65257692 49:0.5732708 50:0.45631683 51:0.7054044 52:0.47609538 53:0.49482206 54:0.60603392 55:0.52087504 56:0.55192465 57:0.35439673 58:0.18362325 59:0.37758407 60:0.63664353 61:0.56091404 62:0.7480427 63:0.64375663 
0 0 0 0 0 0 1.419379956563951 0.1048280189902054 0 0 0 0 0 1.661080250880726 0 0 0 0 0 0 0 0 1.488436168782039 0 0 0 0 0 0 0 0 0 0.1694013635639715 0 0 1:0.35107529 2:0.50226712 3:0.49102736 4:0.46344593 5:0.64966935 6:0.51853395 7:0.50393504 8:0.35296625 9:0.58462381 10:0.67687625 11:0.61508203 12:0.50863373 13:0.52127928 14:0.64112443 15:0.61967665 16:0.73519039 17:0.23340017 18:0.70028436 19:0.38721499 20:0.58154047 21:0.4822098 22:0.46878773 23:0.40929851 24:0.53786778 25:0.36506552 26:0.33064693 27:0.55765361 28:0.45184746 29:0.32825112 30:0.6034658 31:0.36120567 32:0.65835124 33:0.48495081 34:0.65140849 35:0.76388955 36:0.38640422 37:0.7419486 38:0.47814733 39:0.52329409 40:0.47075647 41:0.69492936 42:0.53111786 43:0.50275517 44:0.30177709 45:0.29909202 46:0.49608478 47:0.53455365 48:0.6059683 49:0.62359136 50:0.53240037 51:0.74426341 52:0.37282419 53:0.5753864 54:0.34277561 55:0.57997334 56:0.57598108 57:0.47242814 58:0.12397809 59:0.55136281 60:0.66568613 61:0.59517586 62:0.70803255 63:0.55202109 
0 0 0 0 1.298553280618603 0 0.3769994352773343 0 0.4022231509504303 0 1.553832225363719 1.665570692847068 4.546127421755665 0 1.216605018293754 0.3858027220589401 0 0.30205774816021 0 0 0 0 0.3680790569718067 0.7219537949529002 1.763686127746203 0.2023666809028899 0 0 1.587777701223466 2.645800831540382 0 0.9353895979991358 0 0 1.123550085173756 1:0.34171256 2:0.53584439 3:0.47379744 4:0.5535537 5:0.33581287 6:0.20751917 7:0.72516209 8:0.17439671 9:0.7376762 10:0.64563787 11:0.71257967 12:0.84072238 13:0.39902288 14:0.44061574 15:0.44323689 16:0.40742618 17:0.25132704 18:0.5614146 19:0.37771156 20:0.46354863 21:0.4031451 22:0.39708605 23:0.38741156 24:0.94375539 25:0.5208109 26:0.36271793 27:0.64094627 28:0.4221693 29:0.30243367 30:0.53046483 31:0.33329406 32:0.74806678 33:0.60949135 34:0.41442809 35:0.42367509 36:0.4261831 37:0.61833072 38:0.62417209 39:0.61759126 40:0.45418403 41:0.65689903 42:0.39614254 43:0.42989227 44:0.5102067 45:0.56799364 46:0.5092079 47:0.55028623 48:0.4395816 49:0.65323526 50:0.46889403 51:0.78931248 52:0.4392139 53:0.65351033 54:0.52654755 55:0.43178096 56:0.51784569 57:0.40313441 58:0.24677259 59:0.47267586 60:0.63728261 61:0.51585788 62:0.63375723 63:0.65263075 
0 0 0 0 0 0 0 0 0 0 0 0 0 0 0 0 0 0 0 0 0 0 0 0 0 0 0 0.8313454478683685 0 0 0 0 0 0 0 1:0.34703878 2:0.36736432 3:0.53889453 4:0.68444103 5:0.31206834 6:0.33727828 7:0.39078701 8:0.56074357 9:0.58753681 10:0.76023507 11:0.51559627 12:0.63570023 13:0.46644384 14:0.45218009 15:0.63349897 16:0.54935008 17:0.43832171 18:0.55273944 19:0.43792489 20:0.86812073 21:0.37663162 22:0.18544324 23:0.50611788 24:0.6335097 25:0.49967518 26:0.36845353 27:0.72257006 28:0.35459396 29:0.12362657 30:0.49936521 31:0.38213852 32:0.65624058 33:0.51435268 34:0.22889851 35:0.61246258 36:0.32794333 37:0.49419215 38:0.48369673 39:0.43900979 40:0.5125674 41:0.66030902 42:0.22829059 43:0.51904494 44:0.41858831 45:0.24922682 46:0.50444698 47:0.71442693 48:0.56408644 49:0.3630785 50:0.69963342 51:0.60002172 52:0.45345515 53:0.50967371 54:0.37233922 55:0.6026113 56:0.59123462 57:0.45992616 58:0.15357701 59:0.52808893 60:0.60906196 61:0.50229675 62:0.79007715 63:0.62266409 
0 0 0 0 0 0 0 0 0 0 0 0 0 0 0 0 0 0 0 0 2.888746084802488 0 0 0 1.476614223118293 0 0 0 0 0 1.071300651714989 0 0 0 0 1:0.38884974 2:0.55486214 3:0.53510302 4:0.66121852 5:0.41534162 6:0.47217259 7:0.5131585 8:0.74842232 9:0.50816101 10:0.52985054 11:0.39487943 12:0.56185079 13:0.52554411 14:0.52177149 15:0.38276497 16:0.75685585 17:0.30282956 18:0.58871979 19:0.37160224 20:0.70255357 21:0.22671953 22:0.38695458 23:0.60100758 24:0.57951206 25:0.53340679 26:0.27383837 27:0.62459767 28:0.054591432 29:0.13762344 30:0.52688831 31:0.39204934 32:0.45719445 33:0.59324878 34:0.46200365 35:0.84807724 36:0.413533 37:0.61491215 38:0.53163469 39:0.51870078 40:0.48745987 41:0.5557431 42:0.43998659 43:0.52357793 44:0.40220317 45:0.28377807 46:0.41460612 47:0.61037111 48:0.47695923 49:0.60245663 50:0.41597033 51:0.69220698 52:0.41392753 53:0.63519162 54:0.49431413 55:0.42707574 56:0.39496389 57:0.38277733 58:0.16043124 59:0.41808024 60:0.60466802 61:0.47747836 62:0.86896127 63:0.64690357 
0 0 0.1976219792315039 0 4.279533182125887 0 0 0 0 0 0 0.03801510882260116 0 0 0 0 0 0 0 0 0 0 0 0.1102436148516177 0.3343431711788167 0.05068830880874046 0 0 0 0 0 0 0.2052304603504098 0 1.256835260028227 1:0.18343826 2:0.6383245 3:0.51160884 4:0.46687871 5:0.55679542 6:0.42679957 7:0.49609557 8:0.27326164 9:0.8288275 10:0.50402671 11:0.6734876 12:0.49971277 13:0.65397239 14:0.54680264 15:0.38534504 16:0.57171494 17:0.2422878 18:0.45920372 19:0.44203672 20:0.33096126 21:0.25917712 22:0.59744227 23:0.63268936 24:0.80670953 25:0.49640587 26:0.4075875 27:0.47871912 28:0.50988138 29:0.39020544 30:0.50667477 31:0.50277674 32:0.66518885 33:0.57107389 34:0.44111052 35:0.63786596 36:0.2621299 37:0.71365434 38:0.55496758 39:0.56743681 40:0.4462328 41:0.65534908 42:0.53709525 43:0.35341659 44:0.41703773 45:0.54238069 46:0.5583449 47:0.45060751 48:0.5061962 49:0.68969166 50:0.36958328 51:0.70649594 52:0.45821336 53:0.63658708 54:0.47191948 55:0.47370729 56:0.5343408 57:0.39689416 58:0.18597226 59:0.58655173 60:0.70989728 61:0.52263105 62:0.67338121 63:0.67336839 
0 0 0 0 0 0.6796181661925401 0 0 0 0 0 0 0 0 0 0.1470757065392306 0 0 0 0 0 0 0 0 0 0 0 0 0 0 0 0 0 0 0 1:0.37037784 2:0.54276162 3:0.41388583 4:0.65630668 5:0.39239386 6:0.61798596 7:0.42427728 8:0.47843149 9:0.55028522 10:0.51147473 11:0.5364123 12:0.5758779 13:0.61263764 14:0.50825429 15:0.39077672 16:0.75540543 17:0.25427508 18:0.60677034 19:0.35983866 20:0.60542941 21:0.28283247 22:0.5036186 23:0.58018506 24:0.60346037 25:0.61149412 26:0.26368958 27:0.601587 28:0.34424394 29:0.19377351 30:0.7331503 31:0.4401322 32:0.57184559 33:0.5796777 34:0.47301647 35:0.7514618 36:0.32408583 37:0.71942544 38:0.46081421 39:0.48724374 40:0.57005262 41:0.79724133 42:0.52358174 43:0.39899665 44:0.41449636 45:0.3095547 46:0.45243096 47:0.59618062 48:0.52226502 49:0.61784911 50:0.40048954 51:0.61562926 52:0.40873316 53:0.61378509 54:0.39924031 55:0.56437802 56:0.53824514 57:0.44218874 58:0.13335225 59:0.49577218 60:0.5875206 61:0.5514003 62:0.79807925 63:0.61239046 
1.917264259108191 2.867284350686525 3.143780761384384 1.409873808321854 2.750855361420294 1.806030370940978 4.417629252718615 1.979165302822959 1.291211141865272 0.06358957809022561 0 1.406603296152532 1.082324439275928 1.878039728215201 0.1377312534478804 0.9218533799617548 0 0.1465911626898656 0.2428212351264721 2.452240791637333 1.510100398797613 1.740047270391437 1.731229644781622 1.868981963494966 1.63395986674532 1.429661122165343 0.1964304539936411 1.242323627286348 0 1.585028617832178 3.568055725128179 2.375798246687608 0.8150911315128604 4.802889639698916 1.002883654790114 1:0.11792652 2:0.72689068 3:0.53164971 4:0.15324669 5:0.31341335 6:0.72621024 7:0.45957267 8:0.31174809 9:0.53069884 10:0.39991111 11:0.56814808 12:0.80845827 13:0.61572379 14:0.41406658 15:0.26914752 16:0.41141906 17:0.32319948 18:0.68929493 19:0.65190858 20:0.68110424 21:0.39740887 22:0.38448238 23:0.18775246 24:0.69033533 25:0.61094731 26:0.45130092 27:0.34101018 28:0.78376579 29:1 30:0.3195087 31:0.68800724 32:0.34095299 33:1 34:0.70503336 35:0.29237232 36:0.46755782 37:0.5330798 38:0.73677891 39:0.31912714 40:0.33848354 41:0.71456021 42:0.46601424 43:0.42433643 44:0.34732464 45:0.37483013 46:0.59142995 47:0.46570081 48:0.74137372 49:0.42113847 50:0.4502441 51:0.64631271 52:0.40376976 53:0.3265568 54:0.45971474 55:0.38823172 56:0.6674785 57:0.36417243 58:0.33457682 59:0.43301287 60:0.58225119 61:0.4171302 62:0.6522029 63:0.74147123 
0 0.2215862366694656 0 0 0 0 0 0 0 0 0 0 0 0 0 0 0.2567863338246363 0 0 0 0 0 0.5748594613586142 0.05013609321803222 0 0 0 0 2.070137985207201 1.998856746648721 0 0 0 1.573874329023352 0 1:0.6109035 2:0.65387869 3:0.53727043 4:0.66549301 5:0.4939419 6:0.56911647 7:0.4397966 8:0.45949641 9:0.71518391 10:0.55192477 11:0.59759659 12:0.75324494 13:0.2161098 14:0.50361973 15:0.6412558 16:0.34778777 17:0.46891198 18:0.72634602 19:0.5447945 20:0.72617745 21:0.672328 22:0.51640493 23:0.4075571 24:0.23340413 25:0.40237543 26:0.59729666 27:0.40482423 28:0.62097716 29:0.63074303 30:0.60629296 31:0.57458019 32:0.35423368 33:0.66152269 34:0.52944577 35:0.5716868 36:0.51151884 37:0.61372691 38:0.51268512 39:0.49378374 40:0.51447886 41:0.53567868 42:0.4407647 43:0.56418681 44:0.20341587 45:0.24354477 46:0.61784828 47:0.56994843 48:0.25109568 49:0.57021272 50:0.57774431 51:0.67748863 52:0.59734714 53:0.50621212 54:0.35637355 55:0.48791027 56:0.40830824 57:0.50375921 58:0.38006279 59:0.49038184 60:0.77540684 61:0.65452302 62:0.84443706 63:0.52440697 
0 0 0 0 0 0 0 0 0 0 0 0 0 0 0.116045795979545 0 0 0 0 0 0 0 0 0 0 0 0 0 0 0 0 0 0 0 0 1:0.46493462 2:0.63227767 3:0.41339004 4:0.63165486 5:0.40393493 6:0.58616912 7:0.57372397 8:0.39275584 9:0.7114318 10:0.7167955 11:0.3647469 12:0.58382428 13:0.46903265 14:0.70594257 15:0.56659007 16:0.52317661 17:0.36117437 18:0.68766809 19:0.4436284 20:0.71736962 21:0.61889637 22:0.39013356 23:0.420248 24:0.17253374 25:0.38167688 26:0.59070116 27:0.40559196 28:0.69949317 29:0.65372217 30:0.51369601 31:0.29362652 32:0.28277916 33:0.60612005 34:0.64876336 35:0.3588126 36:0.46603307 37:0.58292586 38:0.64155763 39:0.49432209 40:0.37909538 41:0.65215302 42:0.43501198 43:0.60397726 44:0.24864654 45:0.15017608 46:0.74508566 47:0.26585361 48:0.47662526 49:0.68652582 50:0.55194581 51:0.56271642 52:0.59656954 53:0.5601207 54:0.53375328 55:0.34250394 56:0.48275128 57:0.3743476 58:0.27317205 59:0.36123413 60:0.70734394 61:0.62471032 62:0.78672147 63:0.71892756 
1.701890213349346 2.330338301993536 0 0 1.902973669515031 1.351595929842369 0 0 0 0 0 0 0 0 0 0.8001571397261644 0 0 0 0.4839416989872435 0 0 0 0 0 0 0 0 0.03357662891208941 0.7997272124150013 1.403760647203946 0 0 0 0 1:0.32731086 2:0.4568283 3:0.61708313 4:0.51099813 5:0.42939919 6:0.45256987 7:0.58227891 8:0.51750457 9:0.55396724 10:0.58251303 11:0.38831991 12:0.59957951 13:0.56694168 14:0.5130803 15:0.43771183 16:0.75643402 17:0.51407117 18:0.56595522 19:0.41508257 20:0.56580657 21:0.45251951 22:0.37764439 23:0.52954555 24:0.37927696 25:0.27069241 26:0.78323853 27:0.39303976 28:0.49290898 29:0.6283918 30:0.57934445 31:0.63695878 32:0.25041676 33:0.56516886 34:0.45077789 35:0.60352367 36:0.50132477 37:0.60456872 38:0.59402531 39:0.38377431 40:0.44839081 41:0.42168486 42:0.30006209 43:0.43096715 44:0.34097639 45:0.242736 46:0.44064176 47:0.54865396 48:0.31525883 49:0.66545933 50:0.3958565 51:0.58768827 52:0.59698826 53:0.52607763 54:0.47227439 55:0.55788171 56:0.39900565 57:0.55462962 58:0.36645713 59:0.38260859 60:0.64354181 61:0.59584999 62:0.91263354 63:0.55934525 
0 0 0 0 0 0 0 0 0 0 0 0 0 0 0.7304579998368999 0.1120539853304282 0 0 0 0 1.719059949019129 0 0 0 0 0 0 0 0 0 0 0 0 0 1.04625003480574 1:0.44024396 2:0.63656938 3:0.48410296 4:0.62825543 5:0.53113186 6:0.58497202 7:0.59141839 8:0.56875277 9:0.49392167 10:0.61533242 11:0.31329268 12:0.59952897 13:0.67021376 14:0.74140692 15:0.4065662 16:0.67175406 17:0.53677869 18:0.4757528 19:0.39728865 20:0.68801177 21:0.59913856 22:0.41078863 23:0.3097139 24:0.24929725 25:0.2799069 26:0.74282897 27:0.37305331 28:0.37618899 29:0.5850569 30:0.52682167 31:0.32334411 32:0.29378662 33:0.58727396 34:0.58634192 35:0.41607833 36:0.50416881 37:0.39996776 38:0.59453493 39:0.46661356 40:0.40594938 41:0.5289951 42:0.41483015 43:0.53721315 44:0.19288923 45:0.066213235 46:0.65499705 47:0.36628589 48:0.55863529 49:0.68850738 50:0.53742123 51:0.53501183 52:0.58345872 53:0.51647836 54:0.57336128 55:0.36198366 56:0.46974051 57:0.40833706 58:0.29320601 59:0.31181782 60:0.59783149 61:0.55340397 62:0.88126546 63:0.75955617 
0 0 0 1.855873363568378 0 0 0 0 2.242436495015139 0 3.349682805004866 0 0 0 1.650629040536542 0 0 0 0 0 0 0 0.5065750695259605 0 0 0 0 0 0 0 0 0 0 0 0 1:0.34507096 2:0.53710055 3:0.5554288 4:0.4813326 5:0.52287114 6:0.4721421 7:0.577281 8:0.49076778 9:0.59795976 10:0.56169659 11:0.40515119 12:0.63296765 13:0.65372384 14:0.56859207 15:0.41342404 16:0.75177455 17:0.51744783 18:0.60009366 19:0.39243335 20:0.54607278 21:0.39977568 22:0.41822898 23:0.50236166 24:0.33356017 25:0.24357203 26:0.75777364 27:0.39069119 28:0.44067514 29:0.590994 30:0.61085689 31:0.60532808 32:0.23071557 33:0.5527426 34:0.46994698 35:0.5887875 36:0.46396381 37:0.61451489 38:0.57834566 39:0.39545003 40:0.45097241 41:0.46411681 42:0.32439256 43:0.44097239 44:0.28629827 45:0.24648324 46:0.46054542 47:0.55999917 48:0.29490957 49:0.66928297 50:0.37290904 51:0.6225493 52:0.62254053 53:0.50213403 54:0.45444453 55:0.56424946 56:0.40244159 57:0.55614138 58:0.36497566 59:0.37415281 60:0.65569824 61:0.60599113 62:0.90319932 63:0.54874337 
0 0 0 0 0 0 0 0 0 0 0 0 0 0 0 0 0 0 0 0 0 0 0 0 0 0 0 0 0 0 0 0 0.03408965593755591 0 0 1:0.44069231 2:0.50102448 3:0.36423826 4:0.58737069 5:0.36493397 6:0.62116605 7:0.35579589 8:0.41950479 9:0.59088534 10:0.67703992 11:0.4836978 12:0.52569699 13:0.46489251 14:0.66894227 15:0.28433648 16:0.49919805 17:0.11694212 18:0.54972678 19:0.34755206 20:0.56729108 21:0.49188641 22:0.24789751 23:0.54070568 24:0.45337176 25:0.47726989 26:0.41522142 27:0.49637601 28:0.50994551 29:0.35096616 30:0.64004385 31:0.32044458 32:0.43804508 33:0.51544458 34:0.43554467 35:0.6851514 36:0.3559469 37:0.71608412 38:0.60907453 39:0.47723863 40:0.55053443 41:0.71016771 42:0.53654355 43:0.42416972 44:0.31825218 45:0.28373158 46:0.50053048 47:0.63287288 48:0.40611854 49:0.60923731 50:0.49550635 51:0.65149677 52:0.40095946 53:0.68400025 54:0.27806485 55:0.34424049 56:0.41765234 57:0.38515556 58:0.16277041 59:0.40648806 60:0.67654347 61:0.60849148 62:0.79441053 63:0.6057452 
0 0 0 0 0 0 0 0 0 0.05047743305682736 0 0 0 0 0 0.3466310461861138 0.1813956403631617 0 0 0 0 0 0 0 0 0 0 0 0 0 0 0 0.1339128178601746 0.7218776722296926 0 1:0.49624425 2:0.68675148 3:0.41328904 4:0.63200164 5:0.45661056 6:0.57941574 7:0.53672725 8:0.49988312 9:0.7410152 10:0.75435275 11:0.45260328 12:0.60123831 13:0.4553467 14:0.70993555 15:0.55030012 16:0.49247256 17:0.51734686 18:0.52489412 19:0.44220704 20:0.755 21:0.68592954 22:0.28715095 23:0.3931224 24:0.14834256 25:0.41137421 26:0.65096325 27:0.32090029 28:0.7465052 29:0.7718361 30:0.49177918 31:0.35356167 32:0.25024992 33:0.6903007 34:0.64749229 35:0.34157702 36:0.40170601 37:0.5173099 38:0.59963089 39:0.4268015 40:0.3900297 41:0.68286014 42:0.4098745 43:0.74293011 44:0.28188291 45:0.17511953 46:0.78514206 47:0.17644183 48:0.51514775 49:0.68321812 50:0.58148301 51:0.57804382 52:0.58098078 53:0.53547132 54:0.44757763 55:0.29090977 56:0.52111036 57:0.31892663 58:0.27501306 59:0.32558346 60:0.71814811 61:0.66266155 62:0.71821123 63:0.73685938 
0 0 0 0 0 0 0 0.3331834257674443 0 0 0 0 0 0.04115417222882115 0 0 0 0.5934070595454799 0 0 0 0 0 0 0 0 0 0 0 0 0 0 0 0 0 1:0.57675159 2:0.5035041 3:0.42655796 4:0.51991516 5:0.63556111 6:0.65763837 7:0.28989258 8:0.57007813 9:0.57435042 10:0.60111552 11:0.58114105 12:0.64558983 13:0.57242882 14:0.68940896 15:0.43712884 16:0.4665758 17:0.35493734 18:0.70192564 19:0.53185868 20:0.56305653 21:0.60425144 22:0.52994204 23:0.43726832 24:0.20126112 25:0.29744729 26:0.51977026 27:0.44117561 28:0.67893851 29:0.51579332 30:0.73722959 31:0.48910499 32:0.37915593 33:0.49602032 34:0.58311808 35:0.52823538 36:0.46378365 37:0.69007975 38:0.62821996 39:0.53305328 40:0.48553473 41:0.6216715 42:0.40155697 43:0.49287242 44:0.21876104 45:0.31847525 46:0.57358325 47:0.39234093 48:0.57427227 49:0.65548509 50:0.58333755 51:0.77764815 52:0.57946151 53:0.60707855 54:0.47227982 55:0.51607484 56:0.52413774 57:0.46831644 58:0.23817195 59:0.47074747 60:0.76965427 61:0.5960893 62:0.81630379 63:0.57385671 
0 0 0 0 0 0 0 0 0 0 0.4011929528067999 0 0 0.1812152466799854 0 0 0 0.8848354707332873 0 0 0 0 0 0 0 0 0 0 0 0 0 0.0009147230091799925 0 0 0 1:0.47616881 2:0.52985102 3:0.50080907 4:0.55869931 5:0.38700706 6:0.4919067 7:0.44382012 8:0.4296743 9:0.64494479 10:0.55748004 11:0.49684867 12:0.65330827 13:0.35679698 14:0.71510237 15:0.57461232 16:0.4610526 17:0.36173221 18:0.68839949 19:0.530478 20:0.6198982 21:0.70059007 22:0.4419454 23:0.44341725 24:0.29934123 25:0.22828834 26:0.53829014 27:0.49543706 28:0.61025167 29:0.71681297 30:0.56022143 31:0.57523859 32:0.26330343 33:0.6688149 34:0.50289041 35:0.50864983 36:0.4748899 37:0.63519949 38:0.56395561 39:0.55511636 40:0.42038745 41:0.47964326 42:0.4209674 43:0.55697697 44:0.33794951 45:0.22948773 46:0.57620782 47:0.41188794 48:0.31027448 49:0.60667109 50:0.5379312 51:0.65674734 52:0.60333192 53:0.62350273 54:0.41309044 55:0.43245202 56:0.39722788 57:0.38789868 58:0.36485246 59:0.39593697 60:0.75691098 61:0.68851793 62:0.78418529 63:0.60029864 
1.468048416006066 2.237144879276073 0 0 0 0 0 0.4148996288004413 0 0 0.8284821058124363 7.827505401669634 3.576443860412357 0 0 1.540027437914979 1.519270790564659 0 0.3381506916430086 0.9740689480576701 0 2.434381369521412 0 1.392123077945352 0 0 0.7631327349104314 0.9438383235694063 0.1610487615715423 1.443088158764469 0 3.694277528046548 0 0 0.2493761386909162 1:0.45745486 2:0.55928272 3:0.53275293 4:0.6830036 5:0.52387679 6:0.5695557 7:0.34446779 8:0.45364147 9:0.67666918 10:0.59369004 11:0.40610552 12:0.58626884 13:0.53933161 14:0.71552789 15:0.4315576 16:0.67039979 17:0.21768884 18:0.69835448 19:0.49346492 20:0.55121243 21:0.40547973 22:0.44176197 23:0.50088406 24:0.43513256 25:0.59736729 26:0.47768137 27:0.45345014 28:0.41551018 29:0.39842901 30:0.60952276 31:0.46530172 32:0.34484977 33:0.51116234 34:0.50732684 35:0.63692951 36:0.48124185 37:0.68990469 38:0.6109851 39:0.57344854 40:0.43351716 41:0.63322055 42:0.60555446 43:0.45288289 44:0.30277169 45:0.44596305 46:0.55637956 47:0.35637665 48:0.44195676 49:0.55623144 50:0.48156232 51:0.76843458 52:0.54256153 53:0.87216353 54:0.47258094 55:0.53639567 56:0.39249682 57:0.47389966 58:0.25757012 59:0.43633491 60:0.75492102 61:0.61780328 62:0.71678692 63:0.60063034 
0 0 0 0 0 0 0 0 0 0 0 0 0 0 0 0.4756653853609138 0 0 0 0 0 0 0 0 0 0 1.461152997306342 0 0 0 0 0 0 0 0 1:0.35274735 2:0.5077523 3:0.6068033 4:0.49503925 5:0.57151532 6:0.32733732 7:0.88105649 8:0.53219557 9:0.79281038 10:0.62323308 11:0.64492226 12:0.56322217 13:0.74840695 14:0.58467633 15:0.4313238 16:0.52183366 17:0.35998389 18:0.5974763 19:0.61636281 20:0.55789363 21:0.31648582 22:0.48619646 23:0.41740084 24:0.85304534 25:0.67510909 26:0.72282428 27:0.52554935 28:0.39831078 29:0.54815501 30:0.41885853 31:0.54780573 32:0.59802264 33:0.60778022 34:0.41564435 35:0.45345545 36:0.56126326 37:0.66621351 38:0.87253422 39:0.75792301 40:0.2720333 41:0.39655817 42:0.45121661 43:0.45289877 44:0.34698674 45:0.5480634 46:0.64430809 47:0.32678241 48:0.53193855 49:0.65573257 50:0.53558952 51:0.93388045 52:0.56032985 53:0.53691119 54:0.5619992 55:0.54341072 56:0.46899444 57:0.34772238 58:0.30982161 59:0.366126 60:0.79674059 61:0.53376341 62:0.68663764 63:0.70226288 
0 1.637606984022934 0 0 0 1.079849588584689 0 0.5073115660706825 0 0 0.5326663758710127 0 0 0 0 0.1535691690266384 0 2.762429284493161 0.7948935202937925 0 0 1.962474053567387 0 0 0 0 0 0 0.5412026544280142 0 0 0 0.8144757853256779 1.018555118779494 0 1:0.29576477 2:0.61325693 3:0.62533224 4:0.46521857 5:0.52426058 6:0.33047688 7:0.60239816 8:0.54874814 9:0.59286171 10:0.57631594 11:0.93729973 12:0.48030171 13:0.41697046 14:0.52259147 15:0.49564108 16:0.46175197 17:0.36361179 18:0.35364541 19:0.68105519 20:0.39489239 21:0.40018076 22:0.66511691 23:0.48129246 24:0.64532429 25:0.42210743 26:0.6294657 27:0.37625197 28:0.58819872 29:0.62156874 30:0.52028757 31:0.65351045 32:0.58437413 33:0.7280314 34:0.40543938 35:0.5530647 36:0.4785963 37:0.69484556 38:0.88461447 39:0.64220393 40:0.48228437 41:0.47708958 42:0.46865806 43:0.39892575 44:0.32504138 45:0.46156275 46:0.58019692 47:0.54345024 48:0.32276675 49:0.80579591 50:0.48181012 51:0.79441923 52:0.67903823 53:0.39817318 54:0.34324223 55:0.45247656 56:0.43373629 57:0.43701982 58:0.3533074 59:0.50342244 60:0.77834368 61:0.70321625 62:0.64386755 63:0.53975457 
0 0 0 0 0 0 0 0 0 0 0 0 0 0 0 0 0 0 0 0 0 0 0 0 0.07620482009318874 0 0 0 0 0 0 0 0 0 0 1:0.22024727 2:0.53548968 3:0.50525719 4:0.6539579 5:0.37332875 6:0.28628087 7:0.76165396 8:0.74410135 9:0.58618116 10:0.62354749 11:0.87673396 12:0.39303014 13:0.50628424 14:0.63145179 15:0.51887697 16:0.55646211 17:0.31084073 18:0.37774912 19:0.64389831 20:0.3942847 21:0.37328216 22:0.47554073 23:0.41300839 24:0.72256595 25:0.34444425 26:0.8091532 27:0.44500697 28:0.46563038 29:0.52472216 30:0.28573889 31:0.51837707 32:0.55983216 33:0.77623045 34:0.61238784 35:0.49288827 36:0.44319457 37:0.66012323 38:0.89207113 39:0.75312811 40:0.45491409 41:0.58226949 42:0.48305106 43:0.50848591 44:0.27960709 45:0.31455323 46:0.66724724 47:0.37263563 48:0.52287763 49:0.77448744 50:0.57481211 51:0.76146615 52:0.59268057 53:0.44405898 54:0.54311806 55:0.38659847 56:0.50338763 57:0.38500544 58:0.38619763 59:0.47760814 60:0.72412115 61:0.63404214 62:0.61764675 63:0.71645635 
1.893929468083103 0 0 0 0 1.577007185620224 0 0.7347158092940581 0 0.9196205616761874 0 0.1223736633707919 0.1396925484237704 0 0 0 0 0.8899898995290952 0 0 0 1.789047059240003 0 0.248568491607625 0 0 0 1.995556249509285 0 0 0 0.2182201832661087 0.4329274046042325 0 0 1:0.60698515 2:0.80175 3:0.34868571 4:0.421689 5:0.59312737 6:0.34324035 7:0.51493871 8:0.50490487 9:0.53315127 10:0.60773283 11:0.59175974 12:0.62292176 13:0.52758551 14:0.5524869 15:0.51068139 16:0.53042156 17:0.54433668 18:0.48079723 19:0.54015964 20:0.65487581 21:0.43262231 22:0.71328419 23:0.45615116 24:0.21363911 25:0.24999125 26:0.52210134 27:0.36703411 28:0.66444105 29:0.40373585 30:0.64188004 31:0.57938099 32:0.36354175 33:0.57662284 34:0.47941297 35:0.63565129 36:0.51679176 37:0.52855015 38:0.50778031 39:0.45220351 40:0.50290966 41:0.4665612 42:0.24555463 43:0.49662814 44:0.26940501 45:0.2080576 46:0.54020464 47:0.67094469 48:0.38965604 49:0.50296462 50:0.63660902 51:0.5385114 52:0.69629681 53:0.55315214 54:0.32190758 55:0.43462047 56:0.45620218 57:0.47528479 58:0.16682597 59:0.34592935 60:0.67233229 61:0.75621402 62:0.74906027 63:0.5712325 
0 0 0 0 0 0 0 0 0 0 0 1.081163533824425 2.196615188577718 0 0 0 0 0 0 0 0 0 0 0 0 1.509670881098361 0.05981251987205068 0 0 0 0 0 0 0 0 1:0.51460606 2:0.47967851 3:0.55072302 4:0.69138873 5:0.46864972 6:0.22700176 7:0.3809852 8:0.7864626 9:0.49641663 10:0.47734323 11:0.45567849 12:0.61250556 13:0.50139636 14:0.60950983 15:0.32733196 16:0.36561391 17:0.48680535 18:0.38339233 19:0.40624422 20:0.7869305 21:0.52040517 22:0.62333691 23:0.48064151 24:0.22194235 25:0.25210521 26:0.58850533 27:0.47478381 28:0.45381323 29:0.22508229 30:0.51637381 31:0.48755637 32:0.52848852 33:0.48004103 34:0.52871954 35:0.42664713 36:0.3856113 37:0.44238955 38:0.52636504 39:0.43451053 40:0.52444172 41:0.47003019 42:0.22550765 43:0.58126396 44:0.28979772 45:0.18899974 46:0.47429809 47:0.53184682 48:0.74349546 49:0.38027677 50:0.72652191 51:0.64042914 52:0.60861218 53:0.5565753 54:0.5922277 55:0.61688352 56:0.54344237 57:0.42244956 58:0.20472209 59:0.27752978 60:0.64774114 61:0.55113053 62:0.7931996 63:0.69546968 
0 0 0 0 0 0 0 0 0 0 0 0 0 0 0 0 0 0.1955605033204095 0.3941255538829919 0.3966047016864634 0 0 0 0 0 1.414891500989252 0 0 0 0 0 0 0 0 0 1:0.43335789 2:0.58366805 3:0.27028513 4:0.48828566 5:0.48437929 6:0.3467494 7:0.44959718 8:0.54336399 9:0.41211751 10:0.61736655 11:0.64683717 12:0.6779964 13:0.43784282 14:0.53685713 15:0.48590609 16:0.46789959 17:0.50975114 18:0.51499224 19:0.53822249 20:0.61228138 21:0.46773234 22:0.70568907 23:0.41243029 24:0.26799458 25:0.20605625 26:0.58417654 27:0.45982221 28:0.6400404 29:0.43623349 30:0.58100969 31:0.61105555 32:0.45730704 33:0.57286412 34:0.48136589 35:0.68110478 36:0.46861985 37:0.49386406 38:0.50088817 39:0.44835281 40:0.538064 41:0.50056016 42:0.22970016 43:0.54604894 44:0.31109968 45:0.21074812 46:0.5201242 47:0.71211594 48:0.48586503 49:0.52921885 50:0.64282924 51:0.53083736 52:0.69715017 53:0.53254396 54:0.35146791 55:0.45393613 56:0.50768459 57:0.47953051 58:0.18624945 59:0.32597879 60:0.63401616 61:0.7339257 62:0.78694665 63:0.57464671 
0 0 0 0 0 0 0 0 0 0 0 0 0.5566554558045856 0 0 0 0 0 0.09296318084764166 0.07530377014335483 0 0 0.1450146269330918 0 0 0 0 0.282055612850759 1.672046417366526 0 0 0 0 0.4319193195520851 0 1:0.51760864 2:0.49316642 3:0.58116907 4:0.67152596 5:0.46802288 6:0.20889561 7:0.37312314 8:0.80817902 9:0.51130795 10:0.46000481 11:0.47482386 12:0.62592316 13:0.53788227 14:0.63088989 15:0.36035749 16:0.39120334 17:0.4929944 18:0.40902981 19:0.42799827 20:0.77369517 21:0.51195526 22:0.61719483 23:0.46678796 24:0.21721452 25:0.25198627 26:0.60624903 27:0.48411834 28:0.45221639 29:0.22144245 30:0.49063846 31:0.47418585 32:0.55584127 33:0.47069243 34:0.54676598 35:0.41248512 36:0.37494624 37:0.42986417 38:0.53920645 39:0.42191738 40:0.52623415 41:0.47043091 42:0.22880083 43:0.59352577 44:0.26811427 45:0.18457603 46:0.48167083 47:0.51718175 48:0.73868662 49:0.37406328 50:0.73120117 51:0.64839983 52:0.62651896 53:0.5642817 54:0.61388695 55:0.61560088 56:0.53543586 57:0.43353248 58:0.21039301 59:0.27984148 60:0.64461333 61:0.54799074 62:0.78785723 63:0.702429 
0.5339399919867343 0 0 0 0 0 0 0 0 0 0 0 0 0 0 0 1.619867731264978 0 0 0 0 0 0 0 0 0 0 0 0 0 0 0 0 0 0 1:0.38327843 2:0.608639 3:0.33408684 4:0.56763929 5:0.52168351 6:0.28747246 7:0.63443118 8:0.69810951 9:0.66233492 10:0.68491817 11:0.54307997 12:0.56796402 13:0.50441152 14:0.63476139 15:0.39614359 16:0.46313903 17:0.5417127 18:0.42520285 19:0.28323549 20:0.74184376 21:0.35159439 22:0.59217876 23:0.55030888 24:0.18951613 25:0.29417169 26:0.50377291 27:0.5562225 28:0.68297011 29:0.28678551 30:0.55533063 31:0.42508265 32:0.46541551 33:0.56848085 34:0.60545635 35:0.41123971 36:0.41678956 37:0.38204992 38:0.40976775 39:0.45678106 40:0.47491276 41:0.56048572 42:0.1901591 43:0.66299981 44:0.35884002 45:0.19465606 46:0.71323287 47:0.36633229 48:0.67347378 49:0.55055898 50:0.7688123 51:0.56006819 52:0.65668947 53:0.48343393 54:0.50162554 55:0.38734758 56:0.58116293 57:0.34834173 58:0.13397847 59:0.2708241 60:0.59411734 61:0.70013934 62:0.72857463 63:0.74550694 
0 0 0 2.210610726140771 0 0 0 0 0 0 0 0 0 0 0 0 0 0 0 0 0 0 0 0 0 0 0 0 0 0 0 0 0 0 0 1:0.43300077 2:0.47222543 3:0.37924984 4:0.6342901 5:0.56894028 6:0.34022835 7:0.42965955 8:0.73013914 9:0.48151022 10:0.55630016 11:0.56403613 12:0.63837135 13:0.6563651 14:0.47946978 15:0.36734185 16:0.50608182 17:0.47704133 18:0.45911309 19:0.42009079 20:0.8208006 21:0.53051281 22:0.65059012 23:0.26918307 24:0.2617172 25:0.32924697 26:0.55441135 27:0.41665781 28:0.56864309 29:0.26690298 30:0.54161352 31:0.5021804 32:0.48590758 33:0.53594649 34:0.56896895 35:0.43757272 36:0.3375988 37:0.37877861 38:0.48198035 39:0.4660933 40:0.54316777 41:0.54644752 42:0.16610678 43:0.47328717 44:0.1985942 45:0.16729714 46:0.5109399 47:0.66795236 48:0.58865237 49:0.47291756 50:0.71586764 51:0.51555997 52:0.58981669 53:0.51859111 54:0.48941892 55:0.54879314 56:0.63417029 57:0.50499505 58:0.20522469 59:0.33703822 60:0.60680425 61:0.55212104 62:0.83607566 63:0.62763876 
0 0 3.927832441005665 0 0 0 0 0 0 0 0 0 0 0 0 0 0 0 0 0 0.4153094205425921 0 0 0 0 0 0 0 0.3599580015572676 0 0 0 0 0 0 1:0.34586629 2:0.59713334 3:0.54948151 4:0.71131867 5:0.45322424 6:0.62882656 7:0.61119854 8:0.517268 9:0.5957889 10:0.53782797 11:0.38065398 12:0.54949939 13:0.58524603 14:0.79719669 15:0.43407857 16:0.92740291 17:0.47520557 18:0.40910393 19:0.47882488 20:0.64482522 21:0.58603275 22:0.42302325 23:0.41745165 24:0.44506267 25:0.27074364 26:0.68765938 27:0.3727476 28:0.37035364 29:0.45020494 30:0.56650579 31:0.32601565 32:0.26612186 33:0.60147423 34:0.61873335 35:0.42214215 36:0.43200761 37:0.54364085 38:0.59350848 39:0.5603261 40:0.3792226 41:0.53189164 42:0.46497211 43:0.56962073 44:0.19515139 45:0.12561373 46:0.6139943 47:0.41151637 48:0.5919888 49:0.67452914 50:0.48132029 51:0.55717456 52:0.58578056 53:0.5337261 54:0.5397976 55:0.3116293 56:0.43930033 57:0.36457616 58:0.24622619 59:0.29962134 60:0.60466248 61:0.60504735 62:0.82858646 63:0.78408688 
0 0 0 0 0 0 0 0 0 0 0 0 0 0 0 0 0 0 0 0 0 0 0 0 0.6065528620553156 0 0 0 0 0 2.471356064674534 0 0 0 0 1:0.47901788 2:0.5399707 3:0.42559788 4:0.6121124 5:0.63000894 6:0.6560787 7:0.5177871 8:0.56003159 9:0.4959906 10:0.46471962 11:0.35423768 12:0.59371382 13:0.6020956 14:0.57823646 15:0.35978696 16:0.65719545 17:0.59221238 18:0.38889068 19:0.51064849 20:0.73656929 21:0.69739282 22:0.45966077 23:0.36903894 24:0.32444227 25:0.269559 26:0.57303214 27:0.4074004 28:0.36801928 29:0.47868168 30:0.53340781 31:0.4483726 32:0.45810932 33:0.51354063 34:0.59536058 35:0.54804397 36:0.49618185 37:0.59262639 38:0.52108765 39:0.46067336 40:0.46299389 41:0.49000055 42:0.33212477 43:0.44510913 44:0.20773849 45:0.12153307 46:0.4838202 47:0.50936425 48:0.52968067 49:0.56259966 50:0.50342399 51:0.68581307 52:0.52971613 53:0.47709101 54:0.49543214 55:0.60134673 56:0.50219786 57:0.47391444 58:0.35909024 59:0.36399409 60:0.64419699 61:0.43551251 62:0.94099891 63:0.67363524 
0 0 0 0 0 0 0.5294900320742854 0 0.2065200412985141 0 0.4436357343568582 0 0 0 0 0 0 0 0 0 0 0 0 0 0 0 0 0 0 0 0 0 0 0 0 1:0.37790436 2:0.56048357 3:0.49309498 4:0.44414589 5:0.64208865 6:0.50090075 7:0.63523299 8:0.40943035 9:0.51924455 10:0.59577358 11:0.45160511 12:0.55316263 13:0.45945537 14:0.64144057 15:0.49315476 16:0.73080426 17:0.4662371 18:0.52436829 19:0.48081321 20:0.59816921 21:0.33990619 22:0.45721048 23:0.49831834 24:0.32999626 25:0.24865367 26:0.6906414 27:0.42038497 28:0.56347775 29:0.53002959 30:0.64358294 31:0.48638126 32:0.23453742 33:0.58184278 34:0.44375393 35:0.47507048 36:0.49416021 37:0.59821612 38:0.61119455 39:0.29955661 40:0.39984807 41:0.5078249 42:0.30124936 43:0.43496332 44:0.42355329 45:0.24028334 46:0.55973488 47:0.48565444 48:0.33034635 49:0.77080214 50:0.41391104 51:0.62657768 52:0.6133827 53:0.59571236 54:0.40614814 55:0.508048 56:0.39803904 57:0.4735637 58:0.29250401 59:0.32668063 60:0.69268692 61:0.64722866 62:0.81159049 63:0.57575828 
0 0 0 0 0 0 0 0 0 0 0 0 0 0 0 0 1.005006392933161 0 0 0 0 0 0 0 0 0 0 0 1.084067930973681 0 0 0 0 0 0 1:0.32390416 2:0.49703258 3:0.55419761 4:0.55737996 5:0.39198315 6:0.37831551 7:0.73630655 8:0.4600094 9:0.68161494 10:0.59456098 11:0.60949373 12:0.51880139 13:0.88061064 14:0.51512915 15:0.38773745 16:0.59511709 17:0.3345812 18:0.57539982 19:0.70240033 20:0.24187845 21:0.43768835 22:0.62255877 23:0.33466473 24:0.81403434 25:0.6822446 26:0.70655209 27:0.48992366 28:0.3173179 29:0.60143501 30:0.32596844 31:0.51530892 32:0.44071278 33:0.64100999 34:0.40767425 35:0.45399347 36:0.44393417 37:0.5113337 38:0.87016797 39:0.71806818 40:0.29753205 41:0.40675858 42:0.38392019 43:0.27206475 44:0.13425122 45:0.46423036 46:0.63306093 47:0.38100991 48:0.4449777 49:0.6180408 50:0.4280957 51:0.8121137 52:0.48152 53:0.61163503 54:0.52331811 55:0.44421741 56:0.51413852 57:0.44320279 58:0.29014099 59:0.42148188 60:0.75644839 61:0.47064984 62:0.70175058 63:0.67353278 
0 0 0 1.097407743521717 0 0 0 0 0 0 0 0 0 0 0 0 0 0 0 0 0 0.5126368916222923 0.3880887772999566 0 0 0 0 0 0 0 0 0 0 0 0 1:0.24740535 2:0.54158431 3:0.51813483 4:0.53818715 5:0.45000499 6:0.2204251 7:0.67715609 8:0.47137958 9:0.71506959 10:0.54151583 11:0.65800196 12:0.53382522 13:0.91827703 14:0.59160572 15:0.44085851 16:0.63594049 17:0.33341199 18:0.59029853 19:0.74054468 20:0.27616251 21:0.42162266 22:0.65493906 23:0.33621588 24:0.84077358 25:0.7271986 26:0.77120388 27:0.52899283 28:0.36900395 29:0.63155425 30:0.32337147 31:0.41225833 32:0.3808246 33:0.67506886 34:0.42950979 35:0.4721078 36:0.52461678 37:0.50115401 38:0.83749062 39:0.70277292 40:0.29231039 41:0.51473856 42:0.38040298 43:0.3264395 44:0.19041973 45:0.47175288 46:0.56951499 47:0.42154983 48:0.41626868 49:0.6218493 50:0.38342595 51:0.78699553 52:0.55920541 53:0.57734859 54:0.50822985 55:0.45124239 56:0.51407403 57:0.4467707 58:0.37065607 59:0.44386044 60:0.76677656 61:0.47034135 62:0.74334705 63:0.67693096 
0 0 0 0 0 0 0 0 0 0 0 0 0 0 0 0 0 0 0 0 0.2917840149778514 0 0 0 0 0 0 0 0 0 0 0 0 0 0 1:0.28240609 2:0.57453847 3:0.3854942 4:0.44177586 5:0.48461679 6:0.35100058 7:0.89974892 8:0.39239529 9:0.54557604 10:0.43552795 11:0.80061042 12:0.81657857 13:0.79615682 14:0.54142714 15:0.44629559 16:0.36740479 17:0.49426717 18:0.44627011 19:0.6761955 20:0.67046785 21:0.53610933 22:0.59639525 23:0.145907 24:0.80440587 25:0.65796787 26:0.59684443 27:0.40201166 28:0.48491994 29:0.78891033 30:0.30231637 31:0.58014894 32:0.53666085 33:0.73049241 34:0.36622965 35:0.53208619 36:0.53636771 37:0.56389892 38:0.71914738 39:0.60282928 40:0.35202563 41:0.489503 42:0.36733335 43:0.42082602 44:0.2859588 45:0.27733552 46:0.48925549 47:0.5047403 48:0.56265134 49:0.56988847 50:0.46348396 51:0.77198189 52:0.45372751 53:0.44038397 54:0.46918401 55:0.6288318 56:0.47231689 57:0.44850764 58:0.42527199 59:0.43864864 60:0.72106194 61:0.36365634 62:0.89610785 63:0.66522747 
0 0 0 0 0 0 0 0 0 0 0 0 0 0 0 0 0 0 2.266929820168626 0 0 0 0 0 0 0 0 0 0 0 0.248081451739483 0 0 0 0 1:0.30114898 2:0.62378383 3:0.66314638 4:0.4288604 5:0.44898945 6:0.42792836 7:0.71478313 8:0.51044393 9:0.72212899 10:0.58972275 11:0.65265107 12:0.4733268 13:0.71901256 14:0.64848548 15:0.33865187 16:0.64400953 17:0.29821163 18:0.68226749 19:0.64641577 20:0.34086281 21:0.49197367 22:0.61882591 23:0.32523465 24:0.80607718 25:0.687585 26:0.74287081 27:0.50775868 28:0.37033716 29:0.53908658 30:0.32445005 31:0.44457787 32:0.48735482 33:0.54260689 34:0.44694942 35:0.52697617 36:0.4775247 37:0.54821718 38:0.78284091 39:0.70150757 40:0.38396242 41:0.45526811 42:0.41939723 43:0.27896956 44:0.21214245 45:0.45053732 46:0.53697187 47:0.45977142 48:0.4580279 49:0.52963674 50:0.45567614 51:0.89053762 52:0.50968933 53:0.59077281 54:0.52174371 55:0.51826698 56:0.48118517 57:0.45683125 58:0.40526783 59:0.46291432 60:0.76329845 61:0.42339224 62:0.80410379 63:0.69947475 
0 0 0 0 0 0 0.6388405707174813 0 0.8621729340416734 0 0 0 0 0 0 0 0 0 0 0 0.05848469706281419 0 0.1098768247782949 0 0 0 0 0 0 0.7993116131997987 1.005954855045145 0 0 0 0 1:0.52771103 2:0.39333463 3:0.53681028 4:0.40709013 5:0.49682203 6:0.46240088 7:0.38323218 8:0.48315552 9:0.72088915 10:0.32962561 11:0.44680995 12:0.87938875 13:0.68436885 14:0.74956477 15:0.44876909 16:0.21262854 17:0.47799966 18:0.70487803 19:0.57934231 20:0.91470343 21:0.7115339 22:0.27784693 23:0.39407152 24:0.4367187 25:0.19819741 26:0.62555069 27:0.3623943 28:0.61396003 29:0.70356131 30:0.56246132 31:0.45109966 32:0.43562892 33:0.71049011 34:0.47939095 35:0.35066462 36:0.45818397 37:0.5670417 38:0.5947811 39:0.29323345 40:0.31027806 41:0.60848659 42:0.37733129 43:0.44597432 44:0.31632766 45:0.18215138 46:0.50942975 47:0.54121357 48:0.63548315 49:0.4637143 50:0.49987718 51:0.6646179 52:0.3874912 53:0.3816357 54:0.64335865 55:0.68710566 56:0.44528243 57:0.5211035 58:0.46818867 59:0.38748875 60:0.63721091 61:0.33647344 62:0.96319705 63:0.67207146 
0 0 0 0 0 0 0 0 0 0 0 0 0 0 0 0 0 0 3.640084373353487 0 0 0 0 0 0 0 0 0 0 0 0 0 0 0 0 1:0.47980687 2:0.53292406 3:0.55199456 4:0.70541823 5:0.52202898 6:0.56146157 7:0.43895456 8:0.60736918 9:0.40235689 10:0.59555578 11:0.1977745 12:0.71817315 13:0.64986819 14:0.68906879 15:0.34617341 16:0.70804143 17:0.45760131 18:0.42569238 19:0.48181888 20:0.548114 21:0.58633399 22:0.37361622 23:0.40428635 24:0.28002307 25:0.35164994 26:0.65231258 27:0.45393306 28:0.27614099 29:0.52695096 30:0.53945661 31:0.43662643 32:0.41194877 33:0.47330651 34:0.45870245 35:0.53282493 36:0.48185289 37:0.55392748 38:0.74407971 39:0.47842735 40:0.44038424 41:0.48228669 42:0.35577959 43:0.41793847 44:0.19982825 45:0.052345462 46:0.5259822 47:0.48685345 48:0.50122344 49:0.60788757 50:0.45033643 51:0.65277511 52:0.42698321 53:0.57452887 54:0.51543778 55:0.51241469 56:0.51122212 57:0.52492988 58:0.31153944 59:0.38148752 60:0.64897346 61:0.44717357 62:0.94202518 63:0.63809878 
0 0 0 0 0 0 0 0 0 0 0 0 0 0 0 0 0 0 0 0 0 0 0 0 0 0 0 0 0 0 0 0 0 0 0.2768233431448183 1:0.52424908 2:0.62574071 3:0.38703498 4:0.40881392 5:0.63779294 6:0.43747649 7:0.40405869 8:0.84833783 9:0.56436211 10:0.42119461 11:0.42252836 12:0.73278177 13:0.53744471 14:0.32138723 15:0.43990216 16:0.51320034 17:0.60410076 18:0.55722547 19:0.48837855 20:0.92037678 21:0.52038366 22:0.36452648 23:0.47940677 24:0.38092637 25:0.2485797 26:0.50200522 27:0.41616917 28:0.34051102 29:0.54783291 30:0.57090974 31:0.42401296 32:0.45323539 33:0.64788276 34:0.58173853 35:0.59153301 36:0.53781503 37:0.56619203 38:0.46011665 39:0.43254024 40:0.44198561 41:0.68210638 42:0.29719165 43:0.49549976 44:0.27294537 45:0.150405 46:0.54636854 47:0.43018803 48:0.72044742 49:0.61965036 50:0.50361598 51:0.72328752 52:0.38005897 53:0.46873689 54:0.5763846 55:0.75043792 56:0.49455401 57:0.412615 58:0.27227232 59:0.37889779 60:0.63482857 61:0.36894518 62:0.95666051 63:0.67912298 
0 0 0 0 0 0 0 0 0 0 0 0 0 0.0212810264250951 0 0 0 0 0 0 0 0 0 0 0.8933524886660213 0 0 0 0 0 0 0 0 0 0 1:0.63238573 2:0.40929598 3:0.46113363 4:0.63074732 5:0.45530036 6:0.49594089 7:0.54496789 8:0.48339432 9:0.35523286 10:0.61620384 11:0.15009134 12:0.59208763 13:0.80157399 14:0.59555227 15:0.35946906 16:0.84749371 17:0.37161249 18:0.47947723 19:0.64583594 20:0.47083232 21:0.6098358 22:0.34023744 23:0.45494732 24:0.47782403 25:0.40052143 26:0.52025449 27:0.5536691 28:0.21763638 29:0.41747019 30:0.51549083 31:0.47184101 32:0.33839417 33:0.5101409 34:0.55473948 35:0.61644262 36:0.46548334 37:0.52704132 38:0.68856615 39:0.55632973 40:0.38502544 41:0.46397901 42:0.39317942 43:0.49053782 44:0.1702002 45:0.14353685 46:0.55359161 47:0.41959786 48:0.59511232 49:0.58436197 50:0.41150478 51:0.7007708 52:0.34705752 53:0.61935616 54:0.57457721 55:0.58662796 56:0.54201454 57:0.57063782 58:0.25501341 59:0.40787914 60:0.60257244 61:0.31476402 62:0.94140887 63:0.67685956 
0.3346859544532572 0 0 0 0 1.030959236764937 0 0 0 0 0 0 0 0 0 0 0 0 0 0 0 0 0 0 0 0 0 0 0 0 0 0 0 0 0.14108292566459 1:0.37368056 2:0.48146933 3:0.52948034 4:0.64390355 5:0.38773561 6:0.25648525 7:0.71479928 8:0.82495058 9:0.47947147 10:0.71396351 11:0.90127224 12:0.67250955 13:0.68061417 14:0.49953061 15:0.43950006 16:0.49480218 17:0.27144244 18:0.40803048 19:0.6581409 20:0.43071163 21:0.33456376 22:0.58926129 23:0.29465586 24:0.7309193 25:0.47192416 26:0.82965249 27:0.37084439 28:0.22804293 29:0.6275152 30:0.24013533 31:0.56013 32:0.49643615 33:0.81033593 34:0.54378504 35:0.42462671 36:0.4337205 37:0.60801458 38:0.96696967 39:0.84080899 40:0.31467718 41:0.50618869 42:0.5600968 43:0.5006811 44:0.23636067 45:0.3875021 46:0.64753073 47:0.39181519 48:0.64263767 49:0.76511461 50:0.57331693 51:0.74279398 52:0.45394403 53:0.48953497 54:0.59163952 55:0.54974699 56:0.51655406 57:0.37563428 58:0.46848288 59:0.42458591 60:0.7256102 61:0.50925303 62:0.64526778 63:0.76622236 
0 0.760155724241925 0 1.42393658565186 0 1.621825779081755 0 1.546098826512482 0.2346357029053915 2.079882687228845 1.600285524121324 0.8559319989650318 1.192457304361557 3.16557058931527 0.9970917506950944 2.167710760854747 0 0.6292297381443099 0 0.1277898548216459 0.1160533449227087 1.722778499751126 0.1827029113324337 0 0.131785090026087 0 1.123431041253748 0 0 2.691126648675147 1.899644680121662 0 0.9995821510271511 0.2771105463516663 0 1:0.39752761 2:0.53588599 3:0.61660725 4:0.57947224 5:0.52073497 6:0.2576654 7:0.8640905 8:0.56853849 9:0.79220575 10:0.48175976 11:0.828273 12:0.91940397 13:0.5252648 14:0.56237066 15:0.51018184 16:0.29551536 17:0.30784068 18:0.54072416 19:0.70962852 20:0.85229689 21:0.52331769 22:0.5326404 23:0.43598399 24:0.6708582 25:0.39620823 26:0.63227212 27:0.46554819 28:0.46017516 29:0.59267926 30:0.48824549 31:0.73421758 32:0.42919225 33:0.80007994 34:0.4866465 35:0.33179876 36:0.40958196 37:0.62048542 38:0.93531859 39:0.71150112 40:0.31943196 41:0.45315793 42:0.54771888 43:0.44418597 44:0.46761137 45:0.31369123 46:0.55100411 47:0.51282537 48:0.50468922 49:0.62556052 50:0.47706878 51:0.70573884 52:0.53997034 53:0.39102605 54:0.62192017 55:0.61165845 56:0.3471483 57:0.42892545 58:0.55891556 59:0.48113304 60:0.72633857 61:0.5124411 62:0.68621373 63:0.67129624 
0 0 0.9239403776428821 0 0 0 0 0 0.1383706221905222 0 0 0 0 0 1.756986511612527 0 0 0 0 0 0 0 0 0 0 0 0 0 0 0 0 0 0 0 0 1:0.14869429 2:0.55747324 3:0.56916648 4:0.49146473 5:0.37001586 6:0.34560123 7:0.72968209 8:0.54831702 9:0.46276349 10:0.59097272 11:0.98078442 12:0.54418319 13:0.59740025 14:0.44664222 15:0.38967431 16:0.48008999 17:0.3333745 18:0.33882892 19:0.60957301 20:0.51484078 21:0.2729013 22:0.61743838 23:0.38054565 24:0.74144346 25:0.56953603 26:0.78432971 27:0.41743925 28:0.48130518 29:0.54418814 30:0.36457768 31:0.48310497 32:0.63098007 33:0.72040182 34:0.55059099 35:0.42189372 36:0.40170935 37:0.66001016 38:0.93547159 39:0.75498819 40:0.38971025 41:0.63027573 42:0.4379473 43:0.39707246 44:0.27659076 45:0.37990278 46:0.65013218 47:0.38339248 48:0.56226575 49:0.83976692 50:0.48305145 51:0.77540702 52:0.57997054 53:0.41033676 54:0.50414544 55:0.44857955 56:0.52532059 57:0.39121404 58:0.45772171 59:0.52148241 60:0.75063848 61:0.56774175 62:0.64980531 63:0.73537165 
0 0 0 0 0 0 0 0 0 0 0.2025184358902835 0 0 0 0 0 0 0 0 0 0 0 0 0 0.7228398848616674 0 0 0 0 0 0 0 0 0 0 1:0.29415879 2:0.53907061 3:0.5928849 4:0.68798912 5:0.4627977 6:0.2835553 7:0.64042342 8:0.43383005 9:0.53894687 10:0.61122507 11:0.87912673 12:0.59980655 13:0.71526414 14:0.50882387 15:0.49621242 16:0.65406251 17:0.30897638 18:0.50295848 19:0.69931096 20:0.22224799 21:0.47717518 22:0.64736378 23:0.42643064 24:0.77030122 25:0.69274801 26:0.7486527 27:0.40942612 28:0.20744549 29:0.50431895 30:0.30804238 31:0.56697071 32:0.43498904 33:0.69073468 34:0.52820843 35:0.47758463 36:0.44442052 37:0.60616744 38:0.93641973 39:0.69215703 40:0.40050712 41:0.50134343 42:0.47083077 43:0.33952281 44:0.20495316 45:0.3952941 46:0.53089458 47:0.42615259 48:0.39168292 49:0.72444963 50:0.43924734 51:0.83537191 52:0.50917685 53:0.50104958 54:0.53271174 55:0.5292576 56:0.50898218 57:0.46825722 58:0.40093026 59:0.48460108 60:0.74006724 61:0.46765515 62:0.70187175 63:0.64414829 
0 0 0 0 0 0 0 0 0 0 0 0 0 0 0 0 0 0 0 0 0 0 0 0 0 0 0.2248848549213679 0 0 0 0 0 0 0 0 1:0.27745017 2:0.59655762 3:0.47014976 4:0.61155641 5:0.4433822 6:0.17887083 7:0.71008843 8:0.59522355 9:0.54347068 10:0.73889703 11:0.84969437 12:0.59763557 13:0.76315165 14:0.52557766 15:0.51068741 16:0.41135889 17:0.31817695 18:0.4065147 19:0.59197932 20:0.38221186 21:0.59419394 22:0.57955879 23:0.3579776 24:0.63590759 25:0.38416928 26:0.68685102 27:0.48082066 28:0.44547102 29:0.64744407 30:0.45397657 31:0.59668791 32:0.56886733 33:0.72058493 34:0.3698923 35:0.45032391 36:0.3869397 37:0.6594339 38:0.91061169 39:0.60405558 40:0.3224377 41:0.47989002 42:0.32604834 43:0.39373925 44:0.27079675 45:0.3238079 46:0.5150739 47:0.38130403 48:0.48795131 49:0.79597127 50:0.52677268 51:0.80890465 52:0.51311123 53:0.41992122 54:0.57923573 55:0.57661307 56:0.47068435 57:0.44454762 58:0.45069435 59:0.49917129 60:0.72776884 61:0.43525711 62:0.76320481 63:0.61930352 
0 0.2518256459354499 0 0 0 0 0 0 0 0 0 0 0 0 0 0 0 0 0 0 0 0 0 0 0 0 0 0 0 0 0 0 0 0 0 1:0.38513657 2:0.56704843 3:0.55560261 4:0.35177255 5:0.54034871 6:0.28514418 7:0.67335433 8:0.60625303 9:0.36480328 10:0.54553163 11:0.92979932 12:0.41705406 13:0.61851305 14:0.61954296 15:0.36322767 16:0.60229772 17:0.29297122 18:0.39842194 19:0.58715463 20:0.3535085 21:0.4955824 22:0.71541017 23:0.43696618 24:0.82913244 25:0.47465634 26:0.71811396 27:0.36434564 28:0.40948254 29:0.41746855 30:0.33388871 31:0.55134088 32:0.62188941 33:0.53893435 34:0.57527739 35:0.70396477 36:0.386462 37:0.73682851 38:0.68908501 39:0.65000701 40:0.5033105 41:0.60095352 42:0.44872919 43:0.37184435 44:0.29486713 45:0.45087525 46:0.52797306 47:0.57229549 48:0.60633796 49:0.75025249 50:0.48409352 51:0.91288376 52:0.43185696 53:0.50177109 54:0.41583237 55:0.63317704 56:0.56153798 57:0.49105501 58:0.40069428 59:0.61505198 60:0.75263852 61:0.39658323 62:0.78314638 63:0.62406558 
0 0 0 0 0 0 0 0 0 0 0 0.3131461610058882 0 0 0 0 0 0 0 0 0 0 0 0 0 0 0.1398014203328996 1.641967323643374 0 0 0 0 0 0 0 1:0.39558026 2:0.53509623 3:0.66061389 4:0.57918847 5:0.29585439 6:0.34376365 7:0.61764091 8:0.56261861 9:0.55380052 10:0.54041427 11:0.8400563 12:0.54775274 13:0.3878684 14:0.52222478 15:0.51594359 16:0.4631488 17:0.24662724 18:0.42465976 19:0.63773996 20:0.33650836 21:0.46969575 22:0.58416456 23:0.42517838 24:0.8211686 25:0.61544639 26:0.61922288 27:0.45236614 28:0.34714225 29:0.47142002 30:0.34914801 31:0.62311429 32:0.59310287 33:0.65969628 34:0.45705578 35:0.68062752 36:0.45672083 37:0.68437254 38:0.83398217 39:0.68313247 40:0.44191667 41:0.51682287 42:0.43481025 43:0.37013587 44:0.28703371 45:0.44425306 46:0.43254572 47:0.4913131 48:0.45138994 49:0.78232354 50:0.48928127 51:0.84683388 52:0.41936481 53:0.47113127 54:0.38575733 55:0.60508651 56:0.47756156 57:0.40383968 58:0.38830277 59:0.526079 60:0.71999633 61:0.46018606 62:0.70704693 63:0.61200386 
0 0 1.362885748845461 0 0 0 0 0 0 0.2783616303570672 0.8026654741368644 2.006727225254263 0 0.4944807264395591 0 0 0 0 0 0 0 0 0 1.413989448854769 0.308843776164427 0 0 0.01780065946039828 0 0.1494080512362984 0 0 0 2.339053159255868 0 1:0.2851617 2:0.51431388 3:0.51510102 4:0.57159877 5:0.45112351 6:0.29483342 7:0.58429015 8:0.49811244 9:0.56118524 10:0.53630644 11:0.93282157 12:0.40866399 13:0.56657732 14:0.65278178 15:0.43277133 16:0.60849863 17:0.20958443 18:0.55494177 19:0.61047786 20:0.2534278 21:0.56388229 22:0.58934867 23:0.42099327 24:0.89395905 25:0.5433228 26:0.74878186 27:0.36506322 28:0.29920629 29:0.37893665 30:0.30632651 31:0.43420196 32:0.56002325 33:0.57262754 34:0.55225456 35:0.56776541 36:0.36555141 37:0.70259297 38:0.84062541 39:0.71326882 40:0.42683679 41:0.54282606 42:0.55164635 43:0.34972724 44:0.29477501 45:0.44382414 46:0.54603565 47:0.43211323 48:0.54340023 49:0.69931763 50:0.5365082 51:0.84265137 52:0.46783388 53:0.54700816 54:0.59362274 55:0.60585839 56:0.45846403 57:0.47641981 58:0.45101869 59:0.55737281 60:0.75475532 61:0.41531312 62:0.69679117 63:0.70821071 
0 0 0 0 0 0 0 0 0 0 0 0 0 0 0 0 0 0 0 0 0 0 0 0 0 0 0.4700457118546331 0 0 0 0 0 0 0 0 1:0.69838232 2:0.50359362 3:0.30956674 4:0.69193107 5:0.41874233 6:0.40211856 7:0.5672425 8:0.57105708 9:0.72150058 10:0.3203499 11:0.23031889 12:0.93354589 13:0.50074399 14:0.69022864 15:0.076216802 16:0.43087354 17:0.39000142 18:0.54136962 19:0.62509853 20:0.70310354 21:0.66024864 22:0.65401387 23:0.48235804 24:0.29377669 25:0.37989455 26:0.67893851 27:0.5006786 28:0.3837561 29:0.85040545 30:0.26167116 31:0.58264059 32:0.38728395 33:0.62380034 34:0.51921016 35:0.29715243 36:0.45862785 37:0.4194116 38:0.60788542 39:0.46341893 40:0.43657321 41:0.43336108 42:0.43880776 43:0.62959576 44:0.25618091 45:0.0881823 46:0.63241559 47:0.37895519 48:0.55657566 49:0.56193638 50:0.56842029 51:0.68207741 52:0.35601267 53:0.45182079 54:0.56289476 55:0.49226764 56:0.50271273 57:0.43545523 58:0.32927758 59:0.25726056 60:0.64609659 61:0.5408839 62:0.8412115 63:0.67427307 
0 0 0 0 0 0 0 0 0 0 0 0 0 0 0 0 0 0 0 0 0 0 0 0 0 0 1.427336013558904 0 0 0 0 0 0 0 0 1:0.58871931 2:0.496097 3:0.44358984 4:0.64344198 5:0.484588 6:0.78883326 7:0.30019119 8:0.49849379 9:0.65719962 10:0.52559996 11:0.52885455 12:0.84031308 13:0.48470891 14:0.54403776 15:0.38891876 16:0.39654297 17:0.36895129 18:0.65219939 19:0.65931034 20:0.74556494 21:0.60117441 22:0.50599575 23:0.49357268 24:0.34122694 25:0.48136872 26:0.28513777 27:0.44122308 28:0.54708606 29:0.51653993 30:0.61370087 31:0.37394738 32:0.39267382 33:0.6329667 34:0.62544167 35:0.36096776 36:0.42480484 37:0.58080983 38:0.58334363 39:0.5076682 40:0.41111067 41:0.61630261 42:0.3294622 43:0.50782835 44:0.24274795 45:0.23705287 46:0.62738949 47:0.36365607 48:0.62169778 49:0.81523889 50:0.54564643 51:0.62629008 52:0.46954441 53:0.53500408 54:0.44307256 55:0.52230251 56:0.59929973 57:0.39990231 58:0.22419937 59:0.41341051 60:0.743469 61:0.5138737 62:0.83078742 63:0.66879094 
